77 16
11 -0.25563368 -0.08782792 0.31109667 0.4124883 0.030300567 0.11411346 0.76110387 -0.111793324 -0.17752135 0.016882248 -0.071299985 -0.061492473 -0.39738646 -0.072102964 -0.27604264 -0.28309944
56 -0.5670781 0.006561442 0.055975873 0.4381975 0.098643586 0.23040578 0.5837894 -0.21900436 -0.0037628983 -0.03834433 -0.090886146 0.12925404 -0.3391611 -0.32808557 -0.39325175 -0.36611584
59 -0.60967916 -0.19706623 -0.089587696 -0.03436894 0.40144715 0.0515382 0.66525054 -0.40915582 0.044566717 0.31131607 -0.38902947 -0.110578425 -0.2845152 -0.46398637 -0.72840077 -0.31070617
63 -0.6662426 -0.11874313 -0.17202975 -0.18896347 0.37778547 0.08654042 0.83183336 -0.38214234 0.24879298 0.37234446 -0.24954411 -0.08057639 -0.17158423 -0.461562 -0.9449034 -0.42327848
27 -0.36931252 -0.042907543 0.19713506 0.6161223 -0.17963344 0.26271495 0.73997164 -0.23270972 -0.10745939 -0.17282158 -0.017057514 0.18163966 -0.29659733 -0.23717384 -0.2078391 -0.36120662
26 -0.035471313 -0.051657137 0.47378737 0.4556974 0.017741464 0.28524625 1.0095085 -0.15208264 -0.39099097 0.18778606 0.082007095 -0.043395057 -0.1716894 0.07181622 -0.07462118 -0.23425432
60 -0.6394932 -0.2370652 -0.12828568 -0.032152694 0.34905463 0.12133697 0.7529763 -0.23288245 0.12564662 0.2392467 -0.23300827 -0.16855343 -0.08738354 -0.4841573 -0.7625816 -0.45692945
65 -0.68533874 -0.045311112 -0.16379006 -0.13534287 0.45931527 0.23764886 0.74301744 -0.30767217 0.1607808 0.36462647 -0.30100754 -0.17820343 -0.147839 -0.37260416 -0.95177066 -0.46114835
49 -0.6080096 -0.15393813 0.095016226 -0.34748003 0.5209231 0.015055258 0.79370475 -0.3410595 0.14888656 0.503547 -0.19853163 -0.13337617 -0.16158584 -0.47217628 -0.7407992 -0.31899896
28 -0.24886028 -0.0834921 0.5154689 0.34739003 0.17671336 0.20727164 0.825535 -0.23526143 -0.266365 0.162102 0.09718558 -0.036038812 0.009585138 -0.13904081 -0.09046812 -0.20095894
24 -0.5175797 -0.35989946 0.47048998 0.7590375 -0.03750727 0.14563093 0.62038803 -0.35524774 -0.11145105 0.10831517 0.488356 -0.27330938 0.015777173 -0.39594638 0.19146211 -0.05836908
66 -0.6786255 -0.08667735 -0.19669844 -0.30281174 0.40214455 0.13171256 0.78959924 -0.34863323 0.086276226 0.27585727 -0.44348148 -0.22606322 -0.2081679 -0.44064534 -0.9105911 -0.5153395
64 -0.58367425 -0.09302439 -0.16040494 -0.152467 0.53564423 0.21583664 0.8631326 -0.21679208 0.12145761 0.5072148 -0.35004646 -0.11193034 -0.10850566 -0.27216917 -1.0051539 -0.48861516
62 -0.60388464 -0.06836814 -0.15755974 -0.16398312 0.3899947 0.13459101 0.76306826 -0.28671056 0.06870573 0.2676916 -0.28128913 -0.26128992 -0.17139263 -0.4223793 -0.8220085 -0.47592133
25 -0.06177709 -0.14387764 0.43303812 0.38838533 0.071513526 0.30262536 0.9065269 -0.1944306 -0.31583482 0.13790035 0.10418871 -0.05012705 -0.1758984 -0.044999346 -0.2643748 -0.20226388
50 -0.5667168 0.14241478 -0.24149568 0.6712382 -0.006060729 0.4129957 0.57389796 -0.22301236 -0.08493829 -0.07758133 0.018815028 0.14660363 -0.39653164 -0.3393113 -0.5592697 -0.39198804
70 -0.042913813 -0.09307405 0.367139 0.19108993 0.25575212 0.42432567 1.111715 -0.11966891 -0.23834622 0.4883655 0.24747854 0.11508169 -0.37577912 0.203236 -0.16580476 -0.07578462
2 0.117518365 -0.2777806 0.5230319 0.7027113 0.34133908 -0.13884412 0.6833189 -0.093946904 -0.9124491 -0.7454829 -0.16590291 -0.65523726 0.3459121 -0.5737335 -0.15580177 -0.6106034
69 0.058851834 -0.09366568 0.25164607 0.20763457 0.30478036 0.45668635 1.1581995 -0.09036817 -0.14466812 0.524379 0.25514182 -0.038815677 -0.27586755 0.24567173 -0.3207154 -0.13643855
21 -0.67497236 -0.5658276 0.55979115 1.167523 0.06731341 0.05217902 0.664623 -0.45121482 -0.09392113 0.25063857 0.8723235 -0.39670584 0.22798961 -0.7872943 0.26782674 0.17223115
18 -0.49721545 -0.49640462 0.5536891 1.1774851 -0.015574705 0.15146084 0.6551362 -0.38282156 -0.20991933 0.24021451 0.77710646 -0.38881013 0.2493458 -0.7221594 0.17749013 0.10724931
22 -0.76186186 -0.57638836 0.39100224 1.0639315 0.14673342 0.14971063 0.64105636 -0.49871397 0.090911485 0.5204419 0.9161666 -0.3869746 0.2062055 -0.7911263 0.19231421 0.15413256
20 -0.7282973 -0.62056726 0.688876 1.0907701 0.06363307 0.11476981 0.6889029 -0.5107071 -0.13462293 0.26837137 0.85154253 -0.3437625 0.14700861 -0.73232514 0.39842188 0.22034827
17 -0.8384299 -0.71628296 0.6874363 1.2680537 0.007438552 0.024983676 0.6083689 -0.59188193 -0.14213367 0.28998902 0.82232684 -0.42164847 0.18875161 -0.88803846 0.40830922 0.1233691
19 -0.632618 -0.4952026 0.58554924 1.1081928 -0.019951308 0.104355335 0.6659922 -0.4261948 -0.086089395 0.37891066 0.7889042 -0.21539417 0.14165 -0.6863779 0.052574553 0.053254485
52 -0.40687358 0.14050798 -0.11696533 0.8150608 -0.101746894 0.3498951 0.57735837 -0.09684275 -0.28980377 -0.22837465 -0.13057846 0.10972167 -0.17376964 -0.30793363 -0.44944042 -0.52953017
23 -0.70807225 -0.491767 0.64390546 1.0893735 0.025742603 -0.029532809 0.6240925 -0.38557288 -0.095066465 0.19239724 0.7693266 -0.3087553 0.14377193 -0.76678884 0.3827172 0.14874946
71 0.09386211 -0.20513874 0.3602564 0.28647166 0.14996745 0.45963633 1.1413268 -0.09279822 -0.24537823 0.38416615 0.3272967 -0.00011774083 0.014359167 0.05527024 -0.3461583 -0.09511407
4 0.22355841 -0.16588272 0.5607143 0.560718 0.29600975 -0.16292627 0.72307616 -0.13496639 -1.0332359 -0.73469687 -0.3113973 -0.5847522 0.3553675 -0.4493528 -0.18297562 -0.5713952
61 -0.79622823 -0.13977718 -0.1810435 -0.11548365 0.4493394 0.16094731 0.66243935 -0.27839792 0.17710255 0.4179179 -0.20458665 -0.24176778 -0.048375584 -0.5425332 -0.8524104 -0.50535333
3 0.17675497 -0.10414666 0.4359238 0.43512362 0.23193951 -0.11801816 0.78360915 -0.010747777 -1.0055194 -0.70532644 -0.2895825 -0.577074 0.32335287 -0.36867207 -0.2707243 -0.6807755
42 0.04988658 -0.04915378 0.2618984 0.16017848 0.18319246 0.4142731 0.9938856 -0.19079283 -0.34341264 0.37320688 0.11789315 -0.026650338 -0.071798235 0.001986985 -0.47418913 -0.22123328
67 -0.7386974 -0.11330258 -0.23563854 -0.23074704 0.5048726 0.17903371 0.723976 -0.27415004 0.08593868 0.5241773 -0.20298156 -0.17383938 -0.07977844 -0.48234227 -0.95380193 -0.53651154
58 -0.5369641 0.010789002 -0.101255395 -0.0058791037 0.4083896 0.13231674 0.77952874 -0.14151481 0.092984796 0.48605478 -0.122191176 -0.24601127 0.18250155 -0.51109135 -0.99629617 -0.46250865
29 -0.2214606 -0.25431255 0.745788 0.7917763 -0.26128593 -0.038403362 0.73746246 -0.26200914 -0.11760089 -0.1733681 -0.5241262 0.31840944 -0.15400136 -0.1684973 -0.19006135 -0.5807675
76 0.13230605 -0.08479916 0.5126271 0.13991575 0.30164558 0.6648727 1.396834 -0.098340906 -0.29163012 0.60401976 0.32661244 0.17463398 -0.18647932 0.337576 -0.40099892 -0.044332553
35 -0.52500236 -0.12523746 0.78021127 0.15151332 0.27686858 -0.13937376 0.8793776 -0.4303761 -0.33016005 -0.37533888 -0.43705258 0.013165175 -0.86502355 -0.1451591 0.2571697 -0.19478199
36 -0.580453 -0.18509875 0.80183035 0.0997159 0.22055769 -0.22173733 0.8029235 -0.43194807 -0.17801724 -0.31706816 -0.5468374 0.007995684 -0.894748 -0.21372202 0.08462532 -0.27289653
72 0.0697122 -0.10149151 0.4207198 0.07560043 0.26211983 0.41101146 1.1316547 -0.097205825 -0.28805345 0.3368273 0.047579534 -0.13375935 -0.16188723 0.14481485 -0.3310025 -0.25077283
30 -0.8097816 -0.22168435 0.8327113 0.036608383 0.2753488 -0.2585588 0.6510723 -0.39421847 -0.05228787 -0.15841281 -0.41460449 0.0075913025 -0.9745222 -0.39495197 0.286054 -0.19893263
38 -0.6972996 -0.20502442 0.8560695 0.06287476 0.26375723 -0.10527587 0.71943736 -0.53975934 -0.20240854 -0.25331256 -0.56805366 0.0022522248 -1.0468333 -0.2349898 0.14405467 -0.30840096
39 -0.45771396 -0.18078458 0.8115756 0.078047 0.15954988 -0.14694956 0.9837282 -0.37134215 -0.4031454 -0.37116727 -0.5390385 0.037422743 -1.0872257 -0.11566955 0.15558992 -0.21515173
37 -0.63027835 -0.1804201 0.9786797 0.0076421318 0.36952487 -0.18745764 0.7928435 -0.41174284 -0.28769678 -0.32896894 -0.5396096 -0.07493629 -0.9813024 -0.301419 0.33323604 -0.24747896
32 -0.4699384 -0.19980648 0.4331741 0.6598126 -0.062068533 0.1911252 0.7071351 -0.28071108 -0.06904965 0.0025556008 0.2027783 -0.14302512 -0.026810436 -0.4527214 0.13189265 -0.121038124
77 -0.58802557 -0.024230668 -0.20736596 -0.26950943 0.48083484 0.19072597 0.85454386 -0.23469341 0.087701924 0.37563965 -0.37083662 -0.14175293 -0.109279305 -0.36884108 -1.0371953 -0.5751949
44 -0.12319044 -0.067662045 0.42278612 0.46174216 -0.0054002777 0.30155987 0.84579027 -0.09832082 -0.34343278 0.13394332 -0.006887166 0.042026397 -0.10802969 -0.12586631 -0.25282437 -0.3330532
55 -0.43829045 0.08454551 -0.08312096 0.6479497 0.08097133 0.3611398 0.67214674 -0.124293625 -0.04111022 0.00681669 -0.008715002 0.111965574 -0.19677086 -0.22319965 -0.543427 -0.36106044
45 -0.35380512 -0.28480315 0.7878916 0.70786464 -0.19867896 -0.029312894 0.7517437 -0.20079836 -0.093447864 -0.22290063 -0.52746046 0.3009657 -0.38484058 -0.13251795 -0.14356294 -0.4368729
43 0.1906641 -0.13411403 0.4473839 0.4334371 0.112087525 0.51360375 1.1215999 -0.04842079 -0.3651702 0.2862696 0.3729605 -0.06576544 -0.10710186 0.117358305 -0.3878347 -0.13798487
75 -0.62727785 0.1949488 0.09010696 -0.276413 1.1258283 0.28582177 0.8619828 -0.20825517 -0.23590489 0.7829416 -0.6452089 -0.23449337 -0.064877205 -0.3739648 -0.75849324 -0.6791481
74 -0.70969236 0.31809315 0.034405205 -0.26325023 1.0775062 0.30832323 0.852821 -0.21932337 -0.22886193 0.7329568 -0.64705044 -0.26791754 0.07133851 -0.3916688 -0.7020171 -0.6743347
73 -0.10398685 -0.021716997 0.37041196 0.42179257 -0.017145718 0.22602661 0.82127297 -0.14514995 -0.35345 -0.21215405 -0.21802747 -0.03177701 -0.2771378 -0.09625979 -0.14600861 -0.4143699
13 -0.4396546 -0.29549897 0.57167137 0.79254204 -0.01302479 0.006946329 0.50480926 -0.37374547 -0.16204244 0.032334406 0.32098645 -0.22059269 0.021326104 -0.5408097 0.20449731 -0.032265604
31 -0.41982847 -0.22720145 0.52865386 0.72364247 -0.026283843 0.14434025 0.68133646 -0.29364422 -0.13820758 0.0937995 0.40416172 -0.24902716 -0.06866379 -0.42291152 0.27531022 -0.111772604
47 -0.8580869 -0.06314431 0.011778234 -0.1477017 0.6868268 0.22595882 0.64368135 -0.15261704 0.11041314 0.6611733 -0.5148732 -0.44612825 -0.121903114 -0.5730974 -0.959134 -0.5788558
40 -0.1310307 -0.07192941 0.24522573 0.53366965 0.13125762 0.5468543 0.964163 -0.16222341 -0.23890881 0.31926402 0.17597876 0.07784882 -0.18318318 -0.04603529 -0.3148343 -0.15547392
34 -0.14577585 -0.13586812 0.53686243 0.47894782 0.015360757 0.17990747 0.80371755 -0.14858754 -0.28176507 0.029087156 0.07735195 -0.0037042382 -0.22262648 -0.13385823 -0.055599358 -0.23516805
68 -0.7475989 0.023766017 -0.17721988 0.08411769 0.47872922 0.07556142 0.78906816 -0.3233014 0.27369905 0.6688906 -0.22647637 -0.14281657 0.03599437 -0.5158345 -1.0674317 -0.3154081
46 -0.20353436 -0.20205998 0.8018941 0.5534653 -0.098909475 0.10990034 0.8191279 -0.11784069 -0.2550052 -0.2121671 -0.503931 0.3435738 -0.48516214 0.057436008 -0.18823357 -0.5427712
53 -0.36636263 0.07560388 -0.041908264 0.75514835 0.08827676 0.5561212 0.8266725 -0.082202844 -0.20926894 0.1735454 0.121296905 -0.038479533 -0.21133871 -0.2896439 -0.47727668 -0.36464563
57 -0.39491132 0.06310383 0.21975417 0.33088604 0.09003521 0.18328972 0.68203694 -0.23861681 -0.14124279 -0.0014613261 -0.16190065 0.046134964 -0.29459414 -0.27600935 -0.38634816 -0.39983535
51 -0.13474938 -0.015415309 0.29157585 0.39222857 0.09393918 0.37686905 0.9294048 -0.064448446 -0.23372461 0.08246881 -0.06386419 0.10995907 -0.25791964 0.04060869 -0.44696566 -0.25921622
9 0.05508322 -0.11196236 0.64289254 0.4912986 0.12403393 -0.14177887 0.7526755 -0.08469377 -0.8078851 -0.7451664 -0.38237527 -0.5779107 0.09134646 -0.48139936 -0.17147766 -0.61736906
48 -0.87204254 -0.10251686 0.06588229 -0.20045419 0.81372005 0.21012194 0.8315664 -0.14097644 0.123005964 0.6631474 -0.40390992 -0.4391457 -0.14602616 -0.5538113 -0.94824433 -0.60966355
15 -0.18669213 -0.064438574 0.49222726 0.35022902 0.13338597 0.19819984 0.8013332 -0.16339102 -0.27066448 0.011049727 -0.0722872 0.02219436 -0.27198264 -0.08846917 -0.15213585 -0.2913119
16 -0.29732582 -0.12275035 0.3121806 0.39125752 0.13462876 0.105126046 0.7317429 -0.20207976 -0.26798838 0.077118434 -0.042680718 -0.13186055 -0.17970313 -0.2222491 -0.22964531 -0.26413557
7 0.0016778836 -0.17397492 0.5216107 0.4282616 0.13609181 -0.13069576 0.6287135 -0.08827907 -0.7380373 -0.48326346 -0.31198615 -0.4948712 0.13609874 -0.36086792 -0.11052279 -0.40743247
41 -0.15029183 -0.049897477 0.40663093 0.45510575 0.14970943 0.2998366 0.9197184 -0.10325872 -0.19814007 0.27638263 0.1646847 0.06967942 -0.26073587 -0.003954759 -0.28694168 -0.18800837
1 -0.0019745715 -0.13883266 0.72661996 0.44159994 0.23740356 -0.12220764 0.7786067 -0.14479744 -0.75582886 -0.6931646 -0.43153954 -0.52362645 0.0272572 -0.3311325 -0.12601878 -0.58193517
14 -0.14511442 -0.116289675 0.31806546 0.4086035 0.10159589 0.11074209 0.7177017 -0.10949864 -0.3511019 -0.10401034 -0.089374684 -0.15830806 -0.11060117 -0.22870742 -0.2738561 -0.40835842
5 -0.11373176 -0.25807214 0.5448392 0.45565635 0.12185404 -0.16827026 0.60285604 -0.11124411 -0.62040436 -0.4832296 -0.21722357 -0.49155158 0.0932852 -0.42660296 -0.06897424 -0.44836485
33 -0.39207536 -0.14774656 0.30655545 0.355024 0.071648784 0.05656355 0.6613591 -0.18501611 -0.17659353 -0.010174274 -0.02076345 -0.09371728 -0.17217349 -0.26268217 -0.17334604 -0.32490158
6 -0.056743454 -0.1781422 0.48888728 0.5267097 0.23006523 -0.046354774 0.7049924 -0.17826927 -0.65816987 -0.4405348 -0.20191157 -0.4966029 0.07585425 -0.40567923 -0.10194463 -0.4324084
8 -0.04823712 -0.12765579 0.5112351 0.46177018 0.21410446 -0.07841729 0.6471507 -0.050686464 -0.6962126 -0.43495554 -0.3195706 -0.40310222 0.034183554 -0.24274379 -0.1574245 -0.47423896
54 -0.30913067 -0.06205445 0.10973637 0.27223054 0.23649962 0.21601075 0.66956395 -0.19916065 -0.19566606 0.11906675 -0.028156063 -0.12820499 -0.1768052 -0.28749713 -0.40598962 -0.32144988
12 -0.21784124 -0.21248744 0.51407725 0.42114323 0.11125021 0.20829548 0.70715165 -0.1442919 -0.19609618 0.028466502 0.11116321 -0.14347593 -0.17088918 -0.22153036 -0.06288064 -0.2034486
10 -0.16705532 -0.17676193 0.51489264 0.41211006 0.15748642 -0.110866405 0.6009129 -0.12269858 -0.5168296 -0.35385355 -0.26252478 -0.3175422 0.008496622 -0.35885823 -0.15670995 -0.39160505
