77 16
11 -0.0307564 -0.13950457 0.55341625 0.1875237 0.1917547 -0.123183645 0.7485764 -0.005211356 0.0040758424 -0.2087546 0.09888324 -0.24984723 0.038353894 -0.34902737 -0.3398875 -0.12787406
56 -0.20621215 -0.07541272 0.17917559 -0.02294048 0.3008623 -0.17628416 0.88536483 0.23965141 0.1042196 -0.12624332 0.016679361 -0.07091848 -0.17561443 -0.32634473 -0.48663196 -0.21994647
59 -0.06293207 0.19988354 0.05458867 0.038142797 0.09598182 -0.3970922 0.8520878 -0.12651709 0.29405105 0.15352985 -0.12149462 0.07986495 0.19389835 -0.36763152 -0.6751065 -0.18568912
63 -0.15111814 0.37150314 -0.061077517 -0.059176635 0.049405627 -0.39628485 0.9373267 -0.15602626 0.4874983 0.21534236 -0.12576452 0.21430793 0.028444732 -0.47212127 -0.7510136 -0.36945558
27 -0.1665188 -0.2696957 0.4565619 0.22220898 0.37582302 -0.030920805 0.78756654 0.16100584 0.04556544 -0.18124108 0.16367625 -0.33761135 -0.1805734 -0.3104916 -0.23657392 -0.20267451
60 -0.15546449 0.45565575 0.058250457 -0.045430742 -0.088984706 -0.46527097 0.9766772 -0.14566272 0.3697393 0.17437917 -0.16687483 0.28138506 0.2966351 -0.44935033 -0.7529696 -0.31815282
65 -0.34543854 0.2653972 0.05461723 -0.09707445 -0.024407132 -0.47494918 0.98432523 0.057823785 0.24911924 0.015649153 -0.105468795 0.25516886 0.1038672 -0.4524788 -0.73831284 -0.4960542
26 -0.63185656 -0.23568547 0.14623033 0.5317978 0.34330735 -0.012514941 0.7341497 0.22001906 -0.0628994 -0.12186741 0.002690056 -0.46315014 -0.068628184 -0.3349115 -0.35325974 -0.18942688
49 -0.34714985 0.2240423 0.08240891 0.09954398 -0.00058739196 -0.2467899 0.7505042 0.10674729 0.32672673 0.19831969 -0.10538075 0.06931818 0.24985872 -0.45020923 -0.7185053 -0.24142349
24 -0.1290137 -0.43991694 0.29789004 0.68554026 0.24886279 -0.0075583686 1.032132 -0.14679058 0.27283627 0.1877361 0.49024564 -0.36657616 0.16072576 -0.20349713 -0.24903679 0.67871296
28 -0.3250519 -0.25593954 0.26500833 0.48849052 0.2885255 -0.033768896 0.78889805 0.05485455 0.02464775 -0.117685065 0.047053657 -0.37935525 0.044648945 -0.23999384 -0.2965969 -0.08613217
66 -0.21136276 0.32508639 -0.016235096 -0.11236871 -0.04183401 -0.44609913 0.93458176 -0.16713136 0.36314282 0.13973232 -0.0072407126 0.14092939 0.15122072 -0.41073948 -0.6582755 -0.30073023
64 -0.123684 0.3994819 -0.033467714 -0.11553888 -0.021263603 -0.5438097 0.8984157 -0.18899143 0.40702495 0.25325114 -0.07083869 0.2777979 0.20375323 -0.3766044 -0.7244322 -0.29345024
62 -0.10830928 0.42041507 0.10937186 -0.11339598 0.041896615 -0.4709208 1.0239205 -0.24160866 0.44116318 0.26327008 -0.058287747 0.19470243 0.22082718 -0.4842939 -0.7381133 -0.28024036
2 0.51650995 -0.4242091 1.1089743 0.34423935 0.1528766 0.011457952 0.7853366 0.102499 -0.49392962 -0.8537879 -0.49785107 -0.115383305 0.80301785 -0.10024794 -0.4354151 -0.21341519
25 -0.4227701 -0.38943413 0.22006157 0.6104839 0.32105166 0.07554067 0.7223049 0.20398822 -0.0864988 -0.16751811 0.017099036 -0.41857433 -0.11643474 -0.33747423 -0.38666162 -0.13819766
50 -0.15011501 0.14203869 0.46518338 -0.4539023 0.49728966 -0.34348887 1.0746093 0.30085358 0.012334114 -0.085829504 0.1254431 -0.044309936 -0.60401475 -0.37402743 -0.3958807 -0.5436495
70 -0.5644863 -0.23591186 -0.014970669 0.55662316 0.4045665 6.510853e-05 0.6636123 0.30244264 0.10235415 -0.077948146 -0.3261664 -0.35670146 -0.2006225 -0.3584876 -0.5212615 -0.40332857
18 0.12981722 -0.42157888 0.11136505 0.67197937 0.2747028 -0.17709339 1.0845119 -0.12382667 0.53365916 0.32329723 0.59974325 -0.3939533 0.079973616 -0.14658852 -0.36953694 0.73032117
22 0.31519163 -0.42328805 0.4394547 0.71895283 0.17669012 -0.23257342 1.1162068 -0.2804286 0.4399909 0.12563086 0.68847203 -0.26643962 0.4991575 -0.289065 -0.3445445 0.93481636
19 0.09513729 -0.40761304 0.40473023 0.79092866 0.09773035 -0.15890595 1.281276 -0.180919 0.46195197 0.26356563 0.68211955 -0.35929668 0.19714047 -0.32048503 -0.35326388 0.8967598
20 0.23562697 -0.49007532 0.32261685 0.79578954 0.2503093 -0.085702784 1.1967568 -0.26214373 0.5590488 0.2912333 0.65423584 -0.39710578 0.18842047 -0.30962896 -0.35618988 0.8236897
23 0.18944758 -0.62644124 0.4420414 0.76957446 0.26725975 -0.006474538 1.1116415 -0.24215528 0.34286258 0.13389967 0.63973665 -0.40781024 0.31001717 -0.27795616 -0.26396596 0.8696696
21 0.18638745 -0.5249406 0.41292593 0.670297 0.20132966 -0.10108571 1.1603018 -0.22626033 0.35631603 0.23388444 0.6596165 -0.3134241 0.23221289 -0.19028698 -0.303364 0.9111537
17 0.2055452 -0.42773792 0.30698368 0.7022713 0.059423927 -0.31465605 1.1308672 -0.23143448 0.48281524 0.29460353 0.81979567 -0.20414251 0.43083408 -0.2542382 -0.39665207 1.0244417
69 -0.57136714 -0.3912053 0.037937246 0.69919074 0.29585037 0.023248551 0.72816676 0.16223414 -0.074760824 -0.05074324 -0.13492642 -0.34163907 -0.115946464 -0.263529 -0.4111861 -0.21771759
52 -0.1466429 0.20952332 0.47650954 -0.4322782 0.4189191 -0.3643077 1.0352403 0.3807157 0.19860344 0.0114167845 0.13897964 -0.0640863 -0.54961437 -0.41614994 -0.39499474 -0.28724727
4 0.19782028 -0.5161158 0.96450967 0.42161593 0.23666446 0.090680644 0.7128634 0.11233107 -0.33312964 -0.6874077 -0.3332622 -0.22700989 0.54543024 -0.2349401 -0.30282232 -0.15944287
3 0.3923826 -0.4185036 0.8520939 0.3146438 0.2489275 -0.08582936 0.7494926 0.13795699 -0.40123838 -0.71363336 -0.21573068 -0.15589944 0.607051 -0.14657791 -0.32446653 -0.026291896
71 -0.7354541 -0.39973372 -0.054804657 0.69808 0.22650993 0.03217931 0.7431077 0.38704243 -0.03149046 0.048295982 -0.07849358 -0.31800467 -0.2568401 -0.21376641 -0.44513458 -0.28247404
42 -0.6425173 -0.14122069 -0.035190452 0.34485137 0.14156546 -0.24643102 0.80393434 0.22734925 -0.06529606 -0.08423567 -0.11707254 -0.24452427 -0.07369919 -0.35646766 -0.4853983 -0.42590624
61 -0.26104653 0.48958248 0.039868552 -0.02022653 -0.10128193 -0.5488327 1.0331122 -0.20537615 0.24782738 0.14092991 -0.062944815 0.295547 0.18726672 -0.528426 -0.83301353 -0.43633646
29 -0.44976458 -0.2738246 0.59466094 0.31009743 0.1363779 -0.18542077 0.8142306 -0.17923099 -0.2906776 -0.20677966 0.50640553 -0.2541613 0.16612267 -0.4661413 -0.026766485 -0.036658607
58 -0.136791 0.36946863 0.12931328 -0.14752427 -0.06845837 -0.5411424 0.8387399 0.058377113 0.27485055 0.096771136 -0.051626258 0.16128825 0.35260785 -0.43219525 -0.7485223 -0.2696782
36 0.031772356 -0.31352776 0.8031786 0.35009345 0.59635025 0.31281808 0.5479901 -0.47845194 0.39019242 0.16729319 -0.1970468 -0.63836247 -0.16588826 -0.6165695 -0.101238765 -0.3974411
67 -0.065956816 0.4370235 0.08239038 -0.2383068 0.11605863 -0.44138348 0.9947505 -0.22720963 0.5042421 0.24013977 -0.021638324 0.21685664 0.07679113 -0.49959287 -0.7423163 -0.30285662
35 0.014946373 -0.22502884 0.79807985 0.29056755 0.54093194 0.23894013 0.5275306 -0.6024858 0.38300434 0.046917073 -0.35542548 -0.48741972 0.007406775 -0.6041662 -0.08136484 -0.41070738
76 -0.7241389 -0.2727459 0.028761001 0.59487873 0.23357728 -0.12508193 0.72594386 0.23943174 0.018114684 -0.08363019 -0.30038214 -0.28480732 -0.1917741 -0.30395517 -0.49714604 -0.49664527
37 0.082001776 -0.09363805 0.7786633 0.1562072 0.5274358 0.25928485 0.6156212 -0.5787696 0.64588386 0.33382222 -0.15381303 -0.5496531 -0.15496282 -0.674394 -0.1481529 -0.40854844
39 0.03695462 -0.29275167 0.7344156 0.4003598 0.51362664 0.3340288 0.5575063 -0.39225018 0.44397727 0.18213543 -0.3683359 -0.59236825 -0.06747612 -0.641847 -0.19888142 -0.39535406
38 0.20448077 -0.3292062 0.9509563 0.24887505 0.5263362 0.33129475 0.5602411 -0.46614748 0.32545578 -0.015931655 -0.280578 -0.6110418 0.008627244 -0.5796414 -0.25989404 -0.39798707
72 -0.7032768 -0.41163525 -0.08447018 0.65146494 0.30718035 0.06903473 0.7147466 0.18828933 0.0029990352 0.06817099 -0.2561052 -0.4560032 -0.23978737 -0.3644051 -0.41652027 -0.2616324
30 -0.010184143 -0.3334914 0.8210364 0.30096138 0.6069232 0.35396048 0.6098366 -0.33519816 0.44024083 0.096732005 -0.16723998 -0.6485995 -0.1948664 -0.6282552 -0.041391347 -0.24563147
32 -0.1937702 -0.3764421 0.4092975 0.6167586 0.2990298 0.09287458 0.85090965 0.05755926 0.20087688 -0.19769171 0.15138571 -0.34864536 0.17201635 -0.3516882 -0.1250216 0.32790327
77 -0.27579248 0.25630766 0.06037332 0.011945127 0.006807835 -0.44660738 0.9374391 -0.027464531 0.3454647 0.16472965 0.022600496 0.13995172 0.14402078 -0.42486995 -0.73555213 -0.27234924
74 -0.59121704 0.51151353 -0.021355173 -0.02615544 -0.28783414 -0.2815482 0.91386676 0.4270457 0.2940853 0.20201729 -0.5678665 0.37974495 0.73364025 -0.683322 -1.3250483 -0.37114185
75 -0.6165821 0.504608 -0.02999698 -0.07990669 -0.05612753 -0.3000948 0.8375093 0.34361306 0.371243 0.04318071 -0.712057 0.3198428 0.7377022 -0.65453655 -1.2961864 -0.55960727
43 -0.62026024 -0.12624957 -0.0357499 0.4081948 0.12663475 -0.09710039 0.74041045 0.2974061 0.015795028 -0.13028574 -0.29122484 -0.15198316 -0.09953171 -0.3186392 -0.5850488 -0.47862664
55 -0.27927318 0.05111946 0.4314034 -0.28763652 0.49464476 -0.26418036 0.91091985 0.32358623 0.0838872 -0.14822334 0.019868115 -0.2114774 -0.5880791 -0.39335567 -0.44239408 -0.5730884
44 -0.1563279 -0.12999651 0.4276763 0.28829408 0.28710538 -0.14619982 0.7771153 0.08576167 -0.053593915 -0.13065937 0.019984212 -0.22032098 -0.003050238 -0.30062062 -0.33026057 -0.2646768
45 -0.38131583 -0.075442396 0.6159163 0.3183937 0.1846469 -0.16801412 0.7860104 -0.14930497 -0.38123333 -0.2575613 0.3996832 -0.24984933 0.3078325 -0.37480283 0.026831763 -0.021379435
73 -0.19919784 -0.078835644 0.31651816 0.17264304 0.23883422 -0.048654463 0.8130816 -0.03655973 0.14670894 0.0026815105 0.06146988 -0.26937637 -0.03879212 -0.41946054 -0.2722197 -0.1355201
31 -0.0701518 -0.33196235 0.46665052 0.6597393 0.30316478 0.12839378 0.9480945 -0.05724921 0.10679364 -0.12426622 0.31019825 -0.41264656 0.13133772 -0.3156528 -0.13432367 0.4339624
34 -0.12524328 -0.24766324 0.54804856 0.24495527 0.25350043 0.017163277 0.6634428 -0.019983508 -0.0481281 -0.24726276 -0.17668332 -0.31547195 0.10815921 -0.38367984 -0.24715433 -0.33772716
13 -0.111497484 -0.27560464 0.32938364 0.4671193 0.25739422 -0.04716776 0.79565805 -0.082303256 0.2937018 0.09657407 0.20252138 -0.3754637 -0.024912857 -0.36930218 -0.3225925 0.20708217
40 -0.33412087 -0.111244604 0.32361436 -0.1770651 0.43260086 -0.29699644 1.0524147 0.37441444 -0.100683026 -0.11431347 0.10260073 -0.096074104 -0.5257544 -0.3384099 -0.24913962 -0.30957046
47 -0.43816492 0.5569898 0.18233317 -0.11920461 -0.0651049 -0.5456431 1.0237279 0.271416 0.20250534 -0.06660147 -0.42133504 0.29607344 0.24234332 -0.5630454 -1.014448 -0.6571123
68 -0.26113844 0.44565895 0.104362234 -0.096432246 -0.028243793 -0.62216824 0.9042641 -0.039502125 0.18099275 0.08363078 -0.16558462 0.20808168 0.3930527 -0.4745655 -0.81309 -0.3076298
9 0.27634504 -0.5398563 1.0528424 0.5064226 0.26802006 0.117639534 0.6982443 0.11514073 -0.28309596 -0.64881426 -0.3512085 -0.22150943 0.7137565 -0.17657048 -0.39386868 -0.15202576
53 -0.17510134 0.15538077 0.36580336 -0.38104424 0.43670118 -0.3159368 1.0979165 0.40917417 0.01169726 -0.086737685 0.08748938 -0.07756583 -0.522753 -0.3887356 -0.3498471 -0.47614056
46 -0.36563444 -0.30486318 0.74378735 0.5560344 0.22596487 -0.06336849 0.76101077 -0.2666178 -0.22560857 -0.21138927 0.4949067 -0.42601445 0.15261191 -0.46031597 0.07194921 0.09330022
51 -0.34046036 -0.0906063 0.40017828 0.1217717 0.30574495 -0.12624103 0.735823 0.24750686 -0.01798911 -0.18737945 -0.08230534 -0.20432419 -0.0744098 -0.33123815 -0.43236813 -0.26727855
57 -0.29117483 0.11258227 0.15444805 0.009465272 0.11321865 -0.22537303 0.88051337 0.18411452 0.17927778 0.010550254 0.07552107 -0.10774813 -0.15606838 -0.36872154 -0.5174286 -0.18658505
1 0.29261038 -0.42945352 1.0552614 0.288004 0.26870745 -0.013637811 0.7342819 0.13870826 -0.301887 -0.73793435 -0.4276255 -0.20554553 0.67285556 -0.23681855 -0.3609059 -0.29176438
54 -0.21348977 0.10989448 0.36816356 -0.20554921 0.360333 -0.2421221 0.8505814 0.23824167 0.15100129 -0.040587187 0.032088753 -0.030635929 -0.2271161 -0.37902835 -0.4859199 -0.3403179
10 0.19996612 -0.34616393 0.8301169 0.36436018 0.1636745 -0.069385156 0.716009 0.086935736 -0.30268973 -0.6079212 -0.36097544 -0.16545533 0.54806966 -0.22930029 -0.380439 -0.20185089
16 -0.23288448 -0.20390408 0.4452927 0.32086006 0.19252498 -0.084698565 0.752697 0.077208675 -0.033647705 -0.09481975 -0.027243301 -0.30037802 0.07391751 -0.351268 -0.31581995 -0.06520563
15 -0.12241198 -0.111986004 0.48609355 0.26289308 0.32950318 -0.112406544 0.7155224 0.09541582 0.07422045 -0.06599013 0.03895113 -0.20007089 -0.049941085 -0.306106 -0.32878828 -0.14423561
7 0.2509628 -0.34579498 0.93160725 0.33671707 0.21679738 0.024043918 0.6847152 0.11071546 -0.19629267 -0.6220384 -0.25562778 -0.242108 0.6185809 -0.18799008 -0.3605065 -0.12417157
12 -0.12656462 -0.22051114 0.40349606 0.29492813 0.26140314 -0.05692343 0.78204644 0.05191186 0.06355744 -0.12920141 0.011932449 -0.28806257 -0.01837924 -0.3660524 -0.33082965 -0.22048269
8 0.1659604 -0.42734012 0.93820417 0.24602467 0.18928269 -0.045990445 0.68139863 0.12103657 -0.26860127 -0.59118557 -0.26742834 -0.2757293 0.5080261 -0.25170463 -0.3053777 -0.19067764
6 0.18925215 -0.3536847 0.76879984 0.27292943 0.16983297 -0.014944722 0.6940434 0.14731371 -0.23743765 -0.5689751 -0.24620366 -0.1741614 0.49601635 -0.18170756 -0.3580947 -0.23567544
5 0.39540845 -0.41685694 1.0833945 0.31674102 0.3283542 0.11592497 0.68548274 -0.012209361 -0.25153187 -0.676061 -0.43832615 -0.28922424 0.58566505 -0.25302392 -0.29042238 -0.27107885
48 -0.44668454 0.4540562 0.17804104 -0.024066541 0.030746706 -0.39930055 0.98595524 0.17741235 0.17766187 0.04218357 -0.39698702 0.17622986 0.1924195 -0.46584612 -0.94439936 -0.63845026
14 -0.29978994 -0.1309523 0.31648266 0.24660061 0.31516775 -0.006624739 0.75443596 0.021312233 0.0045732325 -0.026147705 -0.0510886 -0.30686295 -0.0589547 -0.42723814 -0.3991327 -0.3191378
41 -0.1657133 -0.27798557 0.4961246 0.27882212 0.3499726 0.055556275 0.68037105 -0.02341383 0.17938432 -0.049597926 -0.017513977 -0.39511546 -0.09482525 -0.3839149 -0.2609887 -0.17918167
33 -0.084704965 -0.07488116 0.37855005 0.22607602 0.14612634 -0.11442148 0.7795955 0.0024087129 0.19057487 0.089213066 0.060846668 -0.107283324 0.11033861 -0.27880016 -0.41566184 0.053724468
