77 128
11 0.091512546 -0.19596355 0.10308818 0.09820106 0.105412066 -0.16796456 -0.046249956 0.07053856 -0.030301167 -0.03608615 0.04390214 -0.12935363 -0.04445379 -0.049920518 0.023787037 0.006970098 -0.03399627 0.14204805 -0.12309479 0.12340442 0.31839004 0.09645146 0.066924386 -0.06262395 -0.01592516 0.020365471 -0.22574025 0.124453455 0.17264389 -0.023783335 -0.24168502 0.097648755 0.05843105 0.0086479485 -0.0031839644 -0.068422124 0.14840251 0.0054590604 0.14046295 0.117131755 -0.1279247 0.024087774 0.03195404 -0.08465049 0.02104136 0.11366689 -0.0035272248 -0.103228085 -0.07100545 0.053520232 -0.044645064 0.03453252 0.16419494 0.12222113 0.09650194 0.09467994 0.18796776 -0.1534719 -0.07618183 0.043163877 0.134758 -0.084103204 0.106933564 -0.01439287 0.02623163 -0.06627952 0.08237534 0.09725298 0.026220698 0.02051517 0.011779829 0.059956398 -0.16490789 -0.04692651 -0.014518843 -0.16539751 -0.1323811 0.14249556 -0.057391316 0.10614018 -0.067417726 -0.106561 0.09609456 0.18129733 0.13540065 0.09114226 0.14967807 -0.02394249 0.13547164 0.1325855 0.03399819 -0.12118792 -0.08598473 0.024528017 0.1594072 -0.08275656 -0.15127772 -0.22154033 -0.13156609 -0.009697386 -0.1421437 0.06925893 -0.06528568 -0.055180013 -0.0049620555 -0.02807472 -0.0333339 -0.09519022 0.0024362449 -0.07329397 0.05299024 -0.12561244 0.05519426 0.036025528 -0.03536685 -0.07978064 0.07039904 0.16847104 0.02502179 -0.029395906 -0.08238768 -0.074502565 -0.04203095 0.07745758 -0.050944503 -0.02562281 -0.13419308 0.08395138
56 0.112874925 -0.13038757 0.14689025 0.035301153 0.11058613 -0.23266184 -0.027772322 0.126575 -0.02418019 -0.039925523 0.04564244 -0.093088865 -0.0046503986 -0.10126877 0.0023387016 -0.025202101 -0.058213197 0.14671054 -0.030699804 0.12553543 0.39138097 0.045757346 0.052604243 -0.10010157 -0.0495294 0.036911048 -0.24749883 0.16220589 0.19875906 0.0726508 -0.23452532 0.10720737 -0.0264585 -0.03782973 0.05676447 -0.10780247 0.04739514 0.082140245 0.10892266 0.06545193 -0.06698184 0.10938322 0.004163395 -0.010279121 0.07021181 0.16461913 0.03579307 -0.14513728 -0.10910445 0.028714385 -0.021442914 0.029787602 0.14913748 0.09120276 0.19593391 0.021659644 0.21139504 -0.13418259 -0.08301785 -0.0669288 0.14861163 -0.1360583 0.101694524 -0.054689955 0.016938854 -0.17581907 0.07123189 0.11727624 0.099246465 0.017363854 -0.042033248 0.031598523 -0.19142713 -0.0283659 -0.13797763 -0.16275817 -0.109233335 0.10522058 -0.027164962 0.13189448 -0.0686487 -0.1354165 0.105812475 0.2512486 0.24787782 0.04795678 0.2410996 -0.053753782 0.25681952 0.078644015 0.055266745 -0.17605078 -0.14125387 0.05473311 0.11454369 -0.13873334 -0.107847385 -0.27012527 -0.13850029 -0.0062250486 -0.21230613 0.13087176 -0.01834012 -0.07696266 -0.039985638 -0.04818719 -0.03595305 -0.18532434 -0.05155313 -0.08230174 0.07284388 -0.13431533 -0.0037382953 -0.009065974 -0.07017709 -0.04819626 0.13761275 0.23845811 0.07861917 -0.037064802 -0.13435306 -0.044162065 -0.034720108 0.053544022 -0.13185187 -0.083428204 -0.16385864 0.061040513
59 0.05652681 -0.06670076 0.11889557 0.052774966 0.12010082 -0.19067104 -0.121303715 0.18229681 -0.045352407 0.10604306 0.15671061 -0.16898713 0.03729562 -0.018206894 -0.14908871 -0.13266213 -0.07861475 0.114851385 -0.14521246 0.14764886 0.33578858 0.04018202 -0.025132481 -0.10578901 -0.028794061 -0.06936982 -0.317167 0.021234632 0.094372004 0.04451653 -0.22041515 0.1730197 -0.014808527 0.012567214 0.21139891 0.07472104 0.21329887 -0.028779948 0.110448346 0.1483334 -0.078638904 0.03825982 0.107460484 -0.0111924 -0.12762707 0.054261386 -0.12029782 -0.022447184 -0.07510172 0.05187757 0.07344849 0.21714276 0.072253704 0.05808024 0.11104967 0.09843405 0.14902012 -0.07993739 -0.06514784 0.060537115 0.050979488 -0.19260924 0.08225611 -0.084325336 0.1467553 -0.09835693 0.2049989 0.15695472 -0.036791094 0.13050568 -0.036833048 -0.02259768 -0.1954825 -0.00046511693 0.022814061 -0.311169 -0.12089878 -0.08905241 0.1039592 0.22033033 -0.11073861 -0.16391307 0.062212173 0.22806735 0.12897484 0.1593488 0.23142166 0.10920261 0.08069671 0.13175538 0.121649645 -0.0050141085 -0.059912242 0.1017353 0.16872533 -0.06878575 -0.34983203 -0.3772842 -0.2144701 -0.009423342 -0.29290456 0.098300494 -0.08661826 -0.0030948513 0.061549474 -0.0030027772 0.06720752 -0.29950473 -0.017512748 -0.015256861 0.008232769 -0.116175815 0.01993958 -0.022189884 -0.088912055 0.03736092 0.011479245 0.2714858 0.04701074 0.01024389 0.00070355425 -0.040454563 -5.1110517e-05 0.04715173 -0.05099639 -0.010674814 -0.020767683 0.19321002
63 0.046276186 -0.08469497 0.14162172 0.0460562 0.092054375 -0.23608358 -0.12643412 0.13625589 -0.0056045568 0.046343535 0.11121672 -0.1610685 0.049551968 -0.060239114 -0.1763905 -0.12450267 -0.16956815 0.16260837 -0.15316758 0.1340298 0.35827214 0.038559478 -0.005131001 -0.11186875 -0.013419554 -0.07819176 -0.3227116 0.055574533 0.12742229 0.05731444 -0.19835861 0.1902575 -0.010772229 0.034215417 0.20059279 0.018597485 0.17974383 -0.012351382 0.112740465 0.16300288 -0.080599755 0.07181239 0.07848961 -0.011707012 -0.10667881 0.108926564 -0.049548995 -0.035028715 -0.07277172 0.027310878 0.053521626 0.11465264 -0.005290915 0.080972016 0.101636924 0.1057647 0.14619604 -0.1129354 -0.103795394 0.04622678 0.04876774 -0.18582655 0.10514642 -0.074182056 0.087921314 -0.051299028 0.17681563 0.12695721 0.017296392 0.107721075 -0.06796417 -0.05088707 -0.21864986 -0.014827938 -0.0010566504 -0.25526214 -0.09997227 -0.054990463 0.06009962 0.13863593 -0.11322591 -0.12448534 0.10587855 0.17562638 0.111805126 0.1636173 0.15207888 0.10102556 0.07611886 0.13315606 0.09626574 -0.014941278 -0.076890536 0.08337694 0.15998915 -0.14304562 -0.24695216 -0.3094079 -0.187571 0.033910338 -0.2762632 0.13349135 -0.09382998 -0.04344084 0.03412517 -0.011141729 0.0428799 -0.28458974 -0.032988526 -0.041624065 0.040612765 -0.15472835 0.031440426 -0.027228598 -0.07804063 -0.008823117 0.0376615 0.2322247 0.03131251 -0.03479001 -0.043549284 -0.04351365 -0.016923083 0.08659069 -0.056280386 0.0022258263 -0.09459663 0.1471927
27 0.05375775 -0.17531542 0.11030097 0.0272505 0.079536945 -0.15086076 -0.025902247 0.033696253 -0.007184227 -0.05543659 0.005184399 -0.06100356 -0.03783518 -0.09123361 0.024995705 -0.032548085 -0.0873681 0.16961603 -0.09750544 0.063985504 0.28613192 0.06502368 0.065237656 -0.05702996 0.0019713817 0.05503594 -0.15520087 0.14802748 0.17135914 0.04089066 -0.20587356 0.085680716 0.024764095 -0.010323714 -0.02703567 -0.10723741 0.10914079 0.06363974 0.16399044 0.09557346 -0.0977016 0.058564015 0.0056410185 -0.056279644 0.06416747 0.16378239 0.04812357 -0.15281439 -0.056279376 0.019929811 -0.060170386 0.0037837895 0.1545812 0.13221441 0.12404341 0.083288014 0.19009522 -0.19211885 -0.05411995 -0.0066280733 0.19631575 -0.105807304 0.108125515 -0.017058665 -0.009811245 -0.08759854 0.058649186 0.11502977 0.0585339 -0.0027209152 0.007956854 0.023244297 -0.18879817 -0.050427616 -0.07420256 -0.14491357 -0.13838919 0.18531166 -0.03766084 0.112657346 -0.05288236 -0.11127028 0.12694924 0.2300108 0.16156478 0.07776461 0.20471343 -0.05866055 0.21720849 0.12241455 0.029553926 -0.13430797 -0.13149156 0.013707721 0.1575641 -0.1266861 -0.13442811 -0.25668734 -0.15480089 -0.019349994 -0.16860601 0.13517737 -0.0297465 -0.060697787 -0.02045819 -0.015130182 -0.046594754 -0.1756829 -0.016082997 -0.07935871 0.08278774 -0.11686603 0.053306304 0.031416558 -0.04051889 -0.11752906 0.08011304 0.20307715 0.048706297 -0.05258447 -0.13358927 -0.061740078 -0.04986283 0.11604545 -0.112347916 -0.066319495 -0.19702724 0.06422465
26 0.0132922875 -0.2534571 0.12117618 0.06642603 0.0771597 -0.08934118 -0.04546303 -0.04642527 -0.014768301 -0.036029603 0.10343613 -0.060948506 -0.12181629 -0.0079777185 0.12672861 -0.042687178 0.04836993 0.0090920525 -0.24230264 0.01026404 0.070144676 0.20149109 0.117893584 -0.018065603 0.026374388 0.15575054 -0.07325227 0.03209747 -0.0016705093 -0.05958721 -0.2675921 0.027431179 0.04856703 -0.0014899673 -0.091785535 -0.0380999 0.2605535 0.0019951372 0.22775279 0.115862876 -0.13067372 -0.07943543 0.09826049 -0.08058992 -0.010894466 0.06725236 -0.014963979 -0.09363458 0.04823524 0.078245215 -0.06325763 0.17624658 0.25110996 0.112854674 -0.02112381 0.14163736 0.20040074 -0.15032579 0.052505087 0.13836713 0.23924284 -0.15862364 0.07538302 0.0059910663 0.098662555 0.0061786454 0.06894793 0.122874044 -0.10925747 -0.07654385 0.16488178 -0.03352183 -0.14170785 -0.13286394 0.06864619 -0.20522092 -0.16745879 0.18981095 -0.10299189 0.15229426 0.037017502 -0.10423254 0.0564237 0.29142177 -0.05032522 0.115940504 0.23706028 0.005440076 0.103052914 0.23431687 -0.07829018 -0.06410978 -0.06959259 -0.08900839 0.2254499 0.020626288 -0.25783768 -0.2692113 -0.13217266 -0.14595522 -0.12425767 0.0031559658 0.001705334 0.082444824 0.067253456 -0.040221408 0.029539522 -0.07598307 0.09036344 -0.106167555 0.04616001 0.028233899 0.12698403 0.07362974 -0.07932135 -0.10392351 -0.08260886 0.1513581 0.032271147 -0.03760092 -0.093531504 -0.10557205 -0.020228775 0.13971296 -0.03171433 -0.044382337 -0.122176826 0.10934697
60 0.10146799 -0.023542125 0.1275496 0.05899211 0.1350332 -0.2155842 -0.15339392 0.22169974 -0.04905293 0.115168266 0.18405512 -0.21137305 0.06590124 -0.017994672 -0.21041152 -0.12150701 -0.06085923 0.09900857 -0.07528797 0.18932992 0.38554916 -0.01349535 -0.025036735 -0.09533732 -0.075543545 -0.081995755 -0.36741126 0.010326272 0.10215513 0.030012289 -0.18005838 0.18716758 -0.0041673575 0.04661441 0.25892586 0.05680129 0.18566535 -0.05618944 0.03998974 0.12663935 -0.07481858 0.06407046 0.096010365 -0.0208901 -0.11720166 -0.0018358382 -0.12637323 -0.007144974 -0.118102446 0.07540361 0.095247574 0.13232912 0.06965403 0.07103941 0.11786761 0.07416225 0.1196228 -0.011661924 -0.14063151 0.06351564 -0.02484376 -0.13688666 0.10883264 -0.07929493 0.1591001 -0.14980324 0.23266338 0.12903278 0.010683243 0.15409802 -0.052099586 -0.0029383004 -0.17824608 -0.0066503524 -0.011288949 -0.2973599 -0.097791746 -0.16294971 0.07251962 0.23451602 -0.15986757 -0.18697573 0.051672287 0.18879491 0.18501385 0.15508343 0.16751426 0.12998751 0.048752528 0.10718068 0.12625122 -0.046725836 -0.03105502 0.14381413 0.152202 -0.085076936 -0.29787463 -0.3341183 -0.16344325 0.028952338 -0.30310184 0.043374613 -0.13902737 -0.024576943 0.053037968 -0.031897426 0.07698565 -0.24348432 -0.019521037 -0.021297256 -0.026672965 -0.16598997 0.010034143 -0.056100205 -0.14376497 0.03535943 0.083104305 0.29406 0.084216386 0.035013948 -0.008038267 -0.08320434 -0.038701355 -0.0056546577 -0.030241866 -0.010849886 -0.008992607 0.19063129
65 0.10332394 -0.033237275 0.14577343 0.06609804 0.13103479 -0.26713374 -0.13722257 0.21622545 -0.061046064 0.088816226 0.19034263 -0.19846198 0.055907123 -0.029662332 -0.16614637 -0.106102474 -0.06803376 0.081120744 -0.10743181 0.20130287 0.36282045 0.007882035 -0.023984076 -0.1216684 -0.06662656 -0.10043881 -0.3853251 -0.000501516 0.1129112 0.0166529 -0.21492511 0.21357425 0.0015307557 0.03838742 0.26471752 0.051774893 0.18341585 -0.037574835 0.028916664 0.14256707 -0.048055436 0.06469106 0.12461595 0.012239328 -0.1306283 0.017906936 -0.12835044 -0.0015648298 -0.08025691 0.10561301 0.10433514 0.1480898 0.077399775 0.04878311 0.11253864 0.098530106 0.15214992 -0.0083800815 -0.13069114 0.0728372 -0.031961724 -0.1655656 0.09864449 -0.08157494 0.15804103 -0.12673943 0.2425259 0.12528852 -0.0020550615 0.13159359 -0.03650922 -0.02763798 -0.17874838 -0.045550182 0.003487226 -0.2827232 -0.10576408 -0.18847986 0.041546147 0.22311062 -0.12102087 -0.18070793 0.048536398 0.20558783 0.15404932 0.1607183 0.15801468 0.1568011 0.047037832 0.123899184 0.088966586 -0.04848507 -0.011421593 0.12669611 0.1241163 -0.07605601 -0.27450526 -0.31267026 -0.14760882 0.007623953 -0.2997249 0.044505857 -0.12865764 -0.023072792 0.076212905 -0.043295413 0.11950588 -0.23287106 -0.011303294 -0.03488665 -0.0016007747 -0.1376965 0.023058774 -0.07033236 -0.16593365 0.022906221 0.07425897 0.2830606 0.09693075 0.039333284 -0.017635703 -0.07364528 -0.024153654 0.010570642 -0.026286189 0.010050627 -0.012497293 0.18331937
49 0.047428433 -0.08803188 0.1695321 0.057854384 0.14586528 -0.18328825 -0.13771696 0.18613724 -0.049795806 0.120450206 0.20386946 -0.1707566 0.028418267 -0.016081765 -0.134134 -0.14645098 -0.06586116 0.11751035 -0.17300867 0.15014994 0.31693512 0.055210967 -0.01952576 -0.10862902 -0.041579984 -0.030302828 -0.30944717 0.03671901 0.06504422 0.05166945 -0.24824952 0.16991566 -0.029670315 0.014292346 0.22437643 0.089635 0.21157277 -0.04394784 0.116803356 0.14901386 -0.10271721 0.03055108 0.10028649 -0.02431596 -0.12095486 0.028280538 -0.13358891 -0.008137901 -0.07950438 0.073171034 0.0793756 0.2556207 0.10053786 0.047729 0.085507095 0.09754769 0.15189433 -0.059592996 -0.050011247 0.09004968 0.03838225 -0.1825834 0.06865191 -0.10404 0.17778331 -0.10804528 0.194731 0.14490134 -0.04912197 0.1405824 -0.029168384 -0.029633466 -0.18918164 -0.018274946 0.03620732 -0.33939302 -0.10740982 -0.07848806 0.11154341 0.2639873 -0.106726065 -0.16549094 0.057787787 0.24490625 0.116758406 0.13844113 0.2410363 0.106199205 0.055825032 0.13417582 0.120502 0.0024425415 -0.042082097 0.10153125 0.1611528 -0.053850386 -0.39317694 -0.39614362 -0.22914413 -0.040512614 -0.32262954 0.0432471 -0.09894953 0.016687404 0.08867412 -0.0036474634 0.057878256 -0.31213975 0.004586048 -0.012821103 0.0020406074 -0.13203532 0.041589327 -0.0088885715 -0.11318704 0.04966218 -0.022528864 0.2683128 0.047741733 0.022062605 0.009327895 -0.04912527 0.0111640375 0.057334725 -0.07028837 -0.023588851 -0.018713888 0.1976657
28 0.10006925 -0.2204132 0.07543969 0.1061631 0.11242188 -0.1331854 -0.041817077 0.013788618 -0.030708078 -0.03075432 0.080982246 -0.122916386 -0.08282332 -0.016638234 0.093047306 0.037381593 0.04309362 0.06757817 -0.1268725 0.11571487 0.19735107 0.14015967 0.07117838 -0.022296907 -0.027351001 0.04300253 -0.18150231 0.060325794 0.11985537 -0.078199096 -0.23189545 0.06603694 0.10131178 0.03925395 -0.052550383 -0.07198035 0.1838102 -0.020329583 0.1298301 0.10772139 -0.13141648 -0.026061753 0.07315571 -0.1075863 0.0041555576 0.043554988 -0.03358107 -0.08329872 -0.022530423 0.10054022 -0.037779856 0.02521591 0.2355883 0.12442281 0.017287297 0.14314638 0.18353893 -0.11589739 -0.0696154 0.10277943 0.12650314 -0.060705382 0.09661997 0.010716306 0.07637037 -0.05214475 0.10391837 0.09214263 -0.018463656 -0.016447775 0.08761684 0.06063739 -0.13699354 -0.09961995 0.02064358 -0.1636463 -0.17064771 0.1520749 -0.14354059 0.14419226 -0.05725977 -0.12321815 0.051084474 0.19980663 0.0773907 0.117176846 0.14112382 0.0029961278 0.087958276 0.1969628 -0.019865703 -0.1536842 -0.050517827 -0.010212774 0.18061052 -0.040939387 -0.13540076 -0.18250795 -0.06644596 -0.065660685 -0.08590127 -0.023569884 -0.08869058 -0.027861513 0.008592544 -0.03833183 0.020817578 0.013918005 0.04828555 -0.08945096 0.04389803 -0.054476388 0.09511022 0.042547498 -0.07351077 -0.12565085 0.029673452 0.13372593 0.047092896 -0.001815878 -0.086018994 -0.11942687 -0.068180196 0.07134051 0.0034114465 -0.0039491234 -0.10025846 0.071463875
24 0.17934147 -0.18639673 0.08375103 0.14029291 0.12868042 -0.21880648 0.03995331 0.026385894 -0.10508192 -0.08056598 0.17574981 -0.11987877 -0.098328345 -0.03505138 0.22608064 0.16612189 0.21851842 -0.08710868 0.0059328414 0.18052326 0.13773318 0.1409102 0.08697282 -0.030837875 -0.12073832 0.03661978 -0.22266063 0.0037496448 0.08148439 -0.16521323 -0.24066128 0.035654925 0.11005543 0.03857538 -0.03274056 -0.13279353 0.102125525 -0.029120317 0.022133347 0.025853485 -0.029657712 -0.014906323 0.11750066 -0.047992 0.060225673 -0.02628929 -0.03725607 -0.058642287 0.008752846 0.22857556 -7.5203396e-05 -0.05355333 0.35218236 0.05491452 0.046480276 0.07401948 0.22564645 0.02473882 -0.12809531 0.123833805 0.043779314 -0.033416767 0.08628933 0.015354806 0.11450693 -0.18786694 0.10783704 0.080031775 0.03432279 -0.069297746 0.18734626 0.06089367 -0.09207328 -0.23275484 -0.046632014 -0.11865162 -0.1711147 0.0036841135 -0.29228777 0.21906184 0.0065979064 -0.17302376 -0.016456155 0.32693732 0.14104939 0.10531852 0.13388744 0.036690928 0.123342186 0.21080962 -0.09247799 -0.30629256 0.0063986387 -0.006646517 0.13018623 0.0030067791 0.0018706224 -0.07326451 0.051535882 -0.10855818 -0.04504499 -0.16243757 -0.100613385 -0.022343678 0.051274776 -0.1209671 0.12668142 0.21555354 0.10737423 -0.17171514 0.03782738 -0.011038721 0.1046272 -0.03265703 -0.25412816 -0.14944768 0.12844552 0.16913606 0.15182617 0.04787613 -0.15491277 -0.13783847 -0.109754436 0.006117368 0.024748951 0.016807875 -0.07083915 0.04915539
66 0.08286015 -0.056342926 0.1680878 0.041031126 0.10693224 -0.2896558 -0.12151088 0.21480486 -0.042045787 0.07607879 0.2034444 -0.18942688 0.053560525 -0.028988224 -0.15604343 -0.10604639 -0.090573214 0.08377619 -0.108633704 0.18279906 0.35807264 0.023127632 -0.042776402 -0.15069355 -0.058486022 -0.12153815 -0.38576984 -0.011815872 0.10499301 0.04216757 -0.21564536 0.20853528 -0.023173388 0.02662959 0.30218056 0.076066166 0.18210985 -0.02662564 0.055639446 0.14264895 -0.036464654 0.08932351 0.13917054 0.03299961 -0.12935098 0.03766765 -0.11743343 0.0034808756 -0.06366803 0.11033836 0.118005574 0.19214274 0.04289052 0.015067413 0.13236217 0.084616914 0.18232435 -0.021687757 -0.10425062 0.058786444 -0.024627643 -0.22175726 0.069692485 -0.12577175 0.17559157 -0.11481216 0.22422746 0.1362442 0.0055095516 0.14240232 -0.042605653 -0.06752337 -0.20969109 -0.041170415 0.0025518504 -0.31380448 -0.097860724 -0.19615111 0.06886831 0.23261371 -0.1080655 -0.18691564 0.057693597 0.26152587 0.14947103 0.1697594 0.20552205 0.14100793 0.06902542 0.14567414 0.10268641 -0.035284255 -0.04717308 0.11183403 0.13751838 -0.09408712 -0.31173438 -0.3503389 -0.20497191 0.011517392 -0.33917296 0.08613389 -0.12939364 -0.039200354 0.10320461 -0.030780502 0.10808463 -0.28769955 -0.02264902 -0.051652495 0.029137002 -0.14863844 0.014228184 -0.06823439 -0.17514479 0.053345878 0.04798508 0.2897523 0.08357744 0.027785556 -0.0265462 -0.04123121 -0.019605227 0.033509597 -0.05240891 0.026131753 -0.03158432 0.19629511
2 0.22684132 -0.2415525 -0.0692863 0.20347749 0.25622764 -0.0392331 -0.16931467 0.08338967 -0.019983774 0.16368008 -0.07354864 -0.29030865 0.034136172 -0.0066719404 -0.17113504 -0.033955533 0.03001121 0.29051742 -0.052770104 0.17346483 0.37238708 -0.01112691 -0.02631266 0.12936993 0.0032427006 -0.18100655 -0.3053915 0.045378126 0.33080077 -0.15327738 -0.10048793 0.23402302 0.25740618 0.17010085 -0.07804142 -0.033659317 0.280986 -0.15203983 0.029832 0.21887147 -0.21317957 -0.10230248 -0.038481064 -0.2687369 -0.14780587 -0.0643077 -0.15669167 -0.061405882 -0.1580063 0.043959886 -0.10770381 -0.11332394 0.177054 0.25816983 -0.049738053 0.25982982 -0.007909236 -0.16456951 -0.2660962 0.17238985 0.08548955 0.1696998 0.24616024 0.17012215 0.05483229 -0.10250685 0.26525575 0.06718313 0.038983606 0.1017643 -0.08198388 0.33661038 -0.12778313 0.035600286 0.07661628 -0.23493369 -0.24296604 0.22634207 -0.1268894 0.12841372 -0.39245433 -0.114199966 0.05539671 -0.12853748 0.19737716 0.2594215 -0.030997286 0.05336796 -0.051801346 0.21737091 0.13626437 -0.17069711 0.024964456 0.17324185 0.17667146 -0.0796502 -0.12031626 -0.22976519 0.013500432 0.116599396 0.049459055 -0.051850665 -0.3269198 -0.19269848 -0.13002785 0.015186061 -0.08588119 0.11433052 0.097409375 0.10597438 -0.08779984 -0.18150838 0.14077619 0.06635569 -0.019047538 -0.2148215 0.11976608 0.1484868 0.0030353952 0.11638259 0.06367698 -0.3040719 -0.16216837 -0.06392619 0.15087055 0.11526972 -0.034192953 0.14439876
64 0.09579865 -0.0403001 0.13859674 0.06044487 0.13680291 -0.2337499 -0.117326386 0.22441939 -0.051597204 0.08924693 0.17189343 -0.19231357 0.06636288 -0.047321126 -0.1470704 -0.12502971 -0.065839745 0.10095169 -0.10254054 0.17486286 0.3790953 0.018487148 -0.029113907 -0.1180423 -0.06862789 -0.08108066 -0.35298887 0.031964507 0.12367993 0.05518747 -0.22169544 0.20284143 -0.029719455 0.013470249 0.24362546 0.0493537 0.16823827 -0.014948986 0.05898762 0.124467164 -0.05281365 0.07446671 0.10834825 0.013473448 -0.11732603 0.0444436 -0.11286402 -0.02544297 -0.08484953 0.06838614 0.096817866 0.15895523 0.07050833 0.04888507 0.14433448 0.061929878 0.15911071 -0.050361577 -0.11404483 0.03426554 0.008426808 -0.18434142 0.08680602 -0.10091567 0.14644647 -0.14703697 0.2056096 0.13738714 0.006247587 0.13093084 -0.054312356 -0.017877305 -0.20702568 -0.00495683 -0.017180575 -0.290303 -0.08862285 -0.15331635 0.08690889 0.22733998 -0.117325604 -0.17303409 0.057523593 0.21930492 0.17258045 0.14284928 0.21180923 0.12156219 0.09983504 0.10217825 0.12907617 -0.04213827 -0.044461988 0.12934628 0.13148227 -0.08515192 -0.2999368 -0.35311586 -0.19099008 0.01108812 -0.3009268 0.078888156 -0.09708892 -0.0247879 0.063456796 -0.035882648 0.079603486 -0.285037 -0.019150542 -0.01733364 0.015790021 -0.14365569 0.01646232 -0.041438006 -0.13041955 0.050388627 0.057788603 0.29465526 0.0821469 0.024051756 -0.00768593 -0.04760954 0.0020748028 0.023518335 -0.056429546 -0.01603964 -0.027356988 0.18064994
25 0.09808416 -0.25985554 0.095130146 0.11573379 0.11999084 -0.072895974 -0.026312765 -0.024849249 -0.03656967 -0.043627005 0.11503853 -0.07847797 -0.124441646 -0.003537566 0.20336919 0.03734421 0.17569931 -0.042190984 -0.17445555 0.05133906 0.103074186 0.21641089 0.15673122 0.03585647 -0.019199759 0.20977952 -0.06450552 0.05857891 0.033187766 -0.11541964 -0.29065397 -0.017935665 0.10512133 -0.004166986 -0.1891471 -0.09186675 0.24327427 -0.019228846 0.18912087 0.06193594 -0.15873061 -0.10668721 0.07934937 -0.12024205 0.04158642 0.010509545 -0.028557433 -0.11997185 0.029236581 0.10526053 -0.08954116 0.10839168 0.36699128 0.14303854 -0.031416137 0.12623428 0.2025121 -0.105820686 0.0010694535 0.14583571 0.22772358 -0.065687664 0.09164662 0.050927762 0.105313346 -0.07691163 0.062119614 0.09462194 -0.08265592 -0.09318561 0.21884228 0.05988183 -0.095379755 -0.14546429 0.040271692 -0.16266815 -0.18010882 0.22767608 -0.15997382 0.17801377 0.025570117 -0.121571384 0.029148037 0.27606314 0.00011376187 0.09715188 0.20016928 -0.036867023 0.10676455 0.20644383 -0.103791334 -0.129538 -0.025896968 -0.06539766 0.21222934 0.06508802 -0.17974207 -0.2238517 -0.03372469 -0.16743807 -0.053493075 -0.070716634 -0.007842044 0.08974957 0.013956615 -0.06963381 0.027455216 0.065128826 0.11200525 -0.09179921 0.013398736 0.05513673 0.107419305 0.1013922 -0.081294805 -0.14445393 -0.03032639 0.13527797 0.06871209 -0.009955172 -0.101072475 -0.16835846 -0.03847189 0.07169592 0.0022416718 -0.07511838 -0.101085365 0.066818714
62 0.07852807 -0.06848519 0.13265467 0.07347862 0.13278022 -0.20065369 -0.15392561 0.18896069 -0.05256192 0.115604654 0.16467333 -0.20410857 0.05013394 -0.02821404 -0.17886588 -0.1396788 -0.09617758 0.13283443 -0.15710129 0.16095243 0.3969934 0.0509434 -0.0005527332 -0.0927023 -0.04301583 -0.04332755 -0.35780558 0.03736111 0.11578868 0.047717266 -0.25553554 0.19081153 -0.018351229 0.009066371 0.22452374 0.054375682 0.21648225 -0.030957432 0.101041645 0.15250166 -0.10258756 0.042806618 0.09373573 -0.022418234 -0.12469062 0.057953462 -0.13364908 -0.034826275 -0.10802567 0.04127973 0.076484285 0.19421655 0.073197566 0.06908339 0.10505204 0.09028405 0.13852204 -0.07230703 -0.0948743 0.062388703 0.033947736 -0.17310822 0.10003744 -0.0770022 0.13994008 -0.12094799 0.20248921 0.13158949 -0.0138708195 0.1274347 -0.054193564 -0.0123161115 -0.19659218 0.014151166 -0.0012248587 -0.30060005 -0.10500686 -0.089231394 0.11625672 0.2148529 -0.11783387 -0.1478185 0.06488751 0.18972148 0.13215093 0.1332671 0.19180807 0.116439484 0.06942929 0.089821495 0.1265698 0.012706951 -0.044427935 0.12240772 0.15646942 -0.07730271 -0.3355528 -0.36297175 -0.20606802 0.0035843705 -0.2986705 0.087983474 -0.09055075 0.010162324 0.044989232 -0.01929286 0.06773065 -0.30460554 -0.030482499 -0.0030167543 -0.0017927161 -0.14822254 0.017470425 -0.020679167 -0.09571789 0.04797965 0.028134959 0.28525773 0.05177939 0.014983076 0.012124878 -0.059690587 -0.006031579 0.044729106 -0.05817591 -0.04126593 -0.039228804 0.18180206
50 0.08713545 -0.14605936 0.18087396 0.029057633 0.105351724 -0.2379348 -0.030489625 0.113921165 -0.033079103 -0.06334725 0.06262213 -0.094276026 -0.017791757 -0.104431815 0.03602159 -0.035866722 -0.093361944 0.1585208 -0.08816081 0.12099199 0.3918708 0.0703025 0.07403714 -0.124702625 -0.04752031 0.0662444 -0.23832238 0.18780854 0.17351317 0.09228917 -0.28151473 0.10367938 -0.033686195 -0.036317036 0.05709374 -0.117480144 0.068764865 0.10436443 0.15503326 0.08426231 -0.08504817 0.10610706 0.019556403 0.0050219623 0.08494315 0.19581886 0.0487357 -0.15406461 -0.082078345 0.03385987 -0.03944815 0.047973994 0.1558942 0.099222645 0.19536935 0.0416978 0.23010552 -0.14805995 -0.0668317 -0.045205735 0.15900487 -0.15703337 0.1012068 -0.07561156 0.013600875 -0.1392495 0.031248236 0.103358984 0.09101721 0.010199984 -0.011518927 -0.00977128 -0.19858038 -0.05366674 -0.12208994 -0.15492027 -0.10172331 0.11322095 -0.005313584 0.13437796 -0.010587782 -0.11733097 0.12457076 0.2794085 0.2077435 0.033821557 0.24235602 -0.058715187 0.25004464 0.06467873 0.0436935 -0.14240427 -0.14502439 0.03172202 0.12897106 -0.13318679 -0.14562598 -0.27563658 -0.18501595 -0.032699484 -0.24274208 0.14025271 0.0066951863 -0.046444345 -0.019215751 -0.033828232 -0.034824956 -0.2376904 -0.05227323 -0.0953703 0.08181944 -0.14094122 0.0162275 0.0073470734 -0.07964215 -0.05403437 0.10850298 0.2429215 0.07823496 -0.05956906 -0.1554899 -0.023668543 -0.02147218 0.11945933 -0.15581807 -0.09394371 -0.19337253 0.074155875
70 0.015282027 -0.30534497 0.115112066 0.104105726 0.09640144 -0.05525522 -0.058815166 -0.05243147 -0.007279711 -0.0142665515 0.07644432 -0.08114156 -0.13216306 -0.0032179812 0.14117299 -0.06570228 0.045824457 0.080365665 -0.29765725 0.007491221 0.09938177 0.25389004 0.12605016 0.010583903 0.050826162 0.17404976 -0.056154583 0.08420131 0.040411804 -0.06566238 -0.30970556 0.032080628 0.0722667 -0.008117681 -0.16874586 -0.044980153 0.31743905 -0.0028519374 0.2910571 0.1438196 -0.20593733 -0.11159866 0.08304856 -0.13293889 -0.0060660257 0.09094091 -0.04338139 -0.10897138 0.05076185 0.056403164 -0.11768578 0.19807073 0.28371984 0.16491131 -0.05809671 0.18986452 0.18178369 -0.2067363 0.0657723 0.15963195 0.3025322 -0.13244744 0.08558333 0.030313533 0.099386856 0.025948968 0.03710166 0.121112384 -0.12984118 -0.07502591 0.16157785 0.0068903025 -0.15556447 -0.10496188 0.10879176 -0.22749631 -0.20416048 0.30602282 -0.075859256 0.15649955 0.009308601 -0.09104305 0.07737759 0.257151 -0.069614574 0.12683359 0.24962398 -0.02829173 0.10229421 0.24547 -0.063560404 -0.03757195 -0.08046256 -0.07751347 0.25166804 0.034622177 -0.2958258 -0.31164765 -0.15736373 -0.1534706 -0.11043897 0.023288924 0.0011451594 0.09610405 0.017107012 -0.0006285135 -0.012006836 -0.104750216 0.0763949 -0.065522164 0.049243484 0.028231906 0.14474717 0.14019363 -0.0012607177 -0.13992535 -0.11533307 0.12755953 -0.005266918 -0.06069998 -0.07380027 -0.12538822 -0.009565876 0.16216287 -0.025203941 -0.064604655 -0.12035806 0.09861708
69 0.03170467 -0.33521232 0.12526904 0.11278332 0.14353964 -0.02806019 -0.072793856 -0.041309487 -0.050657053 0.0044815675 0.14694118 -0.08276831 -0.15647748 0.0072434973 0.2178204 -0.066093296 0.18303962 -0.004900642 -0.2948525 -0.0052080275 0.073337264 0.293373 0.1798292 0.0474598 0.029364385 0.28955197 -0.020091014 0.069590375 -0.033665087 -0.09165184 -0.3787556 -0.03211414 0.08043897 -0.028781448 -0.23032485 -0.05918861 0.334309 -0.003260203 0.30073276 0.088177666 -0.21631007 -0.17038095 0.07405624 -0.13398786 0.02467369 0.032548092 -0.060821448 -0.12931766 0.05478423 0.08137783 -0.13626857 0.25388467 0.39908123 0.16814624 -0.067773305 0.14725527 0.18572317 -0.16699763 0.09591303 0.19019864 0.33118254 -0.11345302 0.08904922 0.023769826 0.13149102 -0.025959924 0.016294973 0.12292089 -0.15719634 -0.13348718 0.25488195 0.02359087 -0.0933385 -0.13672741 0.07661091 -0.20576946 -0.19428703 0.3111915 -0.095628604 0.20015888 0.05620255 -0.08606981 0.024522765 0.31285974 -0.0992957 0.07901433 0.29047254 -0.06311125 0.10600888 0.21121477 -0.107292734 -0.037461847 -0.053381074 -0.10432354 0.26067704 0.12744229 -0.3301179 -0.32066882 -0.11365009 -0.23942173 -0.09501953 -0.06768795 0.056568895 0.16679046 0.021652747 -0.042144872 0.0011396009 -0.0440301 0.115004055 -0.07097931 0.0012175753 0.096016034 0.1449391 0.16671044 -0.05013006 -0.12807056 -0.1449324 0.14307307 0.020709267 -0.025319561 -0.084611 -0.17185095 0.0068145753 0.11599106 -0.029544635 -0.119565204 -0.09804308 0.11787607
18 0.30196193 -0.13275792 0.13815421 0.15537517 0.21373105 -0.3115847 0.060116913 0.14573838 -0.19507207 -0.079184085 0.32626802 -0.17086472 -0.1024101 -0.039476637 0.32687354 0.22925782 0.40150532 -0.21758045 0.09776761 0.290811 0.2550146 0.13376811 0.13389714 -0.027319152 -0.22786626 0.12856896 -0.30254835 0.02419728 0.07173834 -0.18389666 -0.33165354 0.010637994 0.12020365 0.021169465 -0.004851761 -0.21402384 0.04143049 -0.039782602 -0.05697205 -0.038600333 -0.01247836 0.018766847 0.14825468 -0.010405724 0.110484734 -0.10107744 -0.067345046 -0.06616187 -0.03825583 0.32933137 0.036800366 -0.062092487 0.5567388 0.038863745 0.1229865 0.003028651 0.3048974 0.13734625 -0.19171965 0.119126625 -0.0029565915 -0.013606647 0.085796595 -0.028278477 0.20668782 -0.39407605 0.14290175 0.0744569 0.08337939 -0.06788863 0.26237956 0.08824722 -0.06399395 -0.31061906 -0.15371281 -0.12993023 -0.1803087 -0.11035452 -0.36341843 0.35999626 0.030645415 -0.2657139 -0.08155164 0.45863444 0.26506475 0.06284043 0.17786695 0.025636954 0.17868869 0.17392313 -0.11636351 -0.4203798 0.036611132 0.042150293 0.09167713 0.041136116 0.004179063 -0.09788219 0.10547679 -0.16928022 -0.1080517 -0.2973854 -0.09630018 0.012911028 0.06498235 -0.21039118 0.1935253 0.27258888 0.12990415 -0.219767 -0.00034728972 -0.02507675 0.08056644 -0.08225289 -0.3894617 -0.124180496 0.19919224 0.27756542 0.26813734 0.08625865 -0.22618149 -0.19548263 -0.12694302 -0.06303103 -0.02385919 -0.058166996 -0.055793718 0.055358253
52 0.11204823 -0.1651156 0.15458234 0.049420238 0.13441847 -0.17407125 -0.005063469 0.08665681 -0.059765946 -0.06681043 0.029019581 -0.080034144 -0.0408076 -0.11493571 0.077583276 -0.012611297 -0.03799323 0.15804535 -0.056794144 0.11518608 0.38430786 0.08159401 0.08605403 -0.078331836 -0.05655327 0.12289032 -0.19425996 0.21567884 0.1752744 0.08324083 -0.2808765 0.071059674 -0.01081103 -0.058354016 -0.013537658 -0.15957762 0.038453184 0.114751756 0.14151293 0.06622682 -0.10082281 0.07722507 -0.018560994 -0.0084915785 0.123500064 0.18220447 0.057214893 -0.18105185 -0.110656895 0.02382965 -0.07304983 0.03185962 0.2188477 0.10848974 0.18243757 0.014935218 0.22417119 -0.16922382 -0.05935992 -0.06372986 0.20683129 -0.11319922 0.11289726 -0.048126943 -0.020399708 -0.18906623 0.0060174223 0.10195164 0.09853154 -0.010308109 0.008604352 0.04921325 -0.16567202 -0.04247559 -0.15195842 -0.11781318 -0.12283927 0.19097368 -0.023076799 0.13954651 -0.011378124 -0.10869449 0.11008346 0.2610813 0.2259841 -0.0003801256 0.2475518 -0.09796594 0.28985113 0.047690477 0.04192162 -0.16057803 -0.14377305 0.03713084 0.112590924 -0.10134152 -0.10577231 -0.2569401 -0.15763807 -0.059808105 -0.17400248 0.1019379 0.020236233 -0.045688476 -0.06510305 -0.037516896 -0.05612295 -0.17670587 -0.042964667 -0.07094665 0.06711516 -0.122460924 0.01942038 0.026539506 -0.056588 -0.088116 0.11690831 0.22421014 0.07562933 -0.04469763 -0.14982586 -0.04086204 -0.025151368 0.09644363 -0.15841603 -0.12846573 -0.19655718 0.059299897
21 0.28632048 -0.16934428 0.108214535 0.16364855 0.2005631 -0.2326643 0.040177066 0.08945215 -0.1824357 -0.06499342 0.29725078 -0.14631139 -0.13261695 -0.003554671 0.3385991 0.2229792 0.4396368 -0.2273896 0.06810166 0.2383123 0.19111377 0.15638651 0.15283233 0.007993033 -0.20979331 0.1616492 -0.2483188 -0.001111048 0.046501648 -0.220709 -0.32372323 -0.014554533 0.14530157 0.029491829 -0.073697135 -0.20296271 0.08580894 -0.06521613 -0.03192971 -0.027767785 -0.050082304 -0.042022202 0.14530854 -0.06203544 0.09849347 -0.1354042 -0.08339214 -0.081270084 -0.025767747 0.32572272 0.00933381 -0.06061547 0.5811281 0.062957704 0.06354614 0.026541986 0.2726329 0.10962193 -0.17096406 0.1663424 0.04680889 0.0240482 0.08632604 0.013773914 0.20086887 -0.36564815 0.13329518 0.08331814 0.042496923 -0.10470116 0.29885566 0.12391278 -0.045412123 -0.321222 -0.10718038 -0.13277106 -0.2047914 -0.040559433 -0.3816548 0.34718055 0.02939408 -0.24982142 -0.08047473 0.42967945 0.21227664 0.057660263 0.16837949 0.012827396 0.14990187 0.19006696 -0.13708302 -0.40191206 0.04870194 0.015382819 0.1272085 0.08711141 -0.0073390547 -0.10430314 0.11856776 -0.19567417 -0.044845734 -0.31590623 -0.093442194 0.035171762 0.051498942 -0.20740753 0.17979492 0.33228967 0.16707218 -0.19576871 -0.028793884 0.0137674045 0.116919756 -0.03547437 -0.3681414 -0.14455983 0.15866627 0.25728178 0.2570832 0.09267273 -0.19749413 -0.22500685 -0.13546291 -0.062476855 0.0142381955 -0.050203487 -0.048907813 0.059025563
22 0.31360507 -0.14926158 0.12027187 0.1663296 0.21663749 -0.28119564 0.064186506 0.13328919 -0.19516447 -0.080701664 0.30995587 -0.16316389 -0.11701159 -0.01808022 0.3419552 0.24552707 0.43141338 -0.23856059 0.097299546 0.27542368 0.21675532 0.12969899 0.12183978 -0.014567433 -0.23814642 0.12192605 -0.28518853 -0.0039548273 0.061780486 -0.2093059 -0.31925753 -0.0056586172 0.14018351 0.032516398 -0.033832274 -0.20223284 0.034282494 -0.061180674 -0.071656145 -0.04898101 -0.008662872 -0.005609883 0.13773887 -0.019506413 0.10659413 -0.14335862 -0.075161405 -0.05580404 -0.038217198 0.33003488 0.028719809 -0.087031335 0.56783825 0.037171032 0.099383466 -0.0054626837 0.28535986 0.14997052 -0.19171833 0.1349955 -0.010894305 0.020169651 0.07289347 0.002118886 0.19745357 -0.38801837 0.12968895 0.075390324 0.05953763 -0.09199123 0.2848446 0.111241 -0.040866617 -0.32453623 -0.13403255 -0.11146112 -0.19006936 -0.112603225 -0.3896022 0.3429015 0.024600463 -0.25940257 -0.08465969 0.4302108 0.23643257 0.048614882 0.14860415 0.026941247 0.16201334 0.17800383 -0.13313256 -0.41854116 0.0543684 0.037948966 0.08228424 0.06891739 0.03384629 -0.056805436 0.14114572 -0.18078387 -0.04863551 -0.33229396 -0.11275849 0.0018688297 0.060567398 -0.20964059 0.19120064 0.34471172 0.16164063 -0.20521198 -0.015977627 0.0060124556 0.0951315 -0.07236741 -0.39236242 -0.12555237 0.18976137 0.24924102 0.27435568 0.10451861 -0.20434462 -0.21265434 -0.13534456 -0.07226117 0.001588405 -0.0419935 -0.02641007 0.050533917
19 0.32861912 -0.1593025 0.13139746 0.19199325 0.2402262 -0.27587736 0.038287904 0.15468594 -0.23159227 -0.035811193 0.3776358 -0.18836413 -0.12739089 0.004594233 0.3690347 0.20999984 0.5043459 -0.285512 0.07870391 0.28692 0.23132479 0.16199228 0.15432812 0.006257036 -0.26303056 0.19907692 -0.30161947 -0.0049707703 0.017104745 -0.22490515 -0.38663644 -0.016045848 0.13735482 0.0126420725 -0.028737765 -0.19984442 0.08695507 -0.07038391 -0.060865596 -0.04638334 -0.038476475 -0.026681215 0.16396655 -0.02484281 0.09902687 -0.1747051 -0.1245691 -0.064264596 -0.03319439 0.36352357 0.040490907 -0.004107814 0.6643411 0.040199272 0.09325093 0.0038760323 0.2910591 0.16666764 -0.17568043 0.18402536 0.025279976 -0.0010790447 0.08846642 0.0007422294 0.25487128 -0.44357508 0.15389706 0.08444168 0.03353303 -0.11521952 0.32961822 0.11029306 -0.033501197 -0.34684244 -0.12900591 -0.16669457 -0.18769656 -0.12511498 -0.37593418 0.4211769 0.042735364 -0.28772447 -0.11853566 0.49123663 0.2333116 0.035861563 0.22794384 0.041012436 0.17575176 0.17367971 -0.13514604 -0.4195111 0.076430455 0.045661658 0.117335744 0.13311858 -0.06299757 -0.14684495 0.12833527 -0.22625215 -0.09973513 -0.3816102 -0.06857984 0.071557455 0.07063794 -0.23121215 0.22280222 0.33092117 0.18153371 -0.20058945 -0.048580855 0.029890275 0.10791696 -0.059086427 -0.43516144 -0.10023087 0.17819133 0.31151974 0.30327404 0.12809916 -0.20460469 -0.24607362 -0.1286856 -0.092603855 -0.002300931 -0.09667892 -0.01076505 0.07753722
23 0.3007054 -0.16174453 0.11709672 0.17415178 0.20092198 -0.24817161 0.047754906 0.10990277 -0.18714602 -0.069425516 0.29132667 -0.16014357 -0.12909506 -0.02202033 0.3257029 0.22517852 0.4238463 -0.21911535 0.08180289 0.26006415 0.21746118 0.14503866 0.14397214 -0.00037242315 -0.2232653 0.12045812 -0.2872722 -0.0035324714 0.064094424 -0.2224379 -0.3123245 0.004766211 0.13986155 0.02096333 -0.047813144 -0.20619334 0.083176225 -0.06523748 -0.042621676 -0.03341643 -0.023667496 -0.021979181 0.14404817 -0.0488583 0.09504869 -0.13281314 -0.07644109 -0.062757865 -0.030511407 0.32828563 0.023706108 -0.07105034 0.5689878 0.05614204 0.08022301 0.028566808 0.272648 0.12916839 -0.18405132 0.15964884 0.021674454 0.011008852 0.08579341 0.01706856 0.19740075 -0.37418634 0.14072031 0.08021722 0.052318577 -0.09653003 0.28145337 0.12170652 -0.04131913 -0.305234 -0.11888428 -0.1313667 -0.19439237 -0.08034267 -0.3667381 0.34993467 0.02313797 -0.25652075 -0.0879201 0.42748424 0.22533311 0.07687382 0.1700375 0.035849944 0.15904798 0.19235513 -0.12908894 -0.407412 0.061843026 0.024742391 0.10989743 0.07060178 0.010984358 -0.082081586 0.11984835 -0.17290954 -0.058929015 -0.30655852 -0.099871434 0.018261073 0.048697323 -0.2053539 0.18988831 0.33709782 0.16132136 -0.20520626 -0.01980001 -0.0034638087 0.09706152 -0.047330957 -0.37684882 -0.14166416 0.19141951 0.2644891 0.26452026 0.105144046 -0.20201546 -0.22277705 -0.13286845 -0.082770914 0.008300332 -0.038916733 -0.0381462 0.04508584
20 0.32842517 -0.16783735 0.104335204 0.18200782 0.2213556 -0.26449504 0.0483145 0.12975284 -0.19744873 -0.07430285 0.32301483 -0.16771466 -0.13321574 -0.020731151 0.34718806 0.24545708 0.4516677 -0.23628627 0.110324934 0.27180246 0.23353428 0.14141251 0.148782 -0.0023896622 -0.23889825 0.13719006 -0.29812765 0.0123671545 0.07383728 -0.21936621 -0.33594373 -0.0074096248 0.15662955 0.020550244 -0.040383827 -0.22380985 0.05146093 -0.06893532 -0.06341152 -0.042271912 -0.029266024 -0.02567089 0.13677101 -0.052307047 0.11747909 -0.15354288 -0.079605445 -0.077381685 -0.046585884 0.34780362 0.019003611 -0.09188294 0.5997151 0.063386306 0.10726725 0.0074595036 0.278744 0.13732636 -0.20579776 0.16008502 0.0139833605 0.030848987 0.09938397 0.015775993 0.19725749 -0.4091615 0.15196306 0.08945056 0.05737175 -0.09273835 0.28929883 0.13897148 -0.03539473 -0.3229775 -0.14202507 -0.13853557 -0.2041518 -0.080001175 -0.39541706 0.36403006 0.019822452 -0.27269518 -0.09544676 0.44748288 0.2706824 0.060478996 0.17713337 0.025572658 0.17442009 0.18897364 -0.13025676 -0.4392714 0.060287137 0.04107525 0.11183934 0.082549356 0.025250513 -0.08347399 0.14346981 -0.18354884 -0.050910525 -0.33937967 -0.106006786 0.015912369 0.037390277 -0.22129132 0.19509055 0.3639831 0.1552098 -0.21628323 -0.030211328 0.0014374164 0.09405421 -0.04559248 -0.39629412 -0.13758048 0.20983717 0.2733741 0.2815482 0.12266806 -0.21739763 -0.23260117 -0.14568073 -0.08845528 0.017646683 -0.059682127 -0.029613161 0.04728197
17 0.3871695 -0.1595927 0.14405695 0.20343885 0.2763424 -0.32512155 0.05762168 0.18010697 -0.26133168 -0.055553507 0.40056336 -0.21352884 -0.14889905 -0.023643985 0.40372214 0.27232176 0.5702786 -0.2923286 0.13171457 0.3434884 0.28556973 0.16429406 0.16529252 0.015855497 -0.30519542 0.17445773 -0.35928315 0.003938919 0.059066437 -0.25711858 -0.40494472 -0.005740864 0.15194036 0.013643179 -0.038622733 -0.2508399 0.052669168 -0.07490221 -0.09238203 -0.06849169 -0.022957338 -0.013064155 0.1696186 -0.036134064 0.120053664 -0.18362163 -0.10680765 -0.08371608 -0.06471885 0.3982498 0.047827937 -0.07423051 0.729349 0.040968973 0.12964971 -0.017860852 0.32538503 0.19366334 -0.2277312 0.16952261 0.015469838 0.03540179 0.10012161 0.0019574785 0.26476556 -0.522489 0.1584513 0.08922781 0.07399714 -0.118210286 0.34345275 0.1537211 -0.036504928 -0.3755888 -0.1892554 -0.15866318 -0.2246778 -0.13267775 -0.45162624 0.46134514 0.037654366 -0.32082272 -0.1258498 0.5209305 0.32028008 0.050022874 0.21790157 0.026488625 0.20444389 0.1942583 -0.14871061 -0.50730485 0.081909746 0.06083986 0.10286985 0.117103085 0.0072830827 -0.11271177 0.1740247 -0.23778024 -0.073972814 -0.42056236 -0.11143469 0.039500788 0.054707717 -0.26727805 0.22969356 0.4122653 0.18611808 -0.24218738 -0.042869262 0.010022838 0.111600585 -0.07286579 -0.47515422 -0.14541659 0.23766878 0.3362086 0.3414849 0.14576946 -0.23660363 -0.2725107 -0.16036186 -0.13075899 0.0003530872 -0.09001896 -0.00964096 0.05875113
4 0.18144716 -0.2937602 -0.06226509 0.1845732 0.22682971 -0.032624148 -0.14756776 0.023141328 0.015797865 0.12153189 -0.15067975 -0.25989234 0.017308377 -0.021320922 -0.17191994 -0.025625778 -0.09047747 0.393159 -0.08356466 0.14552824 0.36070305 0.0071679587 -0.056887396 0.105498545 0.053163216 -0.22809862 -0.27406195 0.10971314 0.3940767 -0.12580012 -0.068564 0.24184184 0.26017562 0.18601525 -0.10618214 -0.036356173 0.2848446 -0.12472896 0.083826154 0.25866142 -0.24053495 -0.084760584 -0.06730338 -0.28952655 -0.113897495 0.021810755 -0.09755801 -0.08500484 -0.15933843 -0.00077030587 -0.13881496 -0.14138924 0.0956527 0.2827742 -0.04582339 0.30524665 0.011949187 -0.24434055 -0.2501866 0.14166008 0.11599254 0.15064214 0.25633594 0.17528355 0.0067274193 0.0027745047 0.23422363 0.0737446 0.03770566 0.10576155 -0.12000985 0.32605717 -0.18494394 0.065609485 0.113196485 -0.2261029 -0.26651895 0.32311496 -0.106944904 0.05513683 -0.40817463 -0.098615326 0.11026053 -0.14445795 0.18083091 0.28958875 -0.041722268 0.012373478 -0.02964091 0.2493436 0.14837871 -0.15692389 -0.010057248 0.15346785 0.2015511 -0.13861163 -0.10580611 -0.22770126 -0.036943987 0.15005246 0.054266278 0.04323919 -0.34342065 -0.24571401 -0.15644088 0.06873237 -0.1437816 0.054899424 0.055232566 0.107287526 -0.028720526 -0.2232415 0.14921577 0.087259606 0.06362394 -0.25341454 0.1167905 0.09805245 -0.057871588 0.06128954 0.057504535 -0.2620883 -0.16819416 0.009443184 0.12814304 0.13984998 -0.09376894 0.124440804
71 0.02189405 -0.31620345 0.09638013 0.10699078 0.12511934 -0.021284653 -0.075912125 -0.044913564 -0.01782345 0.008189653 0.07609592 -0.09094939 -0.12898467 0.014645822 0.13584214 -0.07574103 0.099835046 0.06367538 -0.27476767 -0.0035899708 0.07277589 0.24728765 0.1428067 0.041748703 0.053035 0.19347455 -0.035295762 0.052298415 0.021271404 -0.079300724 -0.30522755 0.021267576 0.08799245 0.008604131 -0.18910412 -0.04523746 0.30805036 -0.023593599 0.25218445 0.12083283 -0.19981085 -0.13679126 0.06400416 -0.13846472 -0.008803392 0.04256984 -0.06713402 -0.106874205 0.054707292 0.052242678 -0.12593757 0.19552507 0.30645958 0.17100257 -0.087086506 0.17966105 0.14491743 -0.17164981 0.06658074 0.16662438 0.29489577 -0.103783965 0.10617196 0.045924995 0.10479435 0.015345668 0.037545852 0.11907328 -0.13008972 -0.100803114 0.18740685 0.020590533 -0.1207267 -0.1092986 0.1032735 -0.20684811 -0.19109763 0.28802326 -0.09385396 0.14942789 0.010508665 -0.07866088 0.048293896 0.24352789 -0.07881347 0.10764682 0.24296655 -0.031597786 0.07943806 0.2362614 -0.06297965 -0.036101453 -0.051965285 -0.08312298 0.2573447 0.07552918 -0.285356 -0.2934814 -0.1109826 -0.17679192 -0.06592234 -0.024451297 0.0002226019 0.10544533 0.0158457 -0.008390472 -0.018376572 -0.04448153 0.10380818 -0.05008392 0.023391383 0.05155153 0.1476064 0.15145667 -0.026157914 -0.13817443 -0.10663191 0.11498928 0.010263936 -0.03285429 -0.065084144 -0.15628816 -0.0066944757 0.12593059 -0.005496181 -0.06502764 -0.11269553 0.10630716
3 0.18468376 -0.28942344 -0.059461996 0.19405803 0.2331808 -0.028394975 -0.13796839 0.032282315 0.01112037 0.109802395 -0.13471894 -0.26599902 0.028134795 -0.026709745 -0.1694074 -0.018580537 -0.08321242 0.38244697 -0.0754963 0.14722207 0.3871998 -0.0016224219 -0.04744285 0.09894502 0.03421678 -0.21996109 -0.2813013 0.11436137 0.38865697 -0.12368693 -0.08431551 0.23809703 0.26562655 0.16837814 -0.10987251 -0.058425903 0.26073697 -0.11665825 0.07738404 0.231534 -0.22692917 -0.076750815 -0.07769738 -0.2940395 -0.10882258 0.025268828 -0.08809641 -0.10208558 -0.15176278 0.0036157263 -0.13625327 -0.14919606 0.10972104 0.29312873 -0.041337006 0.2756466 0.016552161 -0.2400049 -0.26389268 0.13742448 0.12935586 0.14904048 0.2602714 0.17085834 -0.009571549 -0.024582261 0.2180499 0.08490574 0.053378705 0.108317435 -0.12690736 0.32933137 -0.17841421 0.0619185 0.09586677 -0.21962732 -0.26720962 0.3174674 -0.1250005 0.06978044 -0.3959805 -0.095400356 0.12060939 -0.13478656 0.21335821 0.27815598 -0.04165192 -0.0012887053 -0.022893319 0.2328105 0.13751505 -0.16873123 -0.017606715 0.16196704 0.18532997 -0.14441761 -0.07804912 -0.20805342 -0.034744363 0.14193524 0.056503206 0.031215595 -0.3342241 -0.24898216 -0.1616082 0.0594993 -0.14310072 0.08394237 0.07214084 0.088173606 -0.02578172 -0.21318914 0.15120879 0.08817218 0.06296623 -0.26028192 0.1348412 0.10885072 -0.0414012 0.06861477 0.04442229 -0.2616794 -0.1581883 0.00076822564 0.12962261 0.13256656 -0.09342815 0.1090634
42 0.041076712 -0.2662689 0.121995516 0.089172855 0.12545808 -0.035985228 -0.08069312 -0.00093939557 -0.021222526 0.020259673 0.093716666 -0.09227715 -0.08951381 -0.013043395 0.09362321 -0.08774992 0.064641416 0.09185911 -0.24837683 0.0221405 0.17026049 0.19832554 0.12591398 0.019574152 0.021110704 0.18578517 -0.0748865 0.1012883 0.038801443 -0.019813927 -0.3059074 0.030958652 0.056106918 -0.015333565 -0.13902737 -0.04143982 0.29783642 0.0049533243 0.2591024 0.11946745 -0.19909412 -0.106778614 0.057753645 -0.12920517 -0.0057015046 0.064747356 -0.0500842 -0.13595961 0.006763487 0.024631064 -0.10826027 0.19350871 0.2787974 0.16990563 -0.014441557 0.14535241 0.16131842 -0.19615206 0.035733655 0.13188453 0.28643134 -0.10942622 0.09763148 0.005319312 0.08706286 -0.045428175 0.046952266 0.11683107 -0.10352418 -0.04978084 0.13873748 0.03601298 -0.15080576 -0.06741415 0.059896108 -0.23546039 -0.16289966 0.26472074 -0.018512182 0.18532664 -0.015742255 -0.08517912 0.08015332 0.24995084 -0.010135954 0.10018913 0.2620089 -0.042619515 0.12624878 0.18248941 -0.023060776 -0.036844574 -0.07302801 -0.026325341 0.24517767 0.042990375 -0.3227381 -0.33796737 -0.16157183 -0.1414798 -0.1382434 0.021635907 0.017422866 0.094759 -0.0030107016 -0.0042112037 -0.024724443 -0.137349 0.069138795 -0.039791483 0.0070598526 0.010208516 0.11744045 0.13996744 -0.008047661 -0.10866734 -0.07689943 0.17272785 0.0072389576 -0.03642531 -0.053189114 -0.13932101 -0.008141841 0.12147547 -0.049132533 -0.09913889 -0.12710874 0.12246899
61 0.08175524 -0.034061458 0.15416907 0.056366533 0.13941745 -0.22965057 -0.16061811 0.24111703 -0.058931816 0.13279791 0.18718639 -0.21054602 0.061313838 -0.027809678 -0.19452815 -0.17317912 -0.07465822 0.12555023 -0.1410093 0.17936401 0.41137248 0.02426944 -0.020044459 -0.11393563 -0.05828201 -0.05603651 -0.37780592 0.02759503 0.09464234 0.06750044 -0.24563952 0.20744032 -0.034335632 0.00823599 0.26952156 0.06355548 0.21540989 -0.038043488 0.081573285 0.15104884 -0.08353399 0.06780494 0.103104636 0.008131775 -0.14603211 0.04220216 -0.14273903 -0.026698265 -0.11273338 0.047352254 0.10440979 0.23075417 0.07796808 0.066942036 0.14064327 0.079575405 0.14363351 -0.049757767 -0.09132614 0.064225845 0.022049204 -0.19859841 0.101987995 -0.097391404 0.15971537 -0.14705262 0.22467084 0.14512615 -0.014491694 0.15181245 -0.0659935 -0.025645087 -0.20648615 0.01649649 -0.0066463924 -0.33261058 -0.096164756 -0.15087241 0.12569699 0.23930694 -0.12802456 -0.1769505 0.065616235 0.22165267 0.16128393 0.14038874 0.23781016 0.1360551 0.07809401 0.097916916 0.13481794 0.0015785019 -0.060375083 0.13757841 0.15854554 -0.07655126 -0.37793162 -0.40903997 -0.227329 0.0087084975 -0.3463748 0.08793961 -0.08199038 0.013652365 0.066741966 -0.024324454 0.0817202 -0.3522219 -0.033933304 -0.0069037406 -0.0026862707 -0.1544205 0.0018864537 -0.032638013 -0.1277065 0.07858645 0.042028915 0.3141333 0.06831535 0.031027684 0.0033129072 -0.06080445 0.014404831 0.023832612 -0.06277156 -0.05231222 -0.020650918 0.21116236
29 0.058466095 -0.23219876 0.087034486 0.07748922 0.046924405 -0.1753484 0.0080157695 -0.010522156 0.015780676 -0.1217432 0.017213149 -0.07998984 -0.08213019 -0.07746183 0.11543663 0.045730244 -0.029395984 0.119815424 -0.1245482 0.08087024 0.22122541 0.13795234 0.054574925 -0.090953626 -0.009589599 0.012962576 -0.18130288 0.08942905 0.18174584 -0.062448 -0.2037309 0.0768626 0.058940466 0.015049928 -0.03670437 -0.071518704 0.118588135 0.017527286 0.15558101 0.1253662 -0.09429153 0.04913999 0.07372342 -0.08484658 0.049659275 0.14901677 0.06654454 -0.12470623 -0.035007954 0.08201145 -0.03016321 -0.012078714 0.20341274 0.13638934 0.09589099 0.11596172 0.22562481 -0.16838099 -0.05446249 0.030942004 0.18478444 -0.11608868 0.087297045 0.0029841417 0.034490198 -0.027303977 0.08183666 0.116025314 0.011194948 -0.039667595 0.027540345 0.003664316 -0.21182178 -0.07915164 0.0054745195 -0.15417495 -0.17248115 0.17246889 -0.15682086 0.0991576 -0.020845788 -0.14467569 0.10441672 0.26541057 0.15305007 0.13107693 0.17371613 -0.0458544 0.1879434 0.20707794 -0.03254481 -0.18590733 -0.12665212 -0.028205672 0.1903179 -0.10624039 -0.101149194 -0.18936236 -0.15605256 -0.031651817 -0.13082267 0.056129582 -0.04591518 -0.08505218 0.020072578 -0.057637077 -0.021809291 -0.0575246 0.0327243 -0.15974532 0.124805406 -0.111876816 0.11216389 0.04566029 -0.057455394 -0.13985519 0.07509 0.13579217 0.02415382 -0.050994787 -0.1569814 -0.051855132 -0.07660754 0.12962778 -0.055079505 -0.014559399 -0.15927365 0.035088167
58 0.07330157 -0.04864555 0.19338416 0.03864268 0.13435233 -0.21481358 -0.15102038 0.22448277 -0.049372204 0.12898143 0.23484264 -0.1877233 0.04567591 -0.024790302 -0.15268901 -0.19709778 -0.045034986 0.09330363 -0.13895245 0.13544188 0.37703902 0.054500297 -0.014632382 -0.10144774 -0.06430934 0.0048101796 -0.33349478 0.02988981 0.043480635 0.09625177 -0.27619395 0.18863094 -0.040117398 -0.006532486 0.26846397 0.082574256 0.23922549 -0.02370749 0.10859586 0.12992392 -0.09050218 0.066982456 0.109929174 0.011483545 -0.14233638 0.034617454 -0.15391938 -0.026408464 -0.08026262 0.045790575 0.09952032 0.26377723 0.09955623 0.0502091 0.12597255 0.0540183 0.14530022 -0.043357294 -0.07060626 0.05304985 0.056758784 -0.2252348 0.07729315 -0.13883543 0.18073434 -0.16608375 0.18624093 0.14749496 -0.030329524 0.12680103 -0.02851482 -0.06841269 -0.2191103 -0.007206094 -0.015956514 -0.33921605 -0.093484394 -0.14850381 0.13070849 0.25181854 -0.089669734 -0.16979115 0.061563324 0.280696 0.13572721 0.117275335 0.29295173 0.10302181 0.09212854 0.109424815 0.12930153 0.022712892 -0.054076657 0.13443813 0.18025348 -0.053799614 -0.4167424 -0.44046897 -0.22255154 -0.052134708 -0.36090744 0.06865178 -0.041608676 0.04921663 0.08587214 -0.029927244 0.08239589 -0.35648972 -0.009325201 -0.02613918 -0.011384953 -0.12273202 0.005683754 -0.029564325 -0.12405719 0.08333496 0.0074975295 0.32471982 0.05473642 0.01939666 0.009955521 -0.057885934 0.016696937 0.042576764 -0.09884145 -0.070862934 -0.027352272 0.21909013
67 0.08444644 -0.037391078 0.17319407 0.060123697 0.15061691 -0.22842196 -0.14862347 0.24027991 -0.07292562 0.123553954 0.22295648 -0.1923798 0.04336123 -0.017859729 -0.16376139 -0.1667394 -0.035715986 0.077079974 -0.14260988 0.16544864 0.399872 0.04709827 -0.0043799235 -0.116665214 -0.060409635 -0.01578178 -0.37042648 0.02195402 0.06571088 0.06434111 -0.2703759 0.18813793 -0.030896321 0.001758501 0.26049802 0.07196739 0.21902615 -0.026026443 0.091902204 0.14051102 -0.09473127 0.058322378 0.117419995 0.017253995 -0.13675524 0.022167295 -0.1505568 -0.020860843 -0.10350998 0.06475902 0.10150261 0.2650792 0.10253338 0.048930496 0.1316365 0.062105346 0.14930873 -0.043928508 -0.07395421 0.06880975 0.034967538 -0.21259093 0.07882403 -0.10480445 0.17626022 -0.15848637 0.21367788 0.1437569 -0.035290085 0.13469903 -0.038872488 -0.038011055 -0.17653461 -0.0050212485 -0.013853889 -0.31963953 -0.09025408 -0.15386435 0.12172955 0.25850883 -0.10642928 -0.16651261 0.044117264 0.2410729 0.13317688 0.1098833 0.24621375 0.115280084 0.0814578 0.085741155 0.1125913 0.007681505 -0.039408024 0.11916719 0.15515094 -0.047760487 -0.38377622 -0.4054488 -0.2126064 -0.030639527 -0.3484659 0.057246707 -0.0653186 0.034422 0.0695653 -0.039984826 0.090804584 -0.33093742 -0.012406159 -0.007074123 -0.009547097 -0.12599985 0.0013891284 -0.029515255 -0.14035234 0.08656434 0.019600935 0.31313774 0.08241063 0.037927274 0.011179812 -0.059196167 0.025896084 0.018898873 -0.08012419 -0.06440569 -0.011230266 0.20774168
36 0.02204509 -0.33921543 0.09569034 0.0819067 -0.00095166685 -0.34258935 0.10593537 -0.1607875 0.07784611 -0.2787029 -0.05577098 -0.031171389 -0.116668165 -0.13052815 0.16068655 0.2290816 -0.2263703 0.15962623 -0.1314584 0.08778293 0.078210875 0.16858488 0.02406484 -0.19387819 0.066541515 -0.2299622 -0.18518682 0.07860271 0.25071105 -0.10901026 -0.12218949 0.1250281 0.123003036 0.12515739 -0.031276237 -0.12630664 0.076879315 0.039181434 0.17215523 0.1684338 0.01356886 0.07664153 0.11394618 -0.051430263 0.06633502 0.23808311 0.17834729 -0.04000823 0.08307424 0.19517495 -0.055114362 -0.18758303 0.025100887 0.08441527 0.021401124 0.22154318 0.33776203 -0.20173596 -0.117055066 0.07132606 0.07261099 -0.15805618 0.105937794 -0.018037658 -0.039710287 0.19201843 0.060838915 0.12121719 0.051689588 -0.035486374 0.06650993 -0.10265924 -0.27337685 -0.23981754 0.058168836 -0.11713334 -0.2514917 0.17606145 -0.3491398 -0.012928216 0.0051328493 -0.12320837 0.1554878 0.31098366 0.06746964 0.2880265 0.06619013 0.01642264 0.13389023 0.41895965 -0.100993715 -0.3004836 -0.11581788 -0.14388879 0.17660739 -0.27661395 0.15107003 -0.012813773 -0.109394014 0.030426499 -0.05472437 0.1586217 -0.23919627 -0.24457505 0.0931606 -0.02235179 0.016566943 0.08207507 0.03464794 -0.2601585 0.24824099 -0.12969206 0.15868203 -0.044150777 -0.12620667 -0.30649015 0.10894787 0.021103851 0.01966826 -0.14758733 -0.2716082 0.0058490336 -0.15366255 0.27745616 0.0244159 0.23397028 -0.2724584 -0.0010313904
35 0.024553172 -0.37328464 0.1000134 0.089730434 0.027117247 -0.33769843 0.09688491 -0.16711001 0.08838 -0.28529105 -0.06236406 -0.055227026 -0.13322021 -0.14631265 0.15428674 0.22391582 -0.23382902 0.19077899 -0.15309969 0.09404651 0.109047614 0.17964475 0.04556941 -0.1832465 0.06539236 -0.23563509 -0.20076801 0.09834263 0.284543 -0.123643614 -0.14691044 0.12891428 0.1383754 0.13625576 -0.07323628 -0.1364462 0.105770394 0.041195583 0.19523232 0.18261836 -0.017816087 0.061098587 0.10159556 -0.090643995 0.074606024 0.26129773 0.19171841 -0.067911014 0.07633483 0.19851436 -0.08942939 -0.19607729 0.033818714 0.12314593 0.004997536 0.24613841 0.3578069 -0.24061008 -0.13311958 0.07291425 0.113841444 -0.1584545 0.1364728 -0.006858222 -0.034224864 0.1870736 0.066595584 0.12555256 0.056358602 -0.033447545 0.07291751 -0.07442841 -0.29568315 -0.2359003 0.056180574 -0.1448814 -0.2871593 0.22666837 -0.36642766 0.0006113844 -0.019268947 -0.12081624 0.17911154 0.31041163 0.080196954 0.31678632 0.06996092 0.0067226826 0.14763147 0.4450007 -0.09533396 -0.3263106 -0.12488349 -0.1359804 0.2018559 -0.29353988 0.14575279 -0.030176485 -0.11956291 0.025550278 -0.046453144 0.17653246 -0.2632204 -0.2661469 0.07694999 -0.023812797 -0.008212788 0.08646216 0.037792057 -0.2658591 0.24811713 -0.14218545 0.1819912 -0.02099341 -0.10219414 -0.34431493 0.12142102 0.022438016 0.019368008 -0.14989203 -0.2779361 -0.028553963 -0.1675771 0.2940646 0.026985899 0.23691708 -0.29785317 0.0075738654
76 0.023531666 -0.35370696 0.08991551 0.13221233 0.1481924 -0.015987884 -0.10124277 -0.046162587 -0.022467818 0.03541793 0.09202333 -0.13319379 -0.14710733 0.02849941 0.12022384 -0.077786356 0.09015206 0.0859068 -0.31635305 0.005328329 0.091605365 0.27090895 0.12070167 0.045359597 0.06425548 0.15494652 -0.071220085 0.046875827 0.03576821 -0.10012795 -0.32215157 0.039570183 0.11488599 0.022876369 -0.18878186 -0.0039194594 0.37247843 -0.06025315 0.28654408 0.15047587 -0.22696362 -0.17751983 0.0732711 -0.17253698 -0.051688395 0.019538514 -0.103938885 -0.088721275 0.042730175 0.06751963 -0.11413363 0.2377379 0.307374 0.18497004 -0.122850224 0.22818741 0.14590918 -0.18276533 0.062003102 0.22352023 0.28785953 -0.09197669 0.121174 0.04600961 0.1376005 0.04281985 0.078727975 0.1302239 -0.1632554 -0.07370239 0.17954603 0.04048801 -0.14315434 -0.109106675 0.15268673 -0.26768702 -0.22123636 0.31893057 -0.08555262 0.18114755 -0.03530118 -0.08733786 0.04895303 0.22249621 -0.08920687 0.15502465 0.24138902 -0.011098229 0.028515954 0.28036413 -0.0592429 -0.017653791 -0.041021664 -0.077756286 0.2882583 0.08401449 -0.33652467 -0.325358 -0.13352752 -0.17864852 -0.06956438 -0.03164643 -0.051600195 0.10176012 0.028099751 0.009095058 -0.019802015 -0.050148677 0.118398115 -0.037931867 0.008826268 0.045280688 0.16195428 0.16837312 -0.010657793 -0.14400083 -0.14698407 0.110741735 -0.006633388 -0.01777973 -0.03332601 -0.17484768 -0.02377598 0.12351797 0.028576327 -0.033185452 -0.08487688 0.14071526
72 0.002237116 -0.24700284 0.12681445 0.07403702 0.08234494 -0.07600767 -0.07404278 -0.010489208 -0.0059573646 -0.0002568313 0.10403635 -0.074772015 -0.10033992 -0.015442072 0.07746611 -0.0734121 0.018161945 0.0561476 -0.26273552 0.025301367 0.1052458 0.20243882 0.10802913 -0.03995855 0.038823232 0.12668253 -0.08343996 0.048705306 0.011853723 -0.022432763 -0.28485945 0.04889345 0.030544646 -0.00013696754 -0.06913524 -0.012069091 0.27707982 -0.0073459377 0.24822316 0.12699221 -0.16049215 -0.08151273 0.09026527 -0.079272866 -0.01649579 0.07848315 -0.04899152 -0.07925235 0.030389043 0.06295342 -0.060638595 0.20568144 0.2100902 0.11041291 -0.029854314 0.1538537 0.18319201 -0.15872854 0.0635547 0.123645104 0.22087753 -0.15879962 0.06613213 -0.027839566 0.10941125 0.017906249 0.05550501 0.1311943 -0.11199995 -0.036152773 0.13404241 -0.037671745 -0.15757638 -0.0945392 0.07719876 -0.22725932 -0.16141717 0.18790185 -0.028539762 0.15181941 0.023787748 -0.08758532 0.06812916 0.27100483 -0.04290757 0.12543905 0.25142986 0.00050502655 0.08726357 0.20997499 -0.031250823 -0.02370741 -0.07480207 -0.068049185 0.23072071 0.015833884 -0.30114526 -0.30831093 -0.16682138 -0.13740991 -0.1516681 0.04299863 -0.00856296 0.08245989 0.061437044 -0.005962454 0.01206386 -0.15727215 0.053497378 -0.079584606 0.03710588 0.0016169144 0.11139018 0.09490299 -0.031750966 -0.08494012 -0.09211929 0.15705529 0.001978401 -0.052978665 -0.06333383 -0.091486916 0.0038454183 0.14926156 -0.044148933 -0.03821098 -0.10525996 0.12030533
39 0.011769275 -0.40039724 0.13007955 0.09786672 0.021702461 -0.3378452 0.09454567 -0.17153001 0.072940014 -0.2927335 -0.030853115 -0.042388145 -0.16137165 -0.14343768 0.20953952 0.23086217 -0.18794377 0.14610799 -0.16680734 0.09713674 0.07767943 0.22990742 0.06028045 -0.18525767 0.063216254 -0.17682433 -0.18833269 0.09427912 0.23806092 -0.13207728 -0.19835275 0.1043941 0.1255484 0.10083209 -0.074681126 -0.14044599 0.1162281 0.043668885 0.22224173 0.1703921 -0.01451162 0.036526363 0.11758406 -0.07123415 0.08330479 0.2545387 0.18508062 -0.068266384 0.10964857 0.2083643 -0.083549336 -0.1362415 0.07245845 0.09976898 0.0026208493 0.22887807 0.3706925 -0.22349043 -0.09126687 0.09163011 0.13464683 -0.19092093 0.11749759 -0.020020187 -0.020883154 0.19186155 0.04908716 0.13614117 0.03356935 -0.06431208 0.12206106 -0.11038846 -0.27577338 -0.26880202 0.06283003 -0.12893693 -0.2784194 0.21736754 -0.36807114 0.014249167 0.029787743 -0.11639785 0.15962528 0.35130665 0.036677375 0.2810759 0.09833357 0.0042777504 0.1599955 0.44248542 -0.13448408 -0.30690324 -0.123905495 -0.17198561 0.20316197 -0.2499551 0.11457127 -0.031541355 -0.119349286 -0.020645402 -0.043973714 0.14927645 -0.21861032 -0.21332763 0.09395767 -0.025338834 0.021164434 0.085793145 0.05908729 -0.2749354 0.24552625 -0.10567109 0.18323149 -0.00878872 -0.13122572 -0.31347495 0.0716769 0.016420687 0.02729529 -0.14201233 -0.28412092 -0.01057429 -0.13393863 0.29744744 0.008905363 0.21430925 -0.28560382 -0.001412234
37 0.008404706 -0.35523343 0.118516155 0.07444205 0.010254714 -0.34291303 0.07227499 -0.1442322 0.09421953 -0.24747413 -0.05391589 -0.056116205 -0.1115669 -0.1403268 0.12638496 0.18715905 -0.2527524 0.18833485 -0.16509739 0.08625579 0.10607532 0.17593014 0.03470207 -0.18558206 0.08035205 -0.233753 -0.19808109 0.077220306 0.24701369 -0.09359947 -0.14972614 0.14495517 0.10687087 0.11953431 -0.026214916 -0.09587447 0.126765 0.041219685 0.20312564 0.18090796 -0.011241155 0.07062488 0.10824818 -0.056822073 0.030679008 0.25956544 0.16670717 -0.038309313 0.09149579 0.18158834 -0.06473314 -0.131865 -0.0052605257 0.09741393 0.011913316 0.22455792 0.3318592 -0.22027181 -0.08874706 0.082604095 0.09657951 -0.19304092 0.10447362 -0.022891086 -0.021387683 0.21261498 0.06878343 0.12797824 0.03202137 -0.010630313 0.050757553 -0.1133108 -0.28323975 -0.22312607 0.082720086 -0.1502985 -0.2579584 0.17631243 -0.31328753 -0.004219207 -0.0051435702 -0.11627724 0.16065761 0.31194505 0.037491433 0.30605176 0.092441335 0.027561575 0.12167984 0.42803606 -0.093574665 -0.26110783 -0.111940056 -0.14305346 0.18955462 -0.27321738 0.08714568 -0.06333901 -0.15036511 0.022623787 -0.07441347 0.20007911 -0.22153002 -0.2263834 0.097580664 -0.00888985 0.0097459275 0.02241187 0.027687117 -0.2389766 0.2345587 -0.13524437 0.16431339 -0.028147567 -0.09541411 -0.28434348 0.07579224 0.024257163 0.008890733 -0.14808697 -0.24985717 -0.0009816875 -0.12381055 0.2869043 0.017067252 0.23142508 -0.27114794 0.018367289
30 0.035628226 -0.35037348 0.12976347 0.0770315 0.022302372 -0.35564017 0.114504896 -0.13796486 0.05342311 -0.28570625 -0.01467118 -0.04268524 -0.14149417 -0.14897144 0.19269316 0.23245001 -0.16939962 0.12111516 -0.13239993 0.12211892 0.11755306 0.20212983 0.057264328 -0.1924575 0.037053637 -0.16413598 -0.21200615 0.0870782 0.24464993 -0.122927606 -0.19465365 0.10743884 0.111009024 0.103174016 -0.05636472 -0.15773857 0.069852546 0.03980016 0.16835693 0.13659924 -0.0021380724 0.06270925 0.114845365 -0.052640814 0.09043202 0.23597266 0.18584724 -0.07142733 0.08575478 0.21426901 -0.06734138 -0.16621728 0.07880664 0.07672193 0.037209 0.19753575 0.36662143 -0.19661744 -0.10096455 0.07104036 0.110225655 -0.1839585 0.10662334 -0.029786479 -0.027479285 0.13574216 0.05320285 0.12718567 0.045291573 -0.053483743 0.10351652 -0.08757136 -0.2614613 -0.24839151 0.015940057 -0.12105472 -0.2522648 0.1705168 -0.36550745 0.02571017 0.035840753 -0.13392156 0.14534053 0.35096782 0.0839877 0.2593297 0.088147335 0.009641114 0.17534155 0.40118173 -0.12019789 -0.3196369 -0.10949566 -0.14655493 0.17415288 -0.24618249 0.14589837 -0.017854579 -0.10580374 -0.008636725 -0.047981806 0.13014664 -0.20911366 -0.21009262 0.0893782 -0.042896412 0.024473447 0.1079269 0.045427013 -0.27817374 0.23763001 -0.09670584 0.1602338 -0.024127739 -0.15570703 -0.2981813 0.10696668 0.039281443 0.05583332 -0.13220005 -0.29250047 -0.011693496 -0.13564289 0.26327476 0.0069603277 0.19123676 -0.26236862 -0.0052794474
38 0.02238199 -0.31511572 0.12778284 0.06444943 0.021153368 -0.35008326 0.07778909 -0.10386187 0.067521185 -0.24091713 -0.03803744 -0.052822348 -0.100920394 -0.15337086 0.10687063 0.1798109 -0.24597089 0.19234227 -0.148861 0.11327231 0.14134042 0.15799806 0.033515494 -0.20664743 0.052164335 -0.21910478 -0.2237483 0.09741695 0.24659723 -0.065724514 -0.15491308 0.14822768 0.092570245 0.10467708 -0.0055021057 -0.10832626 0.083450735 0.04664838 0.17387024 0.16799618 -0.0014172508 0.08966632 0.09527959 -0.038982663 0.060898177 0.25926006 0.17028277 -0.05363504 0.05856157 0.16504979 -0.044088464 -0.15251757 -0.0024431995 0.0841789 0.044097774 0.20006292 0.3400392 -0.20969796 -0.10295813 0.046390444 0.08007186 -0.19111533 0.10832387 -0.034608513 -0.029062182 0.16993058 0.059485838 0.117644444 0.06501987 -0.005310815 0.041130397 -0.1041234 -0.2685418 -0.21135204 0.043125864 -0.1410517 -0.2345959 0.15927687 -0.29548767 0.0034662907 -0.009456605 -0.12353611 0.16607055 0.30434403 0.083733566 0.27347943 0.080478154 0.020790946 0.15939656 0.37740964 -0.07920175 -0.2636539 -0.13031714 -0.1178778 0.17253563 -0.27199736 0.109940544 -0.062934615 -0.13501109 0.026594631 -0.08981358 0.18347488 -0.21874614 -0.2318044 0.075780205 -0.02198264 0.007915878 0.004210366 0.0018027896 -0.24451004 0.22738558 -0.1456586 0.14335266 -0.039329216 -0.10410793 -0.27024937 0.11352567 0.054855544 0.03209363 -0.1400007 -0.25616214 0.014174169 -0.13289721 0.2787241 -0.008486023 0.2060714 -0.26723418 0.01897917
32 0.15239099 -0.1954697 0.103913486 0.11260913 0.111395255 -0.19555835 0.011732284 0.036535263 -0.07991517 -0.06638186 0.15188798 -0.11032568 -0.096866585 -0.02485343 0.20224749 0.116881855 0.16307427 -0.06141241 -0.024404487 0.13721769 0.15508191 0.13200048 0.0920135 -0.044796944 -0.089139774 0.08794318 -0.17646237 0.05355377 0.0765052 -0.09606673 -0.24136877 0.011148444 0.07801726 0.026850965 -0.03201349 -0.12944148 0.11739938 0.005377675 0.08113561 0.04680782 -0.07946709 -0.0127083035 0.09514582 -0.050680168 0.07671073 -0.00053043326 -0.032775663 -0.08410435 -0.0057357564 0.16899873 -0.013784844 -0.009424435 0.32843474 0.07069342 0.06425587 0.08180506 0.2301617 -0.02860429 -0.079581656 0.09746202 0.08801676 -0.04882694 0.072652504 -0.019418236 0.08957342 -0.15917099 0.072189495 0.07973681 0.028202774 -0.05725578 0.1585457 0.05122883 -0.09601657 -0.17568047 -0.03983257 -0.13278978 -0.14436929 0.064756244 -0.20313412 0.1834603 -0.004169512 -0.16164818 0.015748495 0.3034728 0.12672962 0.07116955 0.16322039 0.004338152 0.1263346 0.15653588 -0.053865418 -0.24342646 -0.028580857 -0.014069225 0.13694322 -0.011926798 -0.06446574 -0.13595632 -0.018771518 -0.1056649 -0.09157776 -0.09858594 -0.05705537 0.0017083273 0.039593093 -0.10036896 0.067689195 0.08945202 0.06593041 -0.14251749 0.043537974 -0.025141811 0.07672418 -0.003076872 -0.17342849 -0.10644014 0.093775995 0.17241754 0.108966894 0.013519041 -0.14591007 -0.1029693 -0.08198411 0.03779297 -0.025743319 -0.01793974 -0.0848433 0.051756106
77 0.034114655 -0.056735203 0.19566563 0.045056015 0.12158816 -0.21507262 -0.15534054 0.22094911 -0.057451133 0.12062854 0.20944378 -0.1895113 0.04926758 -0.027304396 -0.17674923 -0.19359869 -0.10464643 0.12041558 -0.17242414 0.1476663 0.3755719 0.050672255 -0.0072288453 -0.14659095 -0.034316625 -0.02458404 -0.3370386 0.047787286 0.05287346 0.094324574 -0.27492574 0.17781109 -0.06466643 -0.012100857 0.27925754 0.08069602 0.2174322 -0.026806563 0.12702069 0.14846422 -0.10269624 0.055199783 0.112161435 0.013901148 -0.12065518 0.073546566 -0.14192997 -0.0172941 -0.09728945 0.052079804 0.10083068 0.28972015 0.05629393 0.04801423 0.11902655 0.066794805 0.15280624 -0.07626543 -0.04043799 0.053221025 0.04537827 -0.24161716 0.07389781 -0.14411825 0.16286886 -0.12471761 0.18127128 0.16502765 -0.03892257 0.15288232 -0.04436401 -0.07509988 -0.22054099 0.0024683764 0.0064157923 -0.3439144 -0.09677434 -0.12993051 0.16101818 0.24293792 -0.095026135 -0.15525602 0.07739683 0.26967785 0.12986372 0.12487382 0.27985206 0.1117064 0.08356321 0.10033834 0.13191903 0.03755701 -0.071859725 0.10838708 0.17604986 -0.057872396 -0.41669646 -0.4349128 -0.26807478 -0.0362465 -0.37811047 0.09959708 -0.050790522 0.026478842 0.09575066 -0.012826206 0.07265357 -0.39754066 -0.033527594 -0.032875944 0.012484157 -0.14064702 0.008990205 -0.023476359 -0.10944059 0.09400374 -0.0033849578 0.3117248 0.04330292 -0.00606563 0.008118232 -0.02289824 0.02922142 0.0716162 -0.103000686 -0.056111187 -0.03768354 0.2127045
55 0.1217311 -0.17461114 0.13049495 0.067580186 0.13332072 -0.1904104 -0.014636815 0.087543316 -0.051965147 -0.052054595 0.06959523 -0.09567664 -0.0360057 -0.09245514 0.086238906 0.028095638 0.014876748 0.10719821 -0.052174944 0.1339225 0.3349431 0.08305164 0.07073868 -0.06259931 -0.055270728 0.06998284 -0.2236311 0.15156664 0.15957326 0.0256418 -0.2587094 0.0760771 0.015274614 -0.01584964 0.005194559 -0.12398242 0.08449681 0.055847753 0.12582448 0.06983216 -0.08956438 0.060482975 0.014003744 -0.029959997 0.091194816 0.12290913 0.016982723 -0.1311237 -0.08182759 0.0639855 -0.047222126 0.016256701 0.22266355 0.10428352 0.14345746 0.0457581 0.21492112 -0.110444956 -0.093987405 0.0029499573 0.14008954 -0.097918265 0.11144702 -0.04024978 0.034558434 -0.17867905 0.046086207 0.093492374 0.07691539 -0.0042026015 0.03378208 0.04046819 -0.16323173 -0.08733415 -0.110201575 -0.15489544 -0.13359529 0.1327831 -0.06894277 0.16752061 -0.040929038 -0.13344699 0.091815695 0.27357385 0.20552108 0.055585437 0.20724763 -0.044372153 0.22439608 0.103566 0.03143479 -0.19206554 -0.098320104 0.032168005 0.123879425 -0.08887874 -0.10045666 -0.22723709 -0.118486874 -0.05150855 -0.15968072 0.05126147 -0.036685374 -0.04229074 -0.021584783 -0.05627257 -0.02416082 -0.0956394 -0.0067719277 -0.095388785 0.0507055 -0.10670893 0.04673664 0.006762902 -0.09838023 -0.09853478 0.103207216 0.21428491 0.08628882 -0.034571014 -0.13748519 -0.0837147 -0.052286614 0.07448789 -0.10634248 -0.06507872 -0.14996746 0.06396466
75 0.0020833304 -0.120494395 0.2583886 0.096360825 0.19966248 -0.18992278 -0.18104967 0.26085895 -0.079003416 0.21514086 0.26605645 -0.26859337 0.04065821 -0.014703393 -0.23252195 -0.22011183 -0.17694023 0.26791626 -0.23317182 0.16279542 0.36834243 0.064119555 -0.096227676 -0.21043089 -0.011063333 -0.16570096 -0.37739274 0.06089667 0.075814895 0.08967724 -0.30546612 0.24168894 -0.028511686 0.067541234 0.35695773 0.21323456 0.32697415 -0.11829643 0.19122992 0.2411065 -0.15921743 -0.0026259732 0.1311049 -0.05279268 -0.19267237 0.03513808 -0.22953427 0.02147433 -0.1251383 0.08529317 0.11539047 0.39088595 0.041937463 0.056472886 0.09368874 0.14164875 0.16511635 -0.1036667 -0.062420964 0.12437104 -0.00730498 -0.22789079 0.080904655 -0.19926316 0.22350419 -0.074186474 0.2524108 0.20113592 -0.100872114 0.29042777 -0.10825198 -0.01576795 -0.29306993 0.034572516 0.11318961 -0.5113546 -0.18683887 -0.111625455 0.2097792 0.35679474 -0.19319725 -0.15898605 0.105572365 0.2829742 0.16764174 0.20243096 0.3206849 0.120563686 -0.002408661 0.22799782 0.2374874 0.050062384 -0.050018426 0.17988689 0.21082072 -0.06916418 -0.6026631 -0.52564836 -0.39968723 -0.0055533275 -0.41176787 0.068996504 -0.20397767 -0.055281773 0.16583838 0.085297585 0.019727943 -0.46935192 -0.008083935 -0.011595715 0.01790783 -0.2721023 0.07206671 0.011758448 -0.08324773 0.10721183 -0.049298935 0.31818572 -0.01496056 0.03653603 0.07042105 0.0068469536 0.013286097 0.11203525 -0.06804586 0.026632972 -0.004815144 0.3387995
74 -0.018721402 -0.091817036 0.21653655 0.05674559 0.17707485 -0.13157666 -0.20000234 0.26026377 -0.06542711 0.23062213 0.21721944 -0.23806158 0.060573358 0.007264855 -0.27385452 -0.24845627 -0.19423369 0.28270808 -0.21357697 0.14365098 0.3558358 0.023406908 -0.11096459 -0.17068839 0.0009074783 -0.16533227 -0.34401324 0.068569005 0.087014444 0.12568267 -0.24273436 0.251216 -0.040468596 0.051180277 0.3574405 0.21316145 0.29953894 -0.10655655 0.1717904 0.2342661 -0.14148627 0.0033439398 0.10160686 -0.051731803 -0.20093341 0.037530016 -0.22720668 0.023227353 -0.13178748 0.045114998 0.10227478 0.36875656 -0.003589834 0.07206845 0.08059678 0.119518496 0.11507463 -0.11152195 -0.048220977 0.10673419 -0.004466619 -0.19606678 0.0897184 -0.1825984 0.20585807 -0.06911331 0.22719267 0.19487469 -0.06954955 0.2883079 -0.1294109 0.0024753488 -0.26027128 0.06124019 0.11550557 -0.47405407 -0.15975927 -0.08240493 0.2337362 0.32043096 -0.2222502 -0.13693874 0.09455221 0.21528326 0.1718953 0.20059507 0.2771539 0.11833406 -0.017057877 0.1862639 0.25811788 0.082163654 -0.042769395 0.19703063 0.1893558 -0.075457335 -0.5773323 -0.51801795 -0.369993 0.00769882 -0.39804935 0.085664004 -0.19593398 -0.053027697 0.13425882 0.09736896 0.004325878 -0.47708502 -0.013209985 0.03683476 -0.011442044 -0.26185676 0.05299581 0.028292796 -0.05183175 0.113849014 -0.03781578 0.30713022 -0.00879354 0.04662334 0.1001344 0.0025870064 0.0021604544 0.0928923 -0.07654437 0.0032510539 -0.013543999 0.31879562
43 0.06521757 -0.28890774 0.104212135 0.1050241 0.114559956 -0.054366946 -0.03129046 -0.045275893 -0.024748698 -0.0499764 0.064277485 -0.059301913 -0.13026176 -0.023552991 0.18851103 0.009355398 0.12510823 0.035511255 -0.1803634 0.029849637 0.13055603 0.20765829 0.14945784 0.031138003 -0.0022081449 0.20590931 -0.054050393 0.09920045 0.053837687 -0.07603732 -0.29212144 -0.0040355762 0.07744409 -0.015951648 -0.18400113 -0.095481254 0.23974088 0.004028718 0.218062 0.08152669 -0.15997466 -0.097606 0.057668526 -0.11624341 0.04907764 0.072669335 -0.0013262893 -0.13815354 0.026594052 0.06086966 -0.12529138 0.105860785 0.34115118 0.16078588 -0.0044451957 0.122222155 0.19502561 -0.16289888 0.020174678 0.12060495 0.28307363 -0.09204065 0.10419962 0.04422464 0.06714819 -0.061531626 0.020257492 0.10073878 -0.06980038 -0.09968516 0.1713022 0.044583067 -0.13428934 -0.13112886 0.026998445 -0.17914242 -0.1781703 0.29334223 -0.12742653 0.16125195 0.011319237 -0.10473271 0.062843926 0.27797258 0.022360856 0.085938625 0.24140464 -0.05358089 0.15146533 0.2139949 -0.07964493 -0.12668648 -0.06796179 -0.060614936 0.23096079 0.024566798 -0.18773352 -0.24572134 -0.08980894 -0.1407661 -0.067698106 -0.0122293 0.0061621433 0.058582615 -0.006566833 -0.039967332 -0.023655966 0.0035160182 0.09762208 -0.09815397 0.029320631 0.017452586 0.12047169 0.11245223 -0.053274013 -0.15242799 -0.030775562 0.1507201 0.036940776 -0.04585307 -0.11123101 -0.14946944 -0.02953613 0.11259927 -0.044637296 -0.08745567 -0.15131934 0.073841274
44 0.07424552 -0.20497924 0.104565434 0.080291025 0.07676804 -0.21698551 -0.0055313874 -0.0029482683 -0.0075937468 -0.09569813 0.062189627 -0.09060216 -0.0655875 -0.06475496 0.09147233 0.06521365 -0.04484372 0.066609144 -0.11753637 0.10866637 0.18450864 0.12512508 0.06309796 -0.08887355 -0.006739228 -0.033426113 -0.19803482 0.06404291 0.13721894 -0.05749571 -0.20840947 0.08247698 0.07165699 0.04062298 -0.008568686 -0.080684535 0.119846605 0.00043473192 0.123028 0.10281493 -0.059800465 0.019561067 0.08272309 -0.059265733 0.015782485 0.101497985 0.040133175 -0.07009067 0.0038698404 0.121286795 -0.024323454 -0.018099647 0.14209855 0.07709075 0.051363047 0.116736166 0.2189059 -0.113513604 -0.07475226 0.06514072 0.10392854 -0.11388739 0.0871916 -0.025583807 0.035666432 -0.007340379 0.090438105 0.10234266 0.015433702 -0.01748455 0.07224469 -0.016779577 -0.16715932 -0.13366583 0.008755439 -0.15105785 -0.16159603 0.0925153 -0.17078774 0.10158003 -0.020808816 -0.110362396 0.08023131 0.24425279 0.07796886 0.1407611 0.12971392 0.019462788 0.11794872 0.22139725 -0.046028055 -0.1713364 -0.05973336 -0.034573633 0.15377878 -0.10496964 -0.058146562 -0.13410868 -0.088268 -0.04011463 -0.10342622 0.047640923 -0.10605775 -0.073495835 0.041842066 -0.041748885 0.033271566 0.0008847663 0.037025943 -0.13358214 0.0886524 -0.06431147 0.089980185 -0.0100197205 -0.115118034 -0.13842426 0.06816247 0.12499345 0.050396793 -0.046272222 -0.14628536 -0.0598845 -0.079826444 0.12064646 -0.012039448 0.04775681 -0.14566995 0.060454898
73 0.08512051 -0.2615262 0.08776555 0.10097606 0.101749144 -0.17331338 -0.028994879 0.004928636 -0.011026315 -0.0750873 0.008816694 -0.113100536 -0.07437315 -0.06514182 0.07947472 0.027167846 -0.038116332 0.1507634 -0.14334822 0.09861124 0.2512299 0.13391547 0.07125934 -0.050388977 0.013663869 0.021118643 -0.18909656 0.11428256 0.18139634 -0.042458322 -0.23896313 0.09289901 0.07916493 0.017654462 -0.080730066 -0.096816905 0.15361969 0.014982136 0.16116911 0.12112715 -0.13115948 0.004429399 0.042774737 -0.1034794 0.03238569 0.13388647 0.03257923 -0.1270266 -0.03553153 0.07056171 -0.07178242 -0.0056338077 0.19472225 0.13603649 0.050469395 0.13828474 0.20636913 -0.18352884 -0.061622273 0.061575405 0.18883894 -0.0872395 0.111889735 0.00734186 0.016898213 -0.020386104 0.070748635 0.11097438 0.020707563 -0.025584133 0.042167168 0.045747086 -0.18624178 -0.088751525 0.004882586 -0.16670623 -0.18596175 0.2236281 -0.12949027 0.08949143 -0.064401545 -0.10691412 0.10899261 0.20963025 0.108287185 0.13395041 0.16118278 -0.03637492 0.1576031 0.19119719 -0.0069636423 -0.17125027 -0.10003073 -0.011486819 0.18139361 -0.09192491 -0.098553196 -0.21283194 -0.113265425 -0.0370474 -0.1058792 0.0774707 -0.075009346 -0.060820587 -0.018559948 -0.026552683 -0.035405017 -0.048862785 0.023935752 -0.10662933 0.084618725 -0.094413854 0.0925755 0.054405257 -0.041475587 -0.15817657 0.06233362 0.13245171 0.026056863 -0.041082162 -0.13058189 -0.09990748 -0.07007607 0.121049665 -0.03085046 0.005906245 -0.17224222 0.063965
45 0.06377692 -0.26314622 0.07364841 0.10737357 0.064943634 -0.17491232 0.0037768523 -0.013029315 0.01173451 -0.12085915 0.01911358 -0.103442095 -0.099150285 -0.060368415 0.11738729 0.06670885 -0.031226737 0.11076742 -0.13200033 0.10003844 0.20413925 0.15592623 0.045274146 -0.07531514 -0.005983672 -0.040292 -0.19271418 0.07371542 0.1884591 -0.10115739 -0.2109818 0.084509574 0.09565125 0.04704359 -0.029359559 -0.051589616 0.12928125 -0.009605917 0.15381542 0.13396052 -0.08777343 0.03180664 0.08489023 -0.096386 0.027706375 0.12405256 0.05363247 -0.07858242 -0.022972217 0.10013071 -0.02496377 -0.018516816 0.17541513 0.13313626 0.05511892 0.13019583 0.2063303 -0.16472131 -0.059073508 0.071969904 0.14213532 -0.088903315 0.10683182 0.019190969 0.03903928 0.008302896 0.08782018 0.115248024 0.003841653 -0.020603748 0.026966127 0.022137742 -0.20078363 -0.08832668 0.026317831 -0.1533135 -0.17828014 0.15206808 -0.18399152 0.098555505 -0.044509478 -0.1376334 0.10055723 0.22522125 0.12185357 0.14028727 0.1362423 -0.022881929 0.13714674 0.22006896 -0.01913607 -0.19690272 -0.09448256 -0.03312956 0.17005882 -0.10376639 -0.08544301 -0.14404623 -0.13114025 -0.023173751 -0.08341339 0.041688915 -0.09633433 -0.087619916 0.01223578 -0.048336077 -0.0076130624 0.00899013 0.039602805 -0.14863649 0.11172334 -0.11201974 0.11742477 0.05189643 -0.067389406 -0.15955374 0.07349755 0.09763967 0.01269985 -0.037788365 -0.14062098 -0.062408242 -0.08366492 0.119488925 -0.010265551 0.042740945 -0.1307521 0.035979584
47 0.05883214 -0.10415037 0.19653013 0.11314039 0.18719032 -0.19501372 -0.16547966 0.22943442 -0.103033006 0.14779693 0.28651386 -0.20262714 0.015558258 0.0033378478 -0.1348773 -0.14773841 -0.032375053 0.090905406 -0.21955402 0.18390119 0.3532107 0.09021381 0.018765701 -0.13373007 -0.05639196 0.021703955 -0.36780152 0.03906518 0.041033875 0.0339197 -0.32448998 0.19771485 -0.016771752 0.033058148 0.23819937 0.09790713 0.30018142 -0.053258866 0.14614876 0.15993711 -0.111584306 0.0014614476 0.14747067 -0.020601979 -0.1257942 -0.016003318 -0.2001686 -0.010025257 -0.090913974 0.09885891 0.10107331 0.29653034 0.14537644 0.0671774 0.08768345 0.08924808 0.15643464 -0.039983135 -0.051791154 0.14630878 0.04298881 -0.19769166 0.09002182 -0.10619685 0.19940221 -0.12705098 0.19212388 0.15607707 -0.08735909 0.14881043 0.030298118 -0.027415188 -0.17621207 -0.047522426 0.063444845 -0.38328376 -0.118300244 -0.11997536 0.13724563 0.33409792 -0.077286534 -0.1864193 0.038584225 0.2695998 0.117384985 0.12840317 0.2605557 0.14244637 0.040211007 0.1530066 0.098050475 0.04101263 -0.011507482 0.08924387 0.20408046 -0.0020061966 -0.4565266 -0.42752594 -0.26112324 -0.07290512 -0.3371558 0.007303724 -0.11042275 0.05755124 0.09812364 -0.01691947 0.08280699 -0.2978938 0.043344643 0.0030649963 -0.025999293 -0.13293669 0.057500686 0.0058254376 -0.17587197 0.05803516 -0.029302223 0.32274583 0.076640375 0.027883943 0.013670246 -0.06389286 0.020713849 0.06697681 -0.07059095 -0.05165739 -0.006942622 0.24655512
40 0.043435924 -0.198329 0.13045444 0.07921978 0.12753658 -0.09374956 -0.09826973 0.07922592 -0.032429192 0.02652799 0.07391939 -0.11725516 -0.047254972 -0.043942325 0.012074177 -0.086591296 -0.027479637 0.1387171 -0.19055709 0.06837244 0.29105005 0.1271574 0.0796261 -0.045836978 -0.008658123 0.12100384 -0.1822694 0.109030694 0.100815624 0.02167152 -0.27197453 0.08375591 0.01782146 -0.019513855 -0.014087502 -0.031329274 0.2375198 0.020855134 0.19842847 0.12866601 -0.17375055 -0.024462154 0.052809518 -0.07838255 -0.015045499 0.106397584 -0.04417846 -0.13155927 -0.06547649 0.01123506 -0.05927827 0.17896973 0.21285501 0.14022404 0.07062979 0.10777238 0.17687522 -0.18168254 -0.008066464 0.07300926 0.21338937 -0.13625991 0.112192966 -0.015860802 0.06337366 -0.06653837 0.09565899 0.11620312 -0.034098454 0.008485852 0.041857466 0.033238024 -0.18341099 -0.031903677 0.00012315437 -0.25239733 -0.15400013 0.19134587 0.03849822 0.16204828 -0.04288472 -0.10739814 0.104265906 0.24127473 0.07686017 0.08701672 0.25138927 -0.008478691 0.15498716 0.12487308 0.04884783 -0.026159436 -0.106788725 0.032066483 0.20817037 -0.039798167 -0.29824895 -0.35765183 -0.20095302 -0.07187351 -0.19996141 0.091395155 -0.024488958 0.029078174 0.0067808614 -0.00042133196 -0.025366306 -0.21173058 0.0178895 -0.035311066 0.036355246 -0.07926419 0.061941016 0.06462511 -0.014044915 -0.06501214 -0.011943501 0.2113414 0.018987844 -0.041297592 -0.055446025 -0.09441 -0.0044938256 0.103588775 -0.087454244 -0.08658471 -0.12502691 0.14296079
34 0.10855179 -0.16419198 0.10354356 0.092796266 0.107470274 -0.19090216 -0.025871152 0.06005234 -0.05792772 -0.03127448 0.11370167 -0.11283088 -0.0559415 -0.03818159 0.07983841 0.04796277 0.05652615 0.03193535 -0.07658671 0.13690431 0.21570314 0.09658859 0.058723412 -0.06376611 -0.06023342 0.027155064 -0.21108422 0.049159084 0.10263142 -0.06350525 -0.21703397 0.07766898 0.06590612 0.027422527 0.017585753 -0.069144756 0.11884513 -0.007532481 0.082000256 0.077590704 -0.06606574 0.014083506 0.08118576 -0.04705841 0.02241904 0.047488306 -0.027822977 -0.07067236 -0.0383328 0.12340034 -0.0051982445 0.027286157 0.24288142 0.08754923 0.08424712 0.087195486 0.19502264 -0.06095701 -0.07806695 0.07772245 0.092119515 -0.0807536 0.08934841 -0.015939614 0.083953835 -0.12083343 0.11850616 0.09767815 0.019706564 0.0009461988 0.08504955 0.03464017 -0.13488919 -0.12455651 -0.024913888 -0.16542226 -0.1505702 0.040085047 -0.12510923 0.18631706 -0.03819835 -0.15632929 0.040547624 0.2718697 0.14204569 0.09812791 0.16926838 0.02537862 0.13325456 0.16968623 -0.011912151 -0.17800474 -0.041786052 0.017885659 0.14374526 -0.0458096 -0.12297916 -0.17921396 -0.07693028 -0.052650638 -0.14312524 -0.028059447 -0.07077445 -0.033629496 0.03209887 -0.063999124 0.060047597 -0.008476263 0.040505506 -0.10813453 0.03691482 -0.0730674 0.07821629 -0.009449258 -0.15462312 -0.10239047 0.0835097 0.19419813 0.08688343 0.0023020008 -0.11378856 -0.09849131 -0.06508581 0.055047117 -0.03514422 -0.017693311 -0.08873948 0.078890726
68 0.06592102 -0.07868264 0.20785882 0.05024744 0.13499781 -0.23318867 -0.16845672 0.23591644 -0.04991779 0.110624366 0.2305563 -0.18355821 0.03838077 -0.031218436 -0.16038446 -0.2085694 -0.094141744 0.1363016 -0.17462243 0.13717288 0.40567777 0.081902884 -0.012302326 -0.14496677 -0.050225273 -0.02433968 -0.36020368 0.042158164 0.05641113 0.09946952 -0.29321045 0.20907687 -0.051021326 -0.009241462 0.29278976 0.085076995 0.24938193 -0.01117221 0.1259352 0.14082079 -0.096854724 0.08123557 0.121564485 0.010012754 -0.13900115 0.06691972 -0.14378199 -0.020886568 -0.07112581 0.04343934 0.09776443 0.28946507 0.060230862 0.05188677 0.1413402 0.06885478 0.16956297 -0.08132124 -0.05271906 0.03886812 0.07190919 -0.25248358 0.074574895 -0.15028869 0.17614038 -0.12739357 0.18606208 0.1703975 -0.027217437 0.1326099 -0.042445686 -0.093192615 -0.24732292 -0.008305841 -0.0003821657 -0.33439535 -0.09469014 -0.13821393 0.15371597 0.24308637 -0.08261675 -0.14593811 0.08676197 0.2829213 0.11504272 0.12806399 0.3073137 0.11689269 0.09988202 0.12007964 0.14712606 0.02326769 -0.059841644 0.11927854 0.17649816 -0.061645318 -0.4169032 -0.4565674 -0.25121132 -0.05010337 -0.38782087 0.114888385 -0.045882028 0.04450376 0.100086264 -0.004109675 0.08475204 -0.41163316 -0.022512926 -0.038310375 0.005973488 -0.12056851 0.0024264588 -0.019108834 -0.113979995 0.07965941 0.0023342937 0.3207143 0.054053586 0.0060647633 0.007853219 -0.026034756 0.015957028 0.07410565 -0.11063663 -0.057018936 -0.052179184 0.22553957
31 0.18854082 -0.20176686 0.0957 0.12080756 0.13305573 -0.19294763 0.019876622 0.045995984 -0.11617236 -0.079016514 0.16157396 -0.111668915 -0.09809673 -0.0262724 0.24549918 0.14395994 0.22828849 -0.07098949 -0.00070310116 0.16571552 0.16784929 0.13183855 0.112110384 -0.03244931 -0.11137708 0.09051579 -0.18332665 0.054056168 0.085605465 -0.13157624 -0.25667363 0.004153383 0.08599683 0.020425597 -0.056170065 -0.14878564 0.09562751 -0.0025676046 0.05394051 0.031051671 -0.0568156 -0.020000173 0.09309301 -0.041187376 0.083644554 -0.011105816 -0.031697873 -0.08911506 -0.007805413 0.19872917 -0.019602615 -0.02943592 0.38638 0.06397914 0.06257496 0.059860636 0.24457881 -0.011257213 -0.09814712 0.09940848 0.07651731 -0.035926886 0.071875855 0.006979308 0.09989221 -0.2030245 0.07596962 0.078573175 0.045247458 -0.08368846 0.18046731 0.06616602 -0.08796354 -0.20728989 -0.05705409 -0.118429355 -0.14981215 0.058084372 -0.24608047 0.21836169 0.015188871 -0.16370115 -0.004524374 0.32491407 0.14201723 0.06623936 0.16083436 -0.012942024 0.15394324 0.16065024 -0.07306177 -0.28573492 -0.00954929 0.00091827405 0.12841235 0.0011216698 -0.041821513 -0.110564984 0.023990283 -0.119426996 -0.07399413 -0.13965681 -0.07561346 -0.0046012695 0.027731152 -0.11483407 0.085840225 0.15338686 0.079729356 -0.14824174 0.023447268 -0.024852578 0.08746622 -0.0026928475 -0.21354423 -0.11752374 0.11731527 0.18636875 0.14649902 0.02270908 -0.1497269 -0.12644592 -0.08590734 0.018042801 -0.020728277 -0.025136877 -0.08483346 0.05374076
13 0.181559 -0.18327846 0.08769077 0.12018059 0.1436814 -0.17409565 0.015704421 0.046645653 -0.098598875 -0.06528234 0.15494889 -0.11941716 -0.095514975 -0.024095055 0.20589542 0.13330442 0.21431017 -0.073258065 0.005002531 0.16026542 0.18349142 0.12670414 0.097831994 -0.0057347477 -0.110994495 0.08531398 -0.18977444 0.052869815 0.09156827 -0.13159235 -0.23860352 0.01728921 0.11373567 0.02637882 -0.05362669 -0.1373307 0.092498876 -0.024949484 0.029617537 0.034479465 -0.061395027 -0.013488768 0.07632183 -0.07013221 0.07131177 -0.025312392 -0.03631287 -0.08591359 -0.031531952 0.18785852 -0.028085921 -0.03851198 0.36629125 0.07211712 0.057707362 0.054695237 0.20404561 -0.0051788897 -0.12427281 0.10048845 0.07042859 -0.018299995 0.087628484 0.019304074 0.109309815 -0.19211885 0.08641321 0.06421736 0.038027603 -0.055556946 0.16849795 0.08425145 -0.08287856 -0.19040777 -0.06459894 -0.109818846 -0.16129039 0.056710336 -0.24206652 0.21479766 -0.01602172 -0.15331678 -0.012912331 0.27053654 0.15426888 0.06298973 0.12627268 0.0035660416 0.12064841 0.16339768 -0.06395764 -0.26905257 0.0011682863 0.010870656 0.124887265 0.010499234 -0.034158852 -0.11211853 0.03796633 -0.10820467 -0.043848664 -0.14599417 -0.082358405 -0.016761642 0.01892652 -0.11852399 0.081644475 0.15904973 0.10137375 -0.13299708 0.006556537 -0.022945518 0.09405959 -0.0029249736 -0.19997104 -0.12156726 0.103240505 0.16829135 0.1339006 0.040572584 -0.14165996 -0.15273319 -0.09807478 0.007928206 -0.0017847228 -0.01902407 -0.07325591 0.04920388
53 0.056793176 -0.1859187 0.13175748 0.060837608 0.12399435 -0.13884276 -0.092458814 0.08586483 -0.015512342 0.0071046255 0.032031126 -0.11111003 -0.020823903 -0.06773868 -0.046076935 -0.076216176 -0.10338839 0.20240521 -0.16156384 0.09029775 0.34733343 0.07550668 0.047385637 -0.08263913 0.012189321 0.045636952 -0.22685955 0.14382166 0.154736 0.067207105 -0.24066187 0.12712839 0.014360058 -0.012845412 0.03704008 -0.04431236 0.16856672 0.03644701 0.18336202 0.13181862 -0.14193133 0.02790179 0.021890322 -0.07045415 0.008185555 0.14877021 -0.02660656 -0.12730704 -0.09319387 0.008232947 -0.04860467 0.12831363 0.13730116 0.124595575 0.09631697 0.09561988 0.18981765 -0.19329742 -0.04170897 0.026371919 0.17421882 -0.13271958 0.10887577 -0.02236522 0.02469016 -0.05931121 0.07997881 0.11853593 0.010761089 0.041825216 -0.017947119 0.026505435 -0.20224226 -0.0032036093 -0.031408887 -0.23733746 -0.14825973 0.17537439 0.04317642 0.13322899 -0.07391505 -0.11407479 0.12753816 0.21773687 0.14143705 0.09236688 0.22747459 -0.012705111 0.18050593 0.11472016 0.077881105 -0.06113351 -0.12086797 0.046759024 0.17570207 -0.106103 -0.23651317 -0.33615997 -0.21377301 -0.034882423 -0.19961533 0.14142662 -0.054735832 -0.025180893 -0.010820874 -0.0017054704 -0.060995255 -0.25091588 -0.027269857 -0.022378905 0.058201984 -0.12515819 0.0496376 0.03510616 -0.008368255 -0.07158093 0.028129812 0.20312603 0.015858665 -0.05697629 -0.062369544 -0.07027821 -0.011107814 0.10519933 -0.10840096 -0.05636572 -0.15472853 0.12580751
9 0.14908326 -0.33718947 -0.029896878 0.18700442 0.20393376 -0.047211275 -0.11618119 -0.021608416 0.033731014 0.047070973 -0.12312772 -0.23263586 -0.021917205 -0.027338043 -0.102566265 0.010554213 -0.0826554 0.35631555 -0.11529178 0.11489624 0.3139994 0.06848389 -0.018974472 0.07284126 0.05696093 -0.1962857 -0.24507996 0.11713319 0.35407415 -0.14722785 -0.11134535 0.19690949 0.25777364 0.17602187 -0.14206304 -0.05992627 0.2912629 -0.11316434 0.12115734 0.23138759 -0.21297511 -0.09320666 -0.04307616 -0.2912201 -0.079199806 0.046156608 -0.062035862 -0.093038805 -0.11142292 0.039123658 -0.14326137 -0.13502908 0.13080628 0.28368163 -0.068676405 0.303774 0.07629582 -0.25160623 -0.22765157 0.16193675 0.15129915 0.11262847 0.25276586 0.1581657 -0.0038529078 0.030525139 0.20119876 0.09383682 0.013492775 0.069909416 -0.06189454 0.27737382 -0.20111652 -0.0021798385 0.114817046 -0.22960171 -0.28019622 0.35588408 -0.1740573 0.062088706 -0.34468412 -0.097925484 0.120918095 -0.064162225 0.15961097 0.29984522 -0.0039389343 -0.0009607447 -0.0079486715 0.30475414 0.08017597 -0.18815003 -0.032914817 0.099191144 0.21428815 -0.14142866 -0.07035067 -0.19948307 -0.056112878 0.1094395 0.061024368 0.029635774 -0.3141484 -0.2138959 -0.115337156 0.04510192 -0.12066065 0.090680175 0.074301764 0.0465424 0.00071828713 -0.18384595 0.16611904 0.089791864 0.039041612 -0.283032 0.096547924 0.0890934 -0.0410061 0.020604491 -0.007444687 -0.24784271 -0.16705847 0.04741398 0.13303146 0.14257655 -0.13127053 0.10679688
46 0.08938092 -0.23968525 0.07931874 0.10709446 0.086513884 -0.1666362 -0.016905945 0.018068876 -0.0019455304 -0.08627329 0.014670077 -0.11062088 -0.071302384 -0.05993783 0.08888806 0.047958497 -0.016945126 0.13008459 -0.10432486 0.112148345 0.24710146 0.12864892 0.052817024 -0.051937558 -0.015192441 -0.011997798 -0.18834521 0.10294845 0.1940581 -0.07199472 -0.20001955 0.08975785 0.08722167 0.040307924 -0.036052078 -0.07132098 0.13899177 0.0008904267 0.1386879 0.11614784 -0.115597256 0.023229396 0.054109626 -0.09962376 0.036185894 0.11150488 0.035386544 -0.11103887 -0.041330643 0.09109552 -0.036564283 -0.02288847 0.20212418 0.14209276 0.06467562 0.11832624 0.1986082 -0.1549944 -0.078899354 0.05408395 0.15611313 -0.06890935 0.11988523 0.015197896 0.03219599 -0.049936164 0.09264329 0.10507393 0.022163527 -0.0035361254 0.02237014 0.060513165 -0.18926592 -0.07101386 -8.638849e-05 -0.15965198 -0.17897843 0.16730647 -0.15447554 0.11820177 -0.06227529 -0.14523967 0.09915089 0.22197764 0.1588025 0.12648927 0.15440159 -0.04022123 0.15144433 0.20136942 0.0019616624 -0.19932894 -0.092814796 -0.0074019604 0.17226554 -0.09493855 -0.10414556 -0.1784641 -0.11901439 -0.01619382 -0.09639837 0.042314157 -0.09380026 -0.09196586 -0.01318346 -0.042340975 -0.030298328 -0.008389501 0.037933286 -0.11797897 0.09122235 -0.121394545 0.09898623 0.044509023 -0.05959104 -0.1474967 0.08658575 0.13736656 0.026741795 -0.020428624 -0.12442131 -0.0817627 -0.07974832 0.08647312 -0.019872291 -0.002330881 -0.14206916 0.049636036
57 0.089869976 -0.11759054 0.13403757 0.056366164 0.112085186 -0.18193626 -0.06301713 0.12872021 -0.05810302 0.018030504 0.11929678 -0.13040923 -0.017005015 -0.043460697 -0.012066837 -0.029761812 -0.022658935 0.09092161 -0.078651585 0.12984617 0.2809765 0.069014676 0.029089175 -0.09793147 -0.049144126 -0.0013825967 -0.24242923 0.07757873 0.10298456 0.016928477 -0.21482086 0.10516277 0.010433623 0.011468704 0.09902445 -0.030777713 0.1344645 0.0036727232 0.10167121 0.09296488 -0.065674774 0.03863658 0.07392903 -0.02557684 -0.009623595 0.0715751 -0.049503896 -0.059183385 -0.074133374 0.0802529 0.026923865 0.089245014 0.15722375 0.060602833 0.11049685 0.06748128 0.18175189 -0.069304705 -0.06738987 0.03234578 0.066996835 -0.12248429 0.07942033 -0.05837467 0.09605458 -0.12855238 0.113239825 0.11678162 0.015907563 0.048698574 0.012028792 -0.0017765217 -0.16034189 -0.058248475 -0.04231797 -0.20922363 -0.11869655 -0.0041407635 -0.011662161 0.18784973 -0.06002265 -0.13175502 0.06274825 0.24575362 0.15548168 0.09540326 0.19873196 0.028387032 0.12711467 0.11457285 0.05526488 -0.10913309 -0.06551297 0.063376576 0.12833825 -0.065944746 -0.19548307 -0.25444686 -0.1433106 -0.039074767 -0.20023525 0.04382687 -0.07376033 -0.031352557 0.037746023 -0.03506168 0.030076295 -0.14895162 -0.005480843 -0.06975161 0.040197603 -0.11232056 0.033951234 -0.0029945765 -0.10816431 -0.029485222 0.05771438 0.21688583 0.07646329 -0.0036336775 -0.071145646 -0.05524709 -0.026639303 0.055168096 -0.064099506 -0.025591826 -0.08892983 0.12072083
51 0.12336294 -0.16099004 0.11812262 0.09057278 0.13603324 -0.16705693 -0.013084312 0.06988568 -0.08982286 -0.019621838 0.14651912 -0.10692851 -0.07015196 -0.040052865 0.13367714 0.036031704 0.1395985 -0.013295914 -0.054873753 0.13387987 0.2225014 0.10939522 0.07848094 -0.033964016 -0.07722055 0.103876024 -0.19403636 0.066275045 0.078114785 -0.059759118 -0.25498417 0.042603195 0.04366019 -0.007542576 -0.0060346355 -0.10083827 0.11268155 -0.00052647246 0.089015394 0.051237617 -0.08096577 -0.006170616 0.07835699 -0.040148947 0.040303223 0.008943015 -0.043917716 -0.08383571 -0.03631494 0.12195775 -0.009863602 0.049061965 0.29876515 0.07390448 0.08139434 0.050312623 0.19126341 -0.04092804 -0.07127732 0.0746598 0.10684362 -0.070285864 0.08758857 -0.015996434 0.10467815 -0.17747363 0.08257203 0.0926891 0.02179623 -0.02744973 0.11339268 0.04955135 -0.11051137 -0.13409357 -0.064339936 -0.16331308 -0.13854189 0.055901516 -0.12248699 0.20859101 -0.012670696 -0.14155953 0.02556665 0.29101202 0.13631244 0.052733622 0.19899993 -0.00364394 0.14913042 0.13460602 -0.018081874 -0.18164772 -0.04069706 0.018350558 0.13595279 0.00024355258 -0.12921752 -0.18587221 -0.04855266 -0.10639877 -0.115350954 -0.07485062 -0.03871773 0.020057121 0.016246751 -0.0742691 0.049425423 0.0011494288 0.04968734 -0.0999317 0.020060204 -0.033636265 0.06943998 0.012747397 -0.1609964 -0.08380634 0.07872166 0.1968616 0.11683917 0.016901957 -0.116049536 -0.11424396 -0.046294693 0.023797395 -0.047374602 -0.06130761 -0.082564235 0.07233415
1 0.16252463 -0.33847088 -0.04377975 0.18512611 0.19040799 -0.06686703 -0.07436591 -0.044562954 0.011508317 0.009957204 -0.1264812 -0.20903428 -0.038055412 -0.035219178 -0.03796807 0.07246167 -0.04413919 0.3069377 -0.08142345 0.13361853 0.27682418 0.05876358 -0.007320801 0.062013093 0.034399644 -0.1877511 -0.23326713 0.108770765 0.35412475 -0.15387098 -0.09404614 0.17762505 0.25747904 0.16429055 -0.15671927 -0.096431226 0.22042513 -0.097624734 0.089346185 0.20614426 -0.19139133 -0.077626325 -0.033074025 -0.26522893 -0.039366882 0.048090428 -0.029910922 -0.09057027 -0.09358044 0.06300692 -0.13820356 -0.19205292 0.15662058 0.26383322 -0.044258434 0.27411973 0.09602802 -0.22113192 -0.23734953 0.15822552 0.12603755 0.13314013 0.2264511 0.15496182 -0.0034002066 0.007089219 0.17321636 0.07550194 0.03825158 0.052196216 -0.031963598 0.2687548 -0.17084983 -0.03730306 0.0913757 -0.18274415 -0.28829896 0.33986437 -0.23103648 0.066490866 -0.31315002 -0.09541145 0.10728951 -0.032340184 0.17508423 0.2830066 -0.031204911 -0.0077709863 0.00777762 0.2912924 0.057015024 -0.22846836 -0.013106438 0.08798227 0.19293275 -0.14161439 0.0008007474 -0.13335247 -0.014231142 0.09226324 0.08205383 0.009986555 -0.32134017 -0.227703 -0.12185348 0.02933024 -0.117922984 0.16736163 0.0872728 0.015349194 0.017050138 -0.17914543 0.16257013 0.08309291 0.005291203 -0.29338005 0.1278615 0.070635304 -0.02050005 0.029894186 -0.029747512 -0.23218633 -0.18614994 0.04230552 0.12534064 0.14799435 -0.12538184 0.06746657
15 0.12231984 -0.21694966 0.07398544 0.11616363 0.11496265 -0.17427082 0.014323721 -0.010369014 -0.035532556 -0.084096484 0.07307775 -0.1018387 -0.07971519 -0.042476617 0.15246557 0.11363209 0.069704145 0.033168163 -0.06246344 0.12288442 0.17240395 0.12831977 0.06811231 -0.035897456 -0.048331402 0.0039334223 -0.1733891 0.058858514 0.1498088 -0.11784228 -0.20326886 0.06624264 0.11553776 0.042251848 -0.06018959 -0.11451607 0.1146561 -0.014804567 0.07644654 0.081447735 -0.07507443 -0.012716936 0.073155835 -0.079986416 0.051302493 0.047925748 0.010155697 -0.082277976 -0.013245699 0.14979249 -0.04199007 -0.049540598 0.2557504 0.101951316 0.029733766 0.11907284 0.21124303 -0.08642506 -0.09910561 0.099911526 0.10008495 -0.03315399 0.09443071 0.015343086 0.053801257 -0.08563535 0.08060984 0.08809578 0.01970772 -0.033924293 0.10699139 0.05879506 -0.13750653 -0.15867868 -0.0067925965 -0.12396953 -0.18500374 0.1283107 -0.22760563 0.14552249 -0.040987328 -0.14189127 0.04606199 0.23897839 0.1276286 0.12637086 0.117004134 -0.0030656436 0.12159083 0.21495706 -0.055833492 -0.240492 -0.034073815 -0.021818543 0.14897002 -0.054210883 -0.016748557 -0.10883735 -0.030515475 -0.047218658 -0.05311552 -0.036994636 -0.12172413 -0.07172563 0.014951972 -0.06565453 0.03561682 0.10819586 0.06354959 -0.12464903 0.06433905 -0.06655888 0.11108444 0.010215672 -0.1300581 -0.16829064 0.096015505 0.13133372 0.07710071 -0.012127762 -0.1413188 -0.11493478 -0.10698807 0.061172165 0.008144437 0.034356758 -0.12221248 0.039660573
7 0.15273307 -0.31437993 -0.020803154 0.15968911 0.16966692 -0.108927995 -0.05673122 -0.0455807 0.015195631 -0.023542339 -0.10325119 -0.18107262 -0.049492404 -0.06467659 -0.024689907 0.07890199 -0.08137571 0.29180977 -0.07664714 0.11956138 0.27017042 0.08073954 0.005511041 0.029674308 0.030637687 -0.18087761 -0.23227006 0.11408718 0.34328824 -0.13955545 -0.10523149 0.16383557 0.23098882 0.15330954 -0.13672154 -0.0918497 0.19563985 -0.06535895 0.098206334 0.19548419 -0.16662134 -0.04199991 -0.018077487 -0.2390461 -0.026377825 0.07353645 -0.010718282 -0.09435638 -0.0738894 0.06313674 -0.122211255 -0.1694592 0.1327731 0.23529992 -0.024854746 0.26019463 0.1193027 -0.21632949 -0.21098037 0.11726696 0.1261452 0.08368952 0.20786266 0.120030575 -0.017497532 0.01752394 0.16261439 0.08156094 0.051732972 0.037034817 -0.023176882 0.21928914 -0.19415037 -0.055354875 0.06793366 -0.1702465 -0.260482 0.31708145 -0.21457095 0.06287815 -0.25534675 -0.10354019 0.11966365 0.014905343 0.16592708 0.25212097 -0.0087523125 -0.01659663 0.035477936 0.2917896 0.03862235 -0.23618387 -0.037963167 0.063729346 0.19119634 -0.16046156 0.00999375 -0.1333059 -0.039781038 0.07954647 0.05072576 0.029675517 -0.28266105 -0.21762829 -0.09680553 0.024297398 -0.093945764 0.12790483 0.062150232 -0.015550063 0.045331135 -0.16566536 0.15606938 0.058012646 -0.0010601247 -0.29072005 0.12950511 0.06447088 -0.013842711 0.0097881425 -0.068281025 -0.2041403 -0.16810273 0.068078965 0.099401906 0.13027318 -0.15172002 0.052400555
