77 16
11 -0.3091173 -0.006836717 0.4480513 0.24997221 -0.20636095 0.4009946 0.75116 -0.044494245 -0.13137724 0.043981757 -0.020390308 -0.110026844 -0.29770637 -0.17235687 -0.09049314 -0.21364169
56 -0.23647022 0.1879899 0.3769714 0.25396466 0.0010294358 0.10896249 0.8519472 -0.16213477 -0.1051891 0.20690556 0.119379684 -0.13649234 0.08333301 -0.27649897 -0.5976154 0.16495855
59 -0.13895506 0.21393351 0.44175866 0.25754836 -0.2548866 0.16847739 0.75735885 -0.3326681 -0.12165366 0.23800044 -0.22927785 -0.026519883 0.1790394 -0.44085282 -0.640095 -0.049216785
63 -0.22017136 0.399341 0.27684477 0.31944412 -0.38238958 0.15886459 0.7578633 -0.34377608 -0.15469684 0.31167904 -0.18189491 -0.09957619 0.25854918 -0.37256435 -0.52088475 0.05028606
27 -0.4234217 0.05373291 0.337442 0.33966243 -0.02888025 0.19398838 0.7902921 0.023687422 -0.08363086 0.012662016 0.19679555 -0.17288686 -0.090208314 -0.14288189 -0.18373908 -0.03106628
60 -0.261456 0.45495588 0.33298454 0.30258393 -0.45793578 0.13298705 0.71362334 -0.27950126 -0.17173266 0.42125434 -0.14420931 -0.12223317 0.34825206 -0.31867188 -0.57252955 0.29866368
26 -0.3282607 0.26025945 0.18147191 0.6250513 -0.03783148 0.21480228 0.8893455 -0.052871253 0.2860505 -0.14616 0.11687903 -0.09398637 -0.48208094 -0.28473404 -0.04628602 -0.28051487
65 -0.22547956 0.3333657 0.33525255 0.31192744 -0.38308236 0.2275505 0.6770502 -0.4129085 -0.13319856 0.3542311 -0.096604034 -0.1777686 0.22678308 -0.44761667 -0.73383516 0.062130645
49 -0.32656547 0.21373622 0.6498476 0.08146983 -0.28739327 0.011125483 0.8046885 0.0046077557 0.15392941 0.17159495 -0.15908092 0.2492257 0.4324724 -0.5318188 -0.8559491 -0.17103069
28 -0.2927443 0.041163404 0.31599474 0.24008107 -0.14805387 0.26808634 0.76810783 -0.13177423 0.026417801 0.18824281 -0.029940031 -0.05845438 -0.18825795 -0.29495987 -0.18320593 -0.23183423
24 -0.88652897 -0.2806274 0.58032346 -0.013585762 -0.019388165 0.4908644 0.7147824 -0.06716793 -0.29699543 0.10940982 -0.16973338 -0.09087221 0.039457344 -0.06669795 0.38954827 -0.08576508
2 -0.5841989 0.16670533 -0.24957141 0.29479018 -0.20726801 0.642748 0.71128875 -0.01769751 -0.2128936 0.7360781 0.12614207 -1.1817474 -0.70510584 -0.37170428 0.104783915 0.21056518
66 -0.103494406 0.38644287 0.42241827 0.3923822 -0.32981017 0.1537767 0.8773716 -0.26677606 -0.10004987 0.29468954 -0.14489359 -0.058747288 0.29253203 -0.37823275 -0.855515 0.17082445
25 -0.43409982 0.17355987 0.5171667 0.31451404 0.050698966 0.14682321 0.911656 -0.13885468 -0.02221506 -0.0081694685 -0.015560421 0.06621458 -0.0017538774 -0.13648799 -0.26925945 -0.08742224
64 -0.05083591 0.3978176 0.40001562 0.33726427 -0.46135956 0.14783262 0.8256956 -0.33134338 -0.0274508 0.22973877 -0.2567761 0.00049596 0.21390806 -0.45026165 -0.8361633 -0.00200875
62 -0.13487716 0.57605946 0.32610083 0.39577785 -0.44495657 0.17616922 0.789674 -0.33826885 -0.18715966 0.286001 -0.22154497 -0.03159722 0.29986665 -0.4197231 -0.78955466 0.18191262
50 -0.33408946 0.12505549 0.5473655 0.38930055 0.22042143 -0.014895476 1.1174769 0.0865329 -0.01209978 -0.026196253 0.35878083 0.005207276 0.037682347 -0.020251479 -0.40963718 0.17361291
70 -0.36790204 0.3485589 0.25672927 0.50235623 -0.048076183 0.23765515 0.8607119 -0.057355482 0.29190254 -0.17894132 -0.18384695 0.013350355 -0.31220433 -0.32694054 -0.07461847 -0.4182214
69 -0.29880434 0.3711784 0.33134687 0.5617058 -0.14076325 0.20295218 0.9356259 -0.09273992 0.32095838 -0.17394878 -0.06427713 0.060791418 -0.37826958 -0.19629283 -0.039093036 -0.3959628
52 -0.31614885 -0.014988776 0.5507245 0.35327274 0.29220882 -0.029972186 1.0100673 0.16938534 -0.02635289 0.09040155 0.48108432 -0.23111995 0.09774249 -0.16981539 -0.5653113 0.32578224
42 -0.30686826 0.3359762 0.29023975 0.53181416 -0.13225867 0.26451433 0.8443744 -0.034937017 0.17213175 -0.11832877 -0.063531525 -0.046579216 -0.38184828 -0.1966703 -0.018479459 -0.121162266
4 -0.62216526 0.1627177 -0.20920575 0.33385345 -0.17918342 0.5940482 0.6760189 -0.058672834 -0.34386316 0.77165926 0.06298806 -0.9935205 -0.3993979 -0.2927936 0.25172564 0.33222172
21 -0.95085925 -0.58866656 1.0321486 -0.079536326 -0.15369128 0.50272727 0.85900545 -0.20930944 -0.37748548 0.059882462 -0.17707232 0.22022465 0.40046874 -0.22963707 0.23645763 -0.19570929
18 -0.9423952 -0.4717536 0.99382615 -0.07300291 -0.10764687 0.50625634 0.7579924 -0.1206941 -0.42440918 0.1402384 -0.21199073 0.08252296 0.2831193 -0.13785121 0.27301827 -0.09846422
71 -0.3068201 0.3268479 0.35914677 0.5402292 -0.16286853 0.12391026 0.8408324 -0.15041658 0.22922744 -0.10533664 -0.04349596 0.01781914 -0.25071597 -0.3324709 -0.1526493 -0.3289209
3 -0.69903576 0.11516808 -0.22793907 0.2858632 -0.0881618 0.6713504 0.7005658 0.028877463 -0.331977 0.72785467 0.016474947 -0.9746066 -0.7616011 -0.25683156 0.27984035 0.109748
22 -0.9747599 -0.4338388 0.9666065 -0.14662233 -0.15465422 0.48486552 0.72135246 -0.13066643 -0.5188784 0.16570428 -0.2597528 0.06328378 0.27045256 -0.13108605 0.46455932 -0.090197325
23 -1.0091412 -0.4689201 1.0001974 -0.07411502 -0.08701173 0.5803872 0.7670607 -0.069382735 -0.46012735 0.046700526 -0.23792031 0.06276233 0.25546965 -0.15459237 0.4283129 -0.0741561
20 -0.99195325 -0.49299386 1.0940943 -0.05686124 -0.035019863 0.52934784 0.8112511 -0.11315672 -0.49878407 0.019166302 -0.25867683 0.043040413 0.34077016 -0.17031069 0.38184625 -0.10593301
19 -0.9881501 -0.5459182 1.0862845 0.014185471 -0.18086867 0.57711494 0.81349105 -0.13562962 -0.4108537 0.12612356 -0.1733361 0.15732826 0.19555776 -0.14692949 0.36486 -0.31233382
17 -1.0915872 -0.65529764 1.057567 -0.058853336 -0.050687294 0.44865412 0.92834103 -0.11824434 -0.4637853 0.0052959863 -0.08257528 0.074616626 0.20437877 -0.14973332 0.50388813 -0.28123254
58 0.04928965 0.539432 0.19772252 0.5112662 -0.35031617 0.27844653 0.82883126 -0.37915272 -0.123172715 0.14992598 -0.052980598 -0.07367872 -0.12189612 -0.43885553 -0.64206284 0.034559637
35 -0.1762721 -0.5393281 0.24084656 0.04999424 -0.27304944 0.30436417 0.7228878 -0.13055569 0.055927936 0.38350466 0.010334035 -0.14834781 -0.57178104 -0.655129 -0.4410348 -0.75177366
61 -0.1117014 0.50512165 0.31227446 0.277232 -0.41106287 0.12525322 0.7494802 -0.2039867 -0.07017394 0.3715882 -0.086556196 -0.16743836 0.2717015 -0.44194674 -0.8216621 0.1618078
36 -0.3552977 -0.5882765 0.16020475 0.1665295 -0.18396825 0.38696867 0.61394536 -0.23936607 0.13414262 0.48425436 -0.09657616 -0.27809712 -0.5682008 -0.660008 -0.15575062 -0.79228365
29 -0.002287156 0.0558077 0.46298188 0.12072542 0.038358305 0.71239257 0.8745486 0.29239672 -0.27019036 0.013899988 -0.1491061 -0.2987523 -0.51256907 -0.03878025 -0.1199651 0.06768463
76 -0.3665542 0.44084063 0.23581222 0.56005025 -0.09541004 0.058014654 0.89101374 -0.13087954 0.25865197 -0.147242 -0.08399004 0.08317365 -0.23898166 -0.26799506 -0.17335695 -0.26292413
67 -0.18110035 0.37896955 0.4011109 0.3817597 -0.28046006 0.03317955 0.8236997 -0.22979705 0.01487137 0.2504505 -0.064650245 -0.09425066 0.14214596 -0.34871688 -0.7075005 0.14896777
39 -0.28152588 -0.55039185 0.26935735 0.16072646 -0.27488562 0.38869473 0.66296387 -0.24686207 0.19645195 0.41806015 -0.018968124 -0.2351416 -0.5571169 -0.68557566 -0.21235982 -0.7989955
38 -0.17564087 -0.5370475 0.25206771 0.10252431 -0.32468998 0.2744168 0.6990043 -0.15220572 0.22111447 0.37336496 -0.08048421 -0.10087828 -0.620847 -0.7184431 -0.3749361 -0.92085147
37 -0.2745405 -0.603318 0.35905272 0.0811821 -0.19102073 0.35844383 0.6688919 -0.21701545 0.11374913 0.3165111 0.040853344 -0.19298764 -0.5987486 -0.56213564 -0.26719114 -0.8251872
30 -0.31510988 -0.54470426 0.28432778 0.05167248 -0.24555196 0.27164742 0.66614026 -0.17983386 0.084798224 0.30060014 -0.07993189 -0.07248204 -0.4465485 -0.5548098 -0.23292461 -0.6399642
72 -0.36009714 0.54131687 0.19303234 0.47732815 -0.13448967 0.18580498 0.7903318 -0.016842041 0.2590667 -0.039182644 -0.110130794 -0.07656218 -0.22952677 -0.31282026 -0.11262999 -0.18473701
32 -0.7152473 -0.23147215 0.36041826 0.2339982 -0.110816576 0.4613195 0.7527533 0.009066967 0.11431862 0.07566422 -0.030369906 -0.117912926 -0.39085567 -0.2949147 0.24892825 -0.17116757
77 -0.14006667 0.378421 0.36678874 0.34084767 -0.37917995 0.13807586 0.79385436 -0.29604203 -0.07939042 0.28007632 -0.11218588 -0.111484885 0.22564144 -0.40610525 -0.7435236 0.06743027
75 -0.35092402 0.6334904 0.5310833 0.122908354 -0.40071094 0.04310416 0.87276787 0.29612106 0.22526848 0.2777857 -0.31821865 0.13505425 0.48159593 -0.6045449 -1.2413838 0.081415154
74 -0.42595184 0.53056407 0.3347223 0.091503076 -0.30678007 0.07139572 0.7996086 0.25893292 0.21734187 0.36137298 -0.35548663 -0.115684144 0.46139693 -0.55134636 -1.1507766 0.119739026
43 -0.3328218 0.1517903 0.24575369 0.49340287 -0.10201174 0.2604803 0.87855417 0.002881307 0.19078708 -0.091991045 -0.009740935 -0.053032536 -0.36019492 -0.17266242 -0.040436707 -0.17183425
55 -0.4452026 0.068987 0.38350296 0.3865131 0.24416657 0.050089765 0.90500444 0.14774844 0.06909631 0.09433989 0.3949422 -0.34463066 -0.16628958 -0.100574374 -0.31775805 0.22240883
44 -0.4643293 0.13984795 0.36582035 0.2835998 -0.031437762 0.28089732 0.68281364 0.04372907 -0.12214739 0.21577875 -0.071525 -0.20068927 -0.03995436 -0.2185929 -0.14843632 0.024117742
40 -0.3110937 0.34737664 0.32288837 0.65058804 0.284936 0.033902243 1.0707797 0.030892977 0.079391465 0.06398151 0.40851536 -0.33625904 -0.12234326 -0.17942218 -0.26134318 0.1819862
68 0.041172326 0.6276797 0.07291636 0.47716784 -0.35943225 0.24617173 0.9200335 -0.36310467 0.012792911 0.17273147 -0.12127401 -0.14355868 0.054408506 -0.48914677 -0.7585724 0.052613795
45 -0.043960508 0.07628241 0.49572298 0.15106568 0.0040226737 0.7655588 0.856648 0.24326989 -0.258993 0.038590215 -0.19990033 -0.33306292 -0.49517596 0.00876617 -0.072400995 0.06291556
73 -0.2786344 0.05097961 0.35445812 0.28656554 -0.05906226 0.17155373 0.8685342 -0.06419186 -0.010394012 0.116330884 0.09003963 -0.1545953 -0.19702585 -0.25576288 -0.30267918 -0.082243234
31 -0.83540297 -0.2694308 0.5013926 0.22017357 -0.13808247 0.45694968 0.64143246 0.069562204 0.020382572 0.13434407 -0.06099164 -0.13568197 -0.23740458 -0.25062647 0.052896313 -0.13943258
53 -0.31638846 0.11509782 0.4906599 0.550462 0.34249103 0.010556326 1.1229414 0.095424846 0.112323776 0.04245818 0.4445509 -0.27888775 -0.16413222 -0.1367802 -0.29993084 0.29411626
51 -0.50112885 0.12206978 0.67346054 0.30359295 0.039905548 0.10105977 0.96876395 0.123361945 -0.09100485 -0.10128739 0.17267478 -0.0074766083 0.022542352 -0.13820264 -0.22265127 0.08558092
47 -0.49278593 0.44056466 0.42918327 0.22603215 -0.40704864 -0.0050243326 0.88142383 0.02450826 0.007038711 0.3580889 -0.27097768 -0.062261946 0.5386912 -0.43074375 -0.81044656 0.23813179
13 -0.5810153 -0.27785975 0.65237594 0.042637847 -0.20349444 0.48178378 0.53626025 -0.11054338 -0.20663895 0.25583887 -0.17329141 -0.04612672 0.11701396 -0.2769545 -0.05503207 -0.1914325
9 -0.49088743 0.19959548 -0.25698552 0.35455927 -0.1414283 0.61411184 0.7010458 0.079174615 -0.2521674 0.8009955 0.09400927 -1.0630522 -0.62737495 -0.3393507 0.06805517 0.22929357
34 -0.36865386 0.108713195 0.35149476 0.26925573 -0.17440437 0.34748387 0.69831717 -0.14010139 -0.05852197 0.123687446 -0.072785884 -0.1678242 -0.32396474 -0.32017118 -0.059839334 -0.18386467
46 -0.12923779 0.12210248 0.4288472 0.2035936 -0.016238311 0.59045804 0.7860958 0.23644806 -0.20761764 0.05180341 -0.22062536 -0.3264958 -0.34913024 -0.053579353 -0.21648292 0.120371416
57 -0.2525741 0.090833105 0.42494917 0.2821124 -0.018047478 0.16112201 0.91461015 0.009195532 0.08733713 0.06325105 0.22694479 -0.19346982 -0.23188646 -0.26514676 -0.35510743 -0.031843834
1 -0.63430196 -0.034866996 -0.15689243 0.2643525 -0.07953647 0.59455407 0.6655242 0.08444493 -0.24592087 0.7595433 0.079382375 -1.0852469 -0.71926785 -0.33120206 0.300877 0.09961191
10 -0.6816837 0.11204436 -0.20971969 0.33212668 -0.028991962 0.6520085 0.7175878 0.0906027 -0.21575712 0.795766 0.19878624 -1.0723653 -0.7234242 -0.2987382 0.23003772 0.19251502
8 -0.60584384 0.11024987 -0.09535656 0.30407682 -0.19180185 0.46486104 0.60776454 0.018324321 -0.26744792 0.6015085 -0.022847028 -0.7803102 -0.4909866 -0.26924613 0.16302952 0.111358255
7 -0.50226146 0.0971997 -0.20829642 0.34901622 -0.1623294 0.54568243 0.6710038 0.04149828 -0.25974315 0.7208636 0.020003062 -0.99874073 -0.679836 -0.34374648 0.15795256 0.13657326
5 -0.6451465 0.012533288 -0.0929077 0.3328249 -0.0719302 0.5302813 0.62029564 0.08465513 -0.15286511 0.6586951 0.10595084 -0.7996471 -0.7379893 -0.2654321 0.26525 0.013751149
54 -0.3282678 0.12719941 0.49078688 0.3244571 0.051406246 0.17253141 0.8379664 0.049323197 0.052276425 0.0689022 0.20361696 -0.2301099 -0.0069866125 -0.14096582 -0.3132566 0.11282043
6 -0.6718874 -0.04031375 -0.15049659 0.25725576 -0.14402726 0.6341357 0.5985107 0.07641995 -0.3293169 0.6650703 0.04539668 -0.9907109 -0.65285885 -0.29815093 0.34185675 0.08689431
41 -0.38711724 0.17764811 0.36910504 0.3356314 -0.19336948 0.17414664 0.8248785 -0.008081712 0.09674704 0.053211056 -0.060464777 -0.11617726 -0.17218249 -0.27526823 -0.2405016 -0.11203144
48 -0.37506726 0.38585782 0.39375204 0.175576 -0.44241422 0.098819435 0.88158274 0.039437514 -0.017396796 0.2775932 -0.13988833 -0.0661984 0.33665943 -0.33883557 -0.7233736 0.09186178
33 -0.29758903 0.027236646 0.3078555 0.25187176 -0.12048273 0.3101199 0.74482554 -0.09216718 -0.0070580416 0.1736155 -0.026358617 -0.15183832 -0.2249278 -0.26160797 -0.17570579 -0.12885746
16 -0.3912956 0.022126991 0.25855225 0.2850719 -0.102847666 0.29778397 0.6941788 -0.02419021 -0.049176317 0.21476091 -0.035721086 -0.1926513 -0.20975654 -0.22299542 -0.20296273 -0.16932365
15 -0.28048214 0.02141141 0.23475915 0.22347839 -0.043551832 0.33042645 0.77904475 -0.07828956 -0.046014693 0.1690593 0.02727553 -0.20262524 -0.334025 -0.30200598 -0.20568995 -0.2247385
12 -0.4586596 0.0035581333 0.41215584 0.17002633 -0.047952008 0.3431792 0.7788567 0.04573617 -0.040281806 0.19233201 -0.046260063 -0.27777416 -0.18291727 -0.25945234 -0.21445726 -0.08392252
14 -0.3265593 0.026235256 0.32764512 0.26571718 -0.10131913 0.29779965 0.76000416 -0.008672724 0.00579514 0.1823523 -0.04991521 -0.15402177 -0.30393118 -0.23123671 -0.17368422 -0.15403272
