77 64
Valjean 0.05980353 -0.2186909 0.33677155 -0.107986 -0.08386646 0.060794357 -0.11574722 0.11830502 -0.32806113 0.017729485 -0.02431171 -0.24842538 -0.028682468 -0.05471288 0.13936636 -0.11526948 0.055802237 0.33331263 0.007613536 0.224558 0.4851265 -0.26170424 -0.43596894 -0.15639581 0.17965488 -0.37362242 0.1296909 0.15690501 0.11534935 0.0009191889 -0.07025393 -0.11179335 0.02316869 0.0268308 0.056746125 -0.14702517 0.06551982 0.13201684 0.00142345 0.032653116 -0.24491617 -0.16717757 -0.06793427 0.058697503 -0.028644225 0.3086467 -0.05345474 -0.034303356 0.034455303 -0.048897874 0.253366 0.1291196 0.12742014 -0.23454952 -0.092510074 -0.12983285 0.06544432 -0.21067396 -0.027209157 -0.023187164 0.14327028 0.14304215 0.034832366 0.15615542
Marius -0.03459808 -0.18749201 0.091562435 0.0066523096 -0.2002557 -0.079820916 -0.0285617 0.12114287 -0.043700505 -0.095780656 0.19215602 0.039279576 0.07362985 -0.20369461 0.042555653 -0.06347485 0.2525168 0.38912717 -0.1875923 0.27765727 0.36784953 -0.11503982 -0.29104316 -0.28142267 0.046436578 -0.3351692 -0.0025309534 0.16309652 0.08460964 0.04602716 -0.052562222 -0.015869217 0.11283956 -0.025371922 0.2803063 0.09322552 0.18419938 -0.15276307 0.061350726 -0.14477226 -0.057125956 -0.1477119 -0.107577816 0.08283585 0.08778168 0.20550366 0.0062813954 0.11966577 -0.13375002 -0.20158862 -0.019699024 -0.00035214948 0.03315298 -0.31421036 -0.46080643 -0.19729488 0.11206994 -0.1901617 -0.113937795 0.081445046 -0.13795035 0.043393146 0.16602516 -0.009556357
Enjolras -0.04980793 -0.22075154 0.098940045 -0.06717901 -0.11633552 -0.42116642 -0.06678596 0.20184882 -0.05115118 -0.15041703 0.07531928 -0.14456949 -0.12948608 -0.3307615 0.04039561 -0.17651999 0.23179911 0.3905801 0.061461866 0.15092888 0.34821498 -0.017219644 -0.036540754 -0.08338294 0.120701075 -0.31223845 -0.061749876 0.1042045 -0.16098271 0.05120017 -0.22660254 0.14670418 0.30421606 -0.097792335 0.113259465 0.011364061 -0.033255782 -0.12659872 -0.014792751 -0.14898647 -0.23711385 -0.23270002 -0.04073359 0.019562405 0.23455763 0.17767254 0.005647101 0.21822946 -0.20470494 -0.32038853 0.039500017 -0.2050057 0.28027394 -0.22637555 -0.28038177 -0.18475398 0.059507456 -0.2274719 -0.37108943 -0.08391768 -0.19991517 -0.0688413 0.1376754 0.031438317
Courfeyrac -0.06383305 -0.37589976 0.21146072 -0.07734767 -0.19255726 -0.47881532 -0.14832604 0.32097962 -0.053253014 -0.03284491 0.11748665 -0.09317416 -0.22776362 -0.38225502 0.15549402 -0.19269346 0.14309825 0.4630472 0.061758995 0.28044465 0.32634524 0.13647163 -0.019169029 -0.12528768 0.04946026 -0.27751473 -0.11335507 0.009176395 0.016337022 0.09153682 -0.15720999 -0.042117413 0.17755452 -0.05810683 0.31031525 0.048427716 0.018455686 -0.2510898 0.17076829 0.034927804 -0.31593356 -0.1910907 0.0990678 0.008780322 0.19125542 0.27662307 0.042266376 0.21072714 -0.13940616 -0.16293834 0.071807064 -0.18405035 0.18187913 -0.13219415 -0.20891331 -0.13570051 -0.015387746 -0.20219928 -0.28343815 -0.0287854 -0.054591455 -0.13594481 0.10211044 0.13101241
Cosette 0.05968045 -0.24628012 0.17267388 0.019841967 -0.026685743 -0.07446699 -0.09642498 0.056321736 -0.11315075 -0.11679971 -0.0961219 -0.26769996 0.1276119 -0.07193659 -0.16039006 -0.16595268 0.03682875 0.37084618 -0.16294208 0.15765604 0.38189492 -0.1700519 -0.30178553 -0.24015915 0.14066455 -0.29478124 0.07454452 0.1338601 0.007193272 0.19724031 -0.23315114 0.01843725 0.1862237 -0.10773211 0.20560262 -0.059291974 0.16680503 -0.014419272 0.054572873 0.049830355 -0.105480805 -0.23609352 0.0198032 0.0433543 -0.015557244 0.15415925 -0.08574541 -0.041188605 -0.08514202 -0.07853458 0.07204987 0.109086104 0.13817891 -0.35603073 -0.23392963 -0.1127315 0.21541578 -0.10422498 -0.11985836 0.02762772 -0.016892483 0.30411756 0.20800178 0.20375223
Thenardier 0.03184216 -0.14662898 0.28304994 0.26438868 -0.22345999 -0.0820797 -0.13003953 -0.09831038 -0.188488 0.04899673 -0.20641632 -0.042053793 -0.102437325 -0.042338498 0.1272339 0.15701671 0.20852692 0.31782857 0.17340595 0.18396989 0.19912332 -0.2199569 -0.22435084 -0.4597615 0.23389956 -0.45394188 0.14274995 0.18976414 -0.1720911 0.20439391 -0.03509662 -0.2553331 0.029848242 0.098052345 0.22553638 0.1839885 0.0676838 0.045285232 -0.18743384 -0.18200506 -0.18009508 -0.0059578256 -0.22834072 0.11699058 -0.028658919 0.19614433 0.021971835 0.1079515 -0.17097624 -0.24930437 -0.15182498 0.05318008 0.10801388 -0.34097815 -0.05135395 -0.23186772 0.2918087 -0.096636474 -0.14810386 0.19403723 -0.27784327 0.09533877 0.037522756 -0.17806298
Combeferre -0.16656175 -0.34927472 0.14485377 -0.07160961 -0.06661751 -0.46928748 -0.06476467 0.30418625 -0.17389405 -0.11856084 0.19513708 -0.09478452 -0.2073207 -0.32171822 0.09508818 -0.24422188 0.1733244 0.36274338 0.07277835 0.28774613 0.23898159 0.114379145 -0.029839383 -0.14504293 0.07385276 -0.34887558 -0.09329221 0.03129857 -0.0707784 0.0494771 -0.28512976 -0.05320342 0.2541023 -0.15227282 0.2826353 0.075672686 -0.0024670777 -0.16484311 0.05748199 -0.08106842 -0.20783807 -0.18152033 0.08766628 -0.005675412 0.15673357 0.12537958 -0.026518106 0.21616928 -0.12949835 -0.2703029 -0.059408125 -0.22145854 0.21291831 -0.16410272 -0.29304805 -0.22961397 0.06625437 -0.2575468 -0.37410462 0.024779392 -0.14696062 -0.02422842 0.10940789 0.08000277
Myriel 0.034791008 -0.34643054 0.5805893 0.2839744 -0.034297027 -0.1512605 -0.2061574 -0.24597754 -0.22690122 0.27798238 -0.2589915 -0.3595634 0.13402766 -0.35508165 0.19319414 -0.24071398 -0.34768885 0.28396374 -0.23599859 0.17783202 0.45626247 -0.24405862 -0.4057085 -0.15931214 0.27345788 -0.26882398 0.18429333 0.17874818 0.4794255 -0.07179057 0.14120843 -0.36706898 -0.14346886 0.13765775 -0.06649075 -0.08724251 0.47736034 -0.121174715 0.12313059 -0.05293165 -0.12466302 -0.01962399 0.10698363 0.33955073 0.30726844 0.76085186 -0.15216684 -0.036928248 -0.2525736 -0.29742366 0.12323846 0.25717008 -0.13179742 -0.3499861 0.16133906 0.17792702 0.019052243 -0.119204074 -0.29779264 0.024664326 -0.12579219 0.14415628 0.20070727 0.33765882
Bossuet -0.03731674 -0.29792178 0.121554896 0.029500201 0.0382591 -0.38401115 -0.0896009 0.29423216 -0.11155514 -0.06837064 0.10217595 0.006389767 -0.32655475 -0.4131644 0.12104992 -0.27422035 0.26239002 0.36464095 -0.01358024 0.219328 0.23844855 0.044089265 -0.0060382267 -0.071560904 -0.014234948 -0.3833842 -0.10193944 0.0019714783 -0.024327947 0.00023189337 -0.2132905 -0.007990794 0.24847777 -0.10309219 0.29135323 0.16255684 0.0017781578 -0.12420679 0.09517805 -0.03984118 -0.275873 -0.20202997 0.054925103 -0.057527043 0.21000537 0.25103712 -0.024725687 0.23160343 -0.21626495 -0.29024732 -0.03644699 -0.18427931 0.28550574 -0.18562758 -0.45353085 -0.24666993 0.019819207 -0.24209681 -0.29904717 -0.05708 -0.22881141 -0.004955251 0.07649305 0.026803778
Gavroche -0.10964867 -0.43676198 0.1390127 -0.15782309 -0.12794715 -0.49704078 -0.02007612 -0.021886948 -0.19409518 -0.007546984 -0.00014519744 -0.16571134 -0.36216766 -0.18804663 0.239007 -0.100661054 0.3696082 0.5682741 0.1736972 0.25603622 0.3568678 0.36825895 0.07559747 -0.18404944 0.13750443 -0.21345277 0.08497159 0.0347754 -0.0072918627 0.19975424 -0.44636738 -0.16923639 0.31300429 -0.010050925 0.23831055 0.045322157 0.040838625 -0.119820364 0.22914004 -0.14206526 -0.22862892 -0.19958264 -0.042757556 -0.0014574775 0.13221714 0.07788063 -0.016004577 0.21171741 -0.33825627 -0.21806726 -0.1868395 -0.22262436 0.06814917 -0.16317017 -0.16674879 -0.23672092 -0.05118641 -0.10056272 -0.29806527 0.06476664 -0.066430196 -0.11325627 0.083967246 0.071799286
Fantine 0.13755885 -0.12433161 0.6483324 -0.02551597 -0.13609707 -0.19355519 -0.08713673 -0.07851267 -0.27828148 -0.14528702 -0.24610849 -0.2862143 -0.26321757 0.08663766 -0.22583634 -0.17138608 0.10415049 0.43549606 -0.16499628 -0.026610207 0.21502967 -0.13151906 -0.28637585 -0.42543772 0.13338616 -0.2096018 -0.09577485 0.35948104 0.08857724 0.11931673 0.04461656 0.031568322 0.11719723 -0.020337088 0.20930284 -0.11761482 0.2225072 0.1276597 -0.21137793 -0.14058083 -0.17278408 -0.30727994 -0.08829566 0.39793757 -0.006931528 -0.024303809 0.007527615 -0.122272685 0.2345223 -0.056398373 0.22200985 -0.025052993 0.126755 -0.03648129 -0.38262078 -0.18492463 -0.09843521 0.06899744 -0.10640557 -0.30491492 0.107277155 0.136873 -0.10514174 -0.15904689
Javert 0.002843574 -0.14608635 0.3148186 0.015064898 0.042159803 -0.1283664 -0.08328395 0.15283988 -0.32238457 -0.038077082 0.016012693 -0.26685265 -0.23776251 -0.014419011 -0.020152079 -0.09271543 0.05547417 0.19080131 0.005727074 0.1548197 0.2610501 -0.12594065 -0.08427151 -0.32340577 0.04272373 -0.33732888 -0.0049521057 0.29168046 -0.093253076 0.26408598 -0.07242297 -0.026068319 0.1594193 -0.055604026 0.1842464 0.015449796 -0.012427845 0.05728016 -0.114609845 -0.15610681 -0.17278852 -0.122802615 -0.09783962 0.1807585 -0.03620334 0.16982067 0.00017381998 0.05441 -0.103986844 -0.07406626 0.07778643 0.047988918 0.15426031 -0.37146735 -0.18268338 -0.20346873 0.07854327 -0.14052318 -0.15297748 0.084038205 0.03895226 0.40047082 -0.09505978 0.015070893
MmeThenardier -0.050085343 -0.1648734 0.23346123 0.17297421 -0.17328973 -0.08809558 0.09303746 0.09044333 -0.28435546 -0.04932899 -0.2594852 -0.006379032 -0.012028361 -0.092888765 0.0022220623 -0.031201325 0.08365842 0.34217602 0.03293971 0.0879236 0.29743955 -0.24414968 -0.25669277 -0.46061617 0.1472287 -0.5149478 0.020475062 0.25303325 0.065712556 0.3573897 -0.15896994 -0.07398389 0.0018800604 0.009232688 0.16835818 0.06089203 0.036210377 0.058938 -0.102727674 -0.14439711 -0.20545132 -0.01844645 -0.24263674 0.24674365 0.11722368 0.042964246 0.104913 0.033405703 -0.04514634 -0.19769883 -0.08988128 0.15712649 -0.020706426 -0.23476604 -0.2134091 -0.047343403 0.29811546 -0.07616364 -0.011111643 0.18935212 0.07662595 0.01476027 -0.10203706 -0.048801824
Joly -0.0986431 -0.28019813 0.103704624 -0.051326055 0.008339029 -0.47250432 -0.082729034 0.36692333 -0.07675818 -0.10795401 0.18209626 -0.1289497 -0.2040708 -0.33935463 0.07388166 -0.28217423 0.2374957 0.42199856 0.09617569 0.31287092 0.2376525 0.12178496 -0.017978385 -0.080038115 -0.06205685 -0.3798188 -0.065520115 0.08118399 -0.09216298 0.122889765 -0.20807293 0.025531748 0.2665879 -0.07369035 0.34576046 0.10937832 -0.087174065 -0.21065183 0.020697152 -0.1359245 -0.2578536 -0.28174454 0.14436562 -0.00059908547 0.12046163 0.21568394 0.011548459 0.23089534 -0.19792466 -0.25746858 -0.041181836 -0.2803565 0.29877827 -0.22019243 -0.30909747 -0.22953443 0.01731186 -0.17027818 -0.3311499 0.030127814 -0.139491 0.08027097 0.04641099 0.07874072
Bahorel -0.08996717 -0.2947185 0.1616799 -0.15528284 -0.06830568 -0.30398288 -0.08719283 0.31547707 -0.1401545 -0.09213156 0.19411255 -0.01986688 -0.35837895 -0.41334677 0.08300513 -0.16662392 0.22698829 0.3659881 -0.09729551 0.20771958 0.28590444 0.12555791 0.1415245 -0.0334645 0.0053584552 -0.33671102 -0.13578787 0.11710883 -0.1252209 0.11322259 -0.1268608 0.04069215 0.2337512 -0.0982244 0.1798008 0.10726447 -0.07136987 -0.19704564 0.17436922 0.01221247 -0.29239425 -0.19368544 -0.034866855 0.027335612 0.25140208 0.28446922 0.12626307 0.2525211 -0.18576324 -0.23637532 -0.024191123 -0.14969084 0.202674 -0.24228194 -0.42551666 -0.23299308 -0.093409374 -0.2852278 -0.42415303 -0.0386812 -0.1972989 -0.058280848 0.12830722 0.13848904
Feuilly -0.086015105 -0.310461 0.17415912 -0.13879922 -0.18359922 -0.46201298 -0.09548017 0.24816373 -0.03808427 -0.10790624 0.17091298 -0.14758693 -0.22354783 -0.40144172 0.123243615 -0.12776905 0.21422397 0.48402178 0.007028795 0.22295943 0.2954751 0.14843771 0.102989584 -0.12108038 0.034910943 -0.3334527 -0.072108105 0.054992903 -0.09155926 0.08422209 -0.22389287 -0.020889727 0.2770868 -0.14083695 0.2217507 0.07713553 -0.04540613 -0.20017058 0.07106633 -0.1138417 -0.26039425 -0.2151989 0.14354959 -0.0630127 0.127676 0.07053743 0.05026868 0.22412103 -0.26580167 -0.23015095 -0.05673062 -0.28018895 0.22253433 -0.21824618 -0.3751763 -0.22730911 -0.0830241 -0.2612178 -0.42446136 0.09210659 -0.20086613 -0.07644204 0.09158419 0.11984319
Gillenormand 0.12311851 -0.29334405 -0.097685054 0.019633355 -0.253682 -0.14129943 0.14711937 0.028296402 0.05634946 -0.24667042 -0.2502267 0.037696645 0.32607728 -0.33791515 0.024147524 -0.0815042 0.21427491 0.60172284 -0.19493242 0.31394404 0.52849406 -0.261418 -0.3785172 -0.24991585 0.06369126 -0.43572652 -0.059908215 0.018417565 0.0583876 0.20493822 -0.21538034 0.13255307 0.08388265 0.17096588 0.35704714 -0.051569592 0.2005328 -0.19670938 0.006305807 -0.08858111 -0.07615779 -0.28081855 0.03846469 0.046786148 -0.035685644 -0.00014062467 -0.027127096 -0.11614039 0.032038458 -0.20450354 -0.04584063 -0.06596665 0.110780366 -0.392619 -0.43160865 0.010803644 0.22990921 -0.06935268 0.16807628 0.040327065 -0.0691484 0.038305216 0.28540555 0.18252872
MmeMagloire 0.09496289 -0.5277537 0.6190288 0.2058908 -0.041392915 -0.021071948 -0.2115405 -0.24082834 -0.13213168 0.30427688 -0.27812934 -0.36182496 0.012668233 -0.206484 0.10680083 -0.24562515 -0.14941493 0.16270451 -0.23768754 0.2188538 0.39049563 -0.3252537 -0.44510424 -0.13262422 0.09725924 -0.29346463 0.14806427 0.12663262 0.47712123 0.0157645 0.14371845 -0.24457176 -0.26770425 -0.09325399 -0.10380901 -0.117417894 0.35023168 -0.05785368 0.20605054 -0.05313564 -0.14240782 -0.01194563 -0.08737648 0.28654647 0.1905311 0.7408642 -0.039052308 -0.021214947 -0.23163304 -0.25670186 0.07987664 0.31946158 -0.0959107 -0.32729405 0.061365977 0.18012406 -0.09325568 -0.2437617 -0.44796216 0.19297746 -0.12375464 0.29704615 0.1865543 0.35725394
Babet -0.018635608 -0.17325181 0.36859083 -0.0504781 -0.3052735 -0.1302906 0.018915301 -0.0361807 -0.18200418 0.031134501 -0.15050852 -0.09044593 -0.08549733 0.062350564 -0.072914414 0.008523219 0.23672572 0.3369643 0.4356437 0.14237896 0.1434638 -0.032029416 -0.26859155 -0.6475975 0.04686727 -0.4610993 0.031004367 0.12054451 -0.18728624 0.2738071 0.08903764 -0.29047287 -0.038924888 0.11516673 0.141589 0.026972571 -0.05236798 -0.17954288 -0.030886926 -0.3254349 -0.22088586 0.036193207 -0.13346773 0.07147974 0.13185273 0.26811484 0.088787764 0.07347669 -0.080207385 -0.38247687 -0.21197996 0.17317237 0.14309123 -0.3341078 -0.006254774 -0.18099825 0.15874286 -0.044772547 -0.31017205 0.31497106 -0.16931865 0.17960562 -0.07893228 -0.31510657
Gueulemer -0.035024084 -0.006593936 0.16246092 0.00090287963 -0.18747662 -0.15344441 0.08842112 -0.044554796 -0.11330116 0.2013102 -0.23854673 -0.037459917 -0.12536222 -0.07324307 0.30048472 0.24527024 0.1329151 0.2979353 0.3169078 -0.027665187 0.2379891 -0.107739024 -0.1955999 -0.6229751 -0.008076288 -0.37987518 0.13128164 0.15909725 -0.0459209 0.40407604 0.089445174 -0.07721693 0.11811407 0.12364096 0.16149679 0.01769746 0.038484186 -0.13982502 0.00061259884 -0.31543478 -0.28009528 -0.014784769 -0.2739409 0.19558093 0.13580061 0.30913743 0.007906241 0.12721594 -0.19898875 -0.35933492 -0.30876228 0.07416764 0.13345435 -0.51911867 -0.27429363 -0.35626975 0.2537137 -0.09443297 -0.29243734 0.26077324 -0.16762495 0.12688501 -0.26579252 -0.15392949
Tholomyes 0.061535668 -0.2049426 0.69715923 -0.027565204 -0.1176063 -0.14090568 0.016164863 -0.2531227 -0.38852188 -0.3108226 -0.36952913 -0.07581261 -0.41409305 -0.034377415 -0.24837025 -0.21788883 0.17358519 0.40930864 -0.35013804 0.014734109 0.23888732 -0.14857736 0.010114746 -0.3878844 0.25491226 -0.23797439 -0.16736425 0.5160283 0.028659577 0.052483335 -0.033097673 -0.022682998 -0.014684425 0.21064948 0.14259718 0.013038346 0.4016247 0.18694714 -0.32557568 -0.32729834 -0.07979462 -0.27463678 -0.09014458 0.39306584 -0.13843308 -0.1818107 0.06912611 -0.17560503 0.20750692 -0.07254942 0.02821823 -0.09216882 0.09808064 -0.21012333 -0.5128799 -0.10405305 -0.42925113 0.04280228 -0.21452194 -0.29315472 0.12381381 0.10733582 0.035951246 0.0014513277
MlleBaptistine 0.103606515 -0.36207667 0.6321931 0.19017832 -0.056555692 -0.05716184 -0.28841367 -0.24699488 -0.20358092 0.35344335 -0.29174665 -0.32636142 0.075306766 -0.23644571 0.059057593 -0.12082383 -0.19613634 0.26039973 -0.15071675 -0.0509099 0.4657027 -0.3102635 -0.43984708 -0.0727366 0.3720599 -0.21316007 0.35026318 0.13645093 0.43846354 -0.052698452 0.068739414 -0.27948272 -0.010117782 0.12419639 -0.12700339 -0.10315795 0.5589655 -0.054820012 0.11005323 0.0029617248 -0.1876514 -0.10531972 -0.034734104 0.32383415 0.17328027 0.7374588 -0.1874905 0.021309106 -0.31010845 -0.14493267 0.072603114 0.33668417 -0.18241312 -0.29433304 0.06406211 0.061113983 0.046040908 -0.20622028 -0.4276356 -0.012465742 -0.12518881 0.19994482 0.21117419 0.3605704
MlleGillenormand -0.17999883 -0.35687652 -0.059888218 0.23262702 -0.42712516 0.07287577 -0.06445497 0.05753508 -0.06741468 -0.23433304 -0.10370438 0.115896985 0.27769324 -0.11498507 0.072663255 -0.027981265 0.057377726 0.3866411 -0.194667 0.3829397 0.40768355 -0.19415691 -0.43897432 -0.39935413 0.14707893 -0.2597234 -0.111541644 0.0024746314 -0.050121073 0.1312936 -0.2187123 0.07094469 0.07197265 0.08825898 0.4267094 0.05381838 0.3386829 -0.35541925 0.116707 0.1628126 -0.10204479 -0.26588795 -0.12284024 -0.0897431 -0.1326975 0.102702975 0.088896155 -0.12962672 0.15898645 -0.13283883 -0.006323598 0.16780007 0.16331676 -0.52995867 -0.5259199 -0.13472724 0.33913276 -0.3173853 -0.088089496 0.0661073 0.09789178 -0.025678173 0.3790721 0.23195994
Favourite 0.008927817 -0.2292133 0.8787898 -0.122204356 -0.110341355 -0.10485028 -0.08092865 -0.20370565 -0.53058225 -0.3685858 -0.25039068 -0.18931007 -0.39472732 0.081239626 -0.3789392 -0.19487604 0.008757203 0.34409457 -0.33204338 0.054751728 0.14410295 -0.18582335 -0.034060534 -0.48978215 0.22998203 -0.21811119 -0.12423797 0.5987058 0.017027443 -0.024039721 0.0031383412 -0.05671471 -0.008694335 0.10054191 0.06663735 0.071611665 0.353831 0.23335786 -0.3165404 -0.2835301 0.0189146 -0.26040426 -0.11353445 0.42738464 -0.08870125 -0.18225294 0.019241842 -0.14342615 0.22647053 0.0050248383 0.09570247 0.0052925753 0.04170485 -0.31915188 -0.5396259 -0.2140064 -0.24358112 0.05317776 -0.25903067 -0.26123658 0.26623675 0.18380684 -0.13348097 -0.0270211
Blacheville 0.056175537 -0.16992629 0.7524864 -0.17800502 -0.08451742 -0.1757386 -0.04277348 -0.1241976 -0.43696553 -0.22198498 -0.09477829 -0.20634831 -0.2851436 -0.07214892 -0.29583 -0.16603705 0.1054209 0.3720272 -0.4876588 0.15568241 0.24763168 -0.19125414 0.12458436 -0.49539274 0.22848408 -0.34962144 -0.21843368 0.7263523 0.1382584 0.017515283 0.22592247 0.063728504 0.02966002 0.19970743 0.058022022 0.04275511 0.3107883 0.26034963 -0.41270673 -0.32149082 0.024050515 -0.32104 -0.15395209 0.5661693 -0.16660818 -0.12898383 0.031023605 -0.056389287 0.3133242 -0.090289176 0.12799743 -0.20570241 0.07265421 -0.2770773 -0.4530849 -0.22697812 -0.276447 0.04816888 -0.1413278 -0.37477633 0.18250282 0.1597331 -0.09931907 0.10464564
Dahlia 0.13568415 -0.24851398 0.8952453 -0.1669047 -0.14368139 -0.12589753 -0.07488643 -0.09514567 -0.46952847 -0.22008179 -0.24315695 -0.23826997 -0.35358527 -0.065010555 -0.45446837 -0.2551152 0.14454558 0.4543154 -0.3463657 0.10666797 0.2876061 -0.27281553 0.079956196 -0.44625968 0.19831175 -0.31340706 -0.13167125 0.57729185 0.20579894 0.053205065 0.16234381 0.104507424 -0.008053 0.27063277 -0.05037021 0.04575404 0.26174107 0.27765745 -0.34700778 -0.3099733 -0.106114514 -0.351874 -0.13361607 0.49690115 -0.11577259 -0.080242716 0.029970549 -0.061794557 0.2332954 -0.06227715 0.063766696 -0.06651676 -0.020289136 -0.03702953 -0.4105579 -0.08833905 -0.21928212 0.11587717 -0.10696285 -0.42917046 0.20503265 0.16447826 -0.12579402 0.116666
Zephine 0.16913871 -0.18924777 0.8261157 -0.15295044 -0.07156373 -0.10850278 -0.0012856307 -0.13204385 -0.49190226 -0.28921962 -0.21291545 -0.17715693 -0.44204184 0.0037040235 -0.3156203 -0.20749475 0.06574772 0.38412774 -0.3630726 0.119738184 0.23963892 -0.14873753 0.081479415 -0.4959409 0.1782928 -0.29868352 -0.1751926 0.5812334 0.05950207 0.100003295 0.08546184 0.036033016 0.057224315 0.18229312 0.06152215 0.06640904 0.30114707 0.2479125 -0.3464024 -0.24979827 0.045523997 -0.2824055 -0.072234504 0.42651254 -0.10427136 -0.17759818 0.028616292 -0.16685976 0.24197805 -0.11696173 0.07369524 -0.03753355 0.028805468 -0.23283139 -0.5362382 -0.07921884 -0.20134762 0.06960955 -0.11431964 -0.3181772 0.14032315 0.23006931 -0.015899623 0.064762235
Eponine 0.097555965 -0.09415593 0.17727098 0.11098278 -0.19090576 -0.13826057 -0.009375863 0.14407963 -0.17176512 0.030923776 -0.2517376 -0.08843008 -0.14162691 -0.15652284 0.14783163 0.039184585 0.177783 0.46733633 0.24743998 0.062991865 0.3686315 -0.18428572 -0.052921325 -0.33667555 0.043707393 -0.65735453 0.1042414 0.113237604 -0.28348404 0.5277707 -0.12276622 0.036218528 0.18163577 0.02783034 0.16558868 0.1751282 -0.036554586 -0.0077554593 -0.1768346 -0.039496988 -0.2705086 -0.10673602 -0.25415778 -0.004224072 0.044004582 0.07152263 0.10060094 0.060507394 -0.21426915 -0.28843397 -0.21261685 0.10517324 0.08688235 -0.20650354 -0.1328215 0.05203022 0.282907 -0.12912427 -0.18413068 0.18320979 -0.26535055 0.12386651 -0.011297665 0.044835728
Fameuil 0.048071023 -0.21500109 0.8394705 -0.14342345 -0.111642726 -0.13938361 -0.0826452 -0.18789658 -0.5016934 -0.3069713 -0.2692527 -0.16888194 -0.37656847 0.03254232 -0.43770915 -0.2662599 0.03852418 0.47227317 -0.37560782 0.04427716 0.14961088 -0.16981077 -0.024499673 -0.5728938 0.1796095 -0.28366804 -0.10396169 0.5950663 0.053825002 0.0062215943 0.028922183 -0.004449676 0.0061441595 0.24749836 -0.0146801965 0.1300688 0.34042183 0.30479106 -0.38652328 -0.22732776 0.014303305 -0.33604568 -0.10578113 0.3844411 -0.06163515 -0.17290516 -0.01656954 -0.088319294 0.16639535 -0.11195969 0.025903668 -0.0390758 0.06937869 -0.20480126 -0.46193 -0.12848443 -0.15752593 0.16916715 -0.23641236 -0.3272425 0.17606075 0.05370292 -0.14991021 0.011245579
Listolier 0.10615982 -0.25734568 0.8959702 -0.13573313 -0.07716298 -0.18968575 0.00023496024 -0.23604117 -0.44909152 -0.31939274 -0.30584532 -0.21848527 -0.42228958 -0.07195246 -0.4105266 -0.22215076 0.07657923 0.46285373 -0.32438692 0.12754184 0.19045806 -0.09879543 0.07009188 -0.4641453 0.16637546 -0.23890463 -0.19158599 0.5225093 0.10467387 0.051772736 0.031427514 -0.027857216 -0.034350015 0.17669603 -0.012997887 0.037501466 0.33082452 0.18996266 -0.25007316 -0.3478857 0.02492694 -0.21980572 -0.039573267 0.39708328 -0.04376858 -0.11543848 0.011429613 -0.13425985 0.20436156 -0.09156742 0.116218455 -0.11619674 6.650178e-05 -0.16085277 -0.49397084 -0.046369888 -0.28277025 0.10595732 -0.1537682 -0.27136788 0.18589891 0.22619745 -0.12171708 0.02384465
Claquesous -0.014802608 -0.09086512 0.29087266 -0.042002544 -0.14245525 -0.16967265 -0.06268782 -0.09324886 -0.23789181 0.047604397 -0.32805187 -0.13549675 -0.15101875 -0.15748036 0.14420131 0.07007886 0.1267802 0.27788013 0.28158873 0.12894548 0.1992014 -0.05832932 -0.068231165 -0.55805945 -0.00233252 -0.5621957 -0.016575439 0.265388 -0.30294243 0.40603024 0.0053978045 -0.22575703 -0.044057067 0.21717505 0.16996132 0.048754707 -0.10123796 -0.13138886 -0.028983572 -0.23446706 -0.27931544 0.11514698 -0.16160223 0.18392436 0.0882286 0.2733219 0.08870273 0.11509729 -0.11865755 -0.35883123 -0.24342526 0.07410804 0.19352573 -0.49712732 0.03015 -0.2844937 0.25959304 0.12797667 -0.11447329 0.30946702 -0.15243128 0.18961734 -0.23590347 -0.17430353
Fauchelevent -0.051766198 0.01934915 0.47266325 -0.036806293 -0.42563203 0.116086245 -0.15745197 0.10905561 -0.11784474 -0.29705164 0.12176386 -0.19175448 -0.04116265 0.11702574 -0.0983812 -0.17005599 0.11201571 -0.08322022 0.1172558 -0.097347595 0.472907 -0.267832 -0.3610011 -0.108685195 0.42840603 -0.15788874 0.13429712 0.293398 -0.28270674 0.4635084 -0.10823962 -0.22832903 -0.12943186 0.07546985 0.25006294 -0.05563161 0.1437041 0.15456793 -0.021460233 -0.13384856 -0.51664996 -0.19556585 0.1484147 0.27638763 -0.007486737 0.2757708 0.17562547 0.012358768 -0.33066648 0.09384243 0.5827728 0.16277017 0.19511876 -0.70916265 -0.05134523 -0.038975555 -0.07162909 -0.12275402 -0.17417832 0.3707057 0.093435474 0.5417266 -0.08214785 0.2481203
Judge 0.22014302 -0.18486778 0.417935 -0.15857328 -0.0971255 -0.21183059 0.171109 -0.25680473 -0.22110145 -0.048432164 -0.28774798 -0.24250978 0.15295777 -0.22353427 -0.23924613 0.20573178 0.17834803 0.061709583 0.17459299 0.49590176 0.14569335 -0.3755459 -0.35708058 0.041673362 0.39125082 -0.42544827 0.06959569 0.09219797 -0.11552009 0.013777412 -0.1721023 -0.25432494 0.008027099 -0.32950523 0.0812216 0.14693941 0.02844604 0.06293612 0.14826761 -0.12469675 -0.20461406 -0.36053815 0.047386684 0.23512982 0.26786467 0.15915339 -0.086577445 0.1052413 0.24875623 0.1884626 0.33970204 0.029546844 0.2460794 -0.2163341 -0.3385154 -0.30803975 0.3346174 -0.2732014 -0.24954908 0.004670283 0.21771233 0.14147966 -0.42854849 0.16603611
Champmathieu 0.21877906 -0.029130667 0.3420062 -0.0072293575 0.0024457488 -0.26300988 0.21889228 -0.18008086 -0.1855969 -0.03687524 -0.33435073 -0.22092149 0.10193122 -0.21008943 -0.3046356 0.11232085 0.07958285 0.24661309 0.23444933 0.46282244 0.14416459 -0.30421132 -0.2944537 0.10262868 0.41644093 -0.36299416 0.028355459 0.0073014093 0.07221162 0.06610919 -0.061271407 -0.10387724 -0.052422818 -0.28238162 0.08198092 0.18313469 0.1434152 0.09522384 0.28191635 -0.20610057 -0.29302874 -0.3289283 0.11364502 0.22178093 0.2574933 0.45183355 0.010808352 0.03316961 0.16515975 0.064370506 0.39138582 0.0625144 0.24018429 -0.14791702 -0.4099655 -0.27948594 0.3974456 -0.22423674 -0.15840727 0.027186096 0.4266252 0.27956387 -0.47791046 0.23964465
Prouvaire -0.110022336 -0.36099455 0.12488466 -0.0035233933 0.0119691165 -0.47877672 -0.13739412 0.32191953 -0.029190345 -0.071532734 0.1431617 -0.061448038 -0.28549495 -0.4168431 0.116192535 -0.30408078 0.18144707 0.3822317 0.021668544 0.24047905 0.28595775 0.13113901 -0.032852914 -0.08606377 -0.0314216 -0.33970958 -0.08397933 0.07258841 -0.02879861 0.09055505 -0.20934546 -0.0031021922 0.17744052 0.014698829 0.24393867 0.09405089 0.008903978 -0.20002945 0.05414183 -0.07325138 -0.28647715 -0.17069162 0.17368051 -0.017560478 0.16539924 0.28735566 -0.005572646 0.24550633 -0.29411888 -0.29377857 0.008691023 -0.27357996 0.29336917 -0.24905749 -0.2668428 -0.1646254 0.006750571 -0.16425024 -0.32090783 0.032819346 -0.14553928 0.032966338 0.07656212 0.16062047
Mabeuf -0.17210494 -0.04588001 0.0841476 -0.31930757 0.0789755 -0.24576496 0.08469412 0.24789794 -0.20003264 -0.21687166 0.13843535 0.10948297 -0.29609442 -0.23398302 0.046834104 -0.1533899 0.3607683 0.43276018 -0.19575207 0.3136509 0.091352776 0.18751173 -0.26885292 -0.04471786 -0.09930402 -0.6863997 0.12850258 0.2868851 -0.2388335 0.25792307 -0.34843633 0.0163388 0.21836849 -0.45878065 0.17183392 0.08694826 -0.09681825 -0.31181097 -0.13764279 0.052030675 -0.025810096 -0.27645183 -0.011542407 0.2421203 0.27771178 0.3080659 0.20275833 0.40462852 -0.010832123 -0.30640128 -0.23729736 -0.09241004 -0.053860757 -0.09690806 -0.33767778 0.047321945 -0.044990554 -0.29097474 -0.6917169 0.24213408 -0.35556373 -0.2171936 0.18750004 0.3209611
Brujon 0.0057336157 -0.06295572 0.1592102 -0.07963046 -0.094484076 -0.12586041 -0.026719797 -0.058698006 -0.18365636 -0.0009823771 -0.1753301 -0.14148436 -0.13235642 -0.09399597 0.17956753 0.12180045 0.15824735 0.1427107 0.12830971 0.15434365 0.2137833 -0.08232588 -0.25405574 -0.60931426 -0.0073570423 -0.5057543 -0.019308455 0.32363915 -0.17839226 0.36657408 0.039404154 -0.1864619 0.011493927 0.049033977 0.09960113 -0.06274054 -0.12501766 -0.12717684 -0.03150607 -0.2100974 -0.16658486 0.03910212 -0.12709375 0.33346233 0.12081235 0.28201798 0.13849793 0.2043784 -0.13632151 -0.38702652 -0.20732729 -0.01460169 0.11544854 -0.5556305 -0.08402345 -0.31355903 0.294263 0.0069867102 -0.119064964 0.35213834 -0.14054194 0.13062635 -0.19180377 -0.16734263
Grantaire -0.17166787 -0.36716595 0.073184215 -0.003153586 -0.10772235 -0.42208552 -0.03263633 0.29116815 -0.13727878 -0.14187758 0.17957284 -0.09746223 -0.24152337 -0.36525813 0.08201367 -0.21034937 0.24944958 0.41223478 0.052611627 0.34719467 0.28987864 0.078083105 0.066177756 -0.07322431 0.06824557 -0.37062863 -0.100161396 0.020006426 0.004330026 -0.0039216937 -0.25012982 0.03551552 0.19470711 -0.14578354 0.2660697 0.11913149 -0.101062916 -0.13750225 0.16693415 -0.06046688 -0.332412 -0.24993181 0.084236674 -0.08548689 0.18284644 0.15405475 0.0082851285 0.17575741 -0.12930003 -0.22225185 -0.07083211 -0.19874386 0.29943585 -0.18821724 -0.4178823 -0.35228708 0.012284501 -0.2942593 -0.35446623 -0.041877136 -0.06281127 -0.06657555 0.038317364 0.09888128
Brevet 0.17652375 -0.08671131 0.376545 -0.00827196 0.011309977 -0.1987037 0.055668272 -0.25610757 -0.27137542 -0.11620686 -0.3337263 -0.33849794 0.031599853 -0.22652963 -0.26032922 0.12987146 0.17409293 0.21250623 0.073889926 0.455771 0.16744404 -0.32770163 -0.3104002 0.15955155 0.28010044 -0.3830541 -0.022742497 0.0042430977 0.07214311 0.035887554 -0.13981755 -0.051037267 0.03771913 -0.39272824 0.03575749 0.09824773 0.024164472 -0.056227677 0.23136884 -0.19397125 -0.33554646 -0.28991568 -0.014552487 0.24129353 0.22929636 0.36615333 -0.004046227 0.03675596 0.23635542 0.02904285 0.33248818 0.020668464 0.23107786 -0.118726715 -0.31714612 -0.32824308 0.24036564 -0.31169385 -0.15698202 0.03640052 0.32981545 0.25479794 -0.4175554 0.18727583
Chenildieu 0.28919235 -0.06869684 0.40003228 -0.090846986 -0.11790134 -0.15393947 0.13702545 -0.23308548 -0.21950325 -0.033523355 -0.18350317 -0.28159562 0.01059484 -0.18307236 -0.26209185 0.26129863 0.26857948 0.19639291 0.1349903 0.5386019 0.30159763 -0.36526424 -0.25743872 0.34040263 0.25399157 -0.43740183 0.108567774 0.099318504 6.1772356e-05 0.038118396 -0.031894587 -0.03248327 -0.0024313685 -0.2671459 0.14481175 0.1972601 0.08751478 0.0140713025 0.17501518 -0.20232594 -0.3742241 -0.3507157 -0.06768748 0.2081326 0.1531916 0.3641519 0.011286345 0.0019347647 0.19042169 0.15285859 0.36160502 0.12892318 0.2332089 -0.07950012 -0.34451622 -0.3331311 0.11935932 -0.33184657 -0.11649396 -0.076960444 0.32733887 0.3642012 -0.39148325 0.20244302
Cochepaille 0.18572468 -0.053538892 0.5342884 0.027812071 0.007816807 -0.1128472 0.1485392 -0.23515505 -0.17077293 -0.028371936 -0.39914218 -0.20206001 0.17423587 -0.2169689 -0.16661051 0.14076114 0.0767782 0.1992535 0.21529472 0.4253611 0.17481475 -0.33541244 -0.35567135 0.23567778 0.3245491 -0.43713188 0.042303264 0.11548106 0.0065976935 -0.024176663 -0.100705355 -0.08641438 -0.08750721 -0.32582986 0.073620595 0.0464025 0.019186743 -0.053244546 0.25534534 -0.26883957 -0.25168267 -0.29191598 0.019278852 0.24294049 0.1921815 0.38849008 0.07571138 -0.006079975 0.32480836 0.124852695 0.37471902 0.10269945 0.27847937 -0.20244242 -0.50889844 -0.3220133 0.20177445 -0.38449186 -0.26068446 0.10273858 0.4288308 0.09578209 -0.43904746 0.18073079
Bamatabois 0.1527534 0.004603425 0.3913287 -0.1924448 -0.06363015 -0.2413312 0.20041691 -0.24570994 -0.32114908 -0.12440637 -0.27280176 -0.31110933 -0.040684357 -0.25593337 -0.07524612 0.24584788 0.083082005 0.16653429 0.043044914 0.48874408 0.27754277 -0.31588772 -0.2399386 0.21106274 0.3550972 -0.42841738 0.03717022 0.18410513 -0.006111049 0.037169114 -0.08701898 -0.088375464 -0.068496205 -0.19684322 0.001192716 0.0044000987 0.10105613 -0.037693586 0.045345157 -0.24273951 -0.26403624 -0.19427508 -0.03348958 0.36378196 0.18901795 0.28595433 0.022049744 0.013238406 0.31623623 -0.007132897 0.3974053 0.04004451 0.18845476 -0.14325488 -0.2179878 -0.213301 -0.036900103 -0.31049737 -0.19525778 0.036571417 0.33248374 0.16384059 -0.39039838 0.2129656
Montparnasse -0.16445833 -0.013812084 0.2326698 -0.006068364 -0.2246971 -0.15586597 0.047542397 0.019615734 -0.25744918 0.048426457 -0.04689678 -0.087335125 -0.111224934 0.035618126 -0.025487047 0.05356111 0.18047844 0.3064736 0.26117134 0.06315006 0.09646 -5.860465e-05 -0.24770439 -0.6498361 0.11880752 -0.37699276 0.077978946 0.12035082 -0.0102702435 0.30003408 0.010249305 -0.1982081 0.09117767 0.10797407 0.041987393 0.07575439 -0.006271658 -0.122620955 -0.077833585 -0.30881628 -0.26259723 -0.027189264 -0.14786331 0.2147065 0.2113928 0.23518334 0.100823775 0.1476414 -0.077345364 -0.42811602 -0.21334915 0.1094821 0.06550694 -0.33809245 -0.15803663 -0.3218145 0.18788938 -0.09073847 -0.3574598 0.26341668 -0.106927045 0.08242703 -0.20008105 -0.21955135
Simplice 0.1586725 -0.16237645 0.7130973 0.019617584 -0.13742024 -0.0792528 -0.24151127 -0.038348015 -0.33742273 -0.23195072 0.008828823 -0.39762062 -0.2579806 0.05178153 -0.2289528 0.10780249 -0.08162615 0.52599806 -0.04910011 0.0337787 0.25839734 -0.0020599307 -0.37162176 -0.34767696 -0.055328872 0.07731281 -0.14133185 0.03747695 -0.049011756 0.27271542 0.02614428 0.061412774 0.3906335 -0.20827734 0.20852396 -0.26626968 0.17667946 0.043028727 0.077960305 -0.2871664 0.029173695 -0.15618879 -0.3073017 0.31548777 0.20209563 0.13663045 -0.062474206 0.029450782 0.14662993 -0.13034727 0.43757895 -0.097670645 -0.18043552 -0.0036226364 -0.35193902 -0.1099355 0.13071993 -0.37566632 -0.058814477 -0.15920134 -0.14043222 0.3649478 0.008116104 -0.22639297
MmeHucheloup -0.15631163 -0.35914522 0.16647702 -0.074070014 -0.0473039 -0.54727536 -0.033614893 0.3539268 -0.06371434 -0.15733182 0.10531396 -0.02208221 -0.18747115 -0.42803305 0.0655135 -0.2722643 0.15747896 0.33922192 0.041957643 0.18415043 0.3553399 0.14587814 0.08410142 -0.10654647 0.051989082 -0.32191727 -0.08006747 0.15332681 -0.105906725 0.038071934 -0.21371026 0.045533642 0.22028792 -0.08416122 0.20103185 0.07958961 -0.018839968 -0.2736122 0.108357474 -0.18156196 -0.18295173 -0.15192594 0.11144937 0.045580894 0.23953807 0.16686703 0.04975334 0.24434963 -0.2821824 -0.23635949 -0.10262745 -0.21565297 0.1952595 -0.27809435 -0.33878157 -0.09372685 -0.023410112 -0.2455653 -0.4329708 -0.027880402 -0.12036181 -0.079889566 0.18156528 0.09230298
Child2 -0.21654695 -0.7958825 0.1231899 -0.31056926 -0.13853589 -0.7675567 0.07743828 -0.020727957 -0.14386736 -0.3346461 -0.054462794 0.11195815 -0.54781634 -0.27647224 -0.059471674 -0.06534335 0.53470606 0.39594653 0.43946135 0.09681684 0.52409565 0.31104 -0.17502482 0.038886283 0.2024288 -0.20300366 0.09307924 0.28437248 -0.09322427 0.08808286 -0.6239303 -0.1102643 0.23181595 -0.217458 0.12035503 0.01254598 0.08949384 -0.32561117 0.58600545 -0.00039601742 -0.30316243 0.058956414 -0.07497678 0.17885599 0.49349046 0.1981336 0.009217121 0.3065447 -0.48697194 0.03718838 -0.23401845 -0.020359028 -0.06114681 -0.17948526 -0.10539595 -0.34929743 0.28101113 0.08200359 0.009452348 -0.10127847 0.15401438 0.12427624 0.1855255 -0.23889658
Child1 -0.09500324 -0.76598537 0.21804778 -0.29535586 -0.072550066 -0.6410596 -0.01104078 0.049503855 -0.05373554 -0.3194157 -0.066873595 0.2908456 -0.6213456 -0.40116093 0.1287254 -0.048300136 0.6591108 0.3979482 0.4712347 0.09321115 0.54293317 0.29174656 -0.079830855 -0.09031594 0.31569827 -0.18229775 0.07907674 0.09438404 0.011835 0.13562642 -0.5848128 -0.090837106 0.16354598 -0.027417798 -0.0009800694 0.035851162 0.02615915 -0.4333992 0.56431836 -0.06842309 -0.106951684 0.010382362 0.07428866 0.2858718 0.45334542 0.16409516 0.048978187 0.33877113 -0.36494046 0.05859191 -0.16539611 -0.10710456 -0.062724546 -0.25711012 -0.35497895 -0.3207619 0.17136517 -0.022978498 0.045935366 -0.0018678164 0.24282433 -0.05273198 0.12210263 -0.13525471
Anzelma -0.009864094 -0.016872048 0.21101682 0.10420149 -0.328935 -0.052624036 -0.05705408 0.0031704293 -0.24047379 0.08106579 -0.07777571 -0.043186724 -0.02836078 -0.11099383 0.059584305 -0.033486933 0.19523232 0.16526741 -0.1468135 0.055746283 0.20656885 -0.1384824 -0.26926878 -0.5467093 0.20582524 -0.56501096 -0.01860738 0.19957636 0.11889103 0.44861242 -0.20517968 -0.3739231 0.052374233 -0.021437021 0.30720863 0.09130586 0.04432242 0.021357656 -0.057334978 -0.0570636 -0.40445337 0.074292816 -0.04868154 0.31129596 0.16480373 0.03489707 0.18160191 0.14949434 -0.13915576 -0.32158107 -0.14172629 0.115075216 -0.050495554 -0.29490313 -0.111087486 -0.20530492 0.21105666 -0.0044979565 -0.056732915 0.4544418 -0.24413714 -0.06170883 -0.10694087 -0.028260127
Woman2 0.0095173335 -0.0061477893 0.3024026 0.04482583 -0.30123186 -0.04016615 -0.1638886 -0.029114582 -0.118605316 -0.119382076 -0.051148012 -0.18521704 0.078560166 -0.07199125 -0.006066326 -0.07968601 -0.0103873685 0.25016665 0.0043847966 0.059948273 0.28715035 -0.23666273 -0.30884027 -0.18361409 0.19485046 -0.2278871 0.06791593 0.0906277 -0.0196751 0.1803904 -0.13177237 -0.16128905 0.115957245 -0.064798005 0.16986571 0.0012712536 0.25184885 0.027770318 -0.15233132 -0.2527841 -0.26736525 -0.22891006 -0.048766084 0.2123406 0.10093706 0.27992404 -0.026285397 0.10440947 -0.10381845 -0.21307456 0.2152564 0.07359188 0.054113075 -0.283167 -0.12328357 -0.048152532 0.09636069 -0.20715378 -0.21723439 0.1551063 -0.07965492 0.14681588 -0.01789986 0.12851459
LtGillenormand 0.057717226 -0.26117575 0.14781433 -0.09808947 -0.25835317 0.04506472 -0.030863132 -0.0087065715 0.0034420113 -0.15698126 -0.15683424 0.022543706 0.2374089 -0.34358686 -0.015301245 0.026502427 0.15317273 0.49669224 -0.27942201 0.27903754 0.52012646 -0.10509775 -0.21920042 -0.20139863 -0.028856447 -0.3201969 -0.11174164 0.051474895 -0.12508793 0.26202652 -0.17127746 0.03547924 0.11080539 0.06869373 0.38020822 0.07552637 0.30422065 -0.36956403 0.21098976 0.0075410325 -0.074782595 -0.08212843 -0.13952723 -0.05009148 -0.040615883 0.049092192 0.025151573 -0.11391736 0.06603303 -0.049332224 -0.05760355 0.11034263 0.0060829204 -0.3989965 -0.51410884 -0.03632636 0.14107345 -0.16244322 -0.016154597 0.13716461 -0.091794655 0.19533543 0.30808562 0.21625036
MmeBurgon 0.34678993 -0.3670239 0.30718246 -0.50204134 -0.13062482 -0.36236823 0.42641807 0.27078846 -0.13230671 -0.09387537 0.15456079 -0.009065314 -0.39136764 0.104414016 0.21776797 -0.29225606 0.21503134 0.22968994 0.58560157 0.17381623 0.47621003 0.1168114 0.24875253 -0.05816689 0.086612485 -0.1098391 0.07800167 0.10183582 0.22208235 0.2576744 -0.057790786 -0.33247563 0.39398485 -0.14086123 0.3731857 0.13525246 -0.13003643 0.15468772 0.38311514 -0.5178548 -0.36775255 -0.4153199 -0.017807925 0.16849211 0.33923906 0.1735267 0.22559346 -0.04094888 -0.5304933 -0.4472445 -0.4166833 0.07515672 0.07328932 -0.2658626 -0.50234586 -0.35404572 -0.088634565 -0.2711262 -0.119166285 -0.16010036 -0.07732572 -0.03613507 0.4154326 -0.038433123
Toussaint -0.06460438 -0.053632595 0.3223285 0.009708324 -0.3412469 -0.052086152 -0.101865105 0.041678235 -0.18097843 -0.23738478 -0.10607894 -0.10690351 0.060188215 -0.25490528 0.20632796 -0.1225022 0.030842891 0.4452358 -0.051403284 0.022859346 0.47968477 -0.20965111 -0.17143583 -0.2090731 0.15870222 -0.27344656 -0.018423524 0.13364889 0.01866215 0.025830878 -0.12486371 -0.07920838 0.016336512 -0.014497259 0.25292856 -0.064992025 0.21648292 0.015578465 -0.08212784 -0.2912375 -0.24151675 -0.08414543 -0.11098905 0.12332715 0.055396583 0.20926611 -0.06357707 -0.0026912724 -0.03240167 -0.16971377 0.08214031 0.045466684 -0.08956427 -0.23443852 -0.20606989 -0.070032954 -0.07927472 -0.16440004 -0.012822555 0.058249827 -0.13748085 0.061800025 0.14099155 0.057701323
MotherInnocent -0.06428383 0.028388558 0.5124058 0.08325819 -0.33535483 0.34930763 -0.37009484 -0.06477387 -0.10255524 -0.4300412 0.1765925 -0.17940022 -0.16513759 0.095077 -0.2495312 -0.03390729 0.23163456 0.28630874 0.08717323 -0.060915813 0.4385266 -0.14242622 -0.46555743 -0.08947733 0.1747361 -0.23087873 0.33133817 0.4115631 -0.2555583 0.2589963 -0.1892043 -0.1957874 0.019564357 0.15204738 -0.047861747 0.037060536 -0.014797743 0.1304756 -0.072568245 -0.28486404 -0.37460944 -0.2838782 0.21656215 -0.015225617 -0.060251098 0.32541162 0.16779222 0.10581605 -0.45067492 -0.0032437071 0.41755286 0.005562952 0.24470642 -0.53866994 -0.2114671 -0.13406135 0.054898795 -0.1587851 -0.068108544 0.36639592 0.09836297 0.4455528 -0.08385529 0.11141023
Pontmercy 0.25298432 -0.41990748 0.13826422 0.031754036 -0.37588966 0.10497677 -0.398079 0.02248853 0.085959844 0.17225063 -0.065040335 0.34474626 -0.1149475 -0.1568688 -0.03353579 0.2082958 0.18114993 0.33644044 -0.044518974 0.42525986 0.12968747 -0.22576126 -0.4260983 -0.43122688 0.070235476 -0.21728703 -0.2584319 -0.08323829 -0.07232231 0.61181134 -0.04663965 -0.14026217 0.20490631 0.4236757 0.20410886 0.28792933 0.46502697 -0.28072205 -0.01988845 0.29880318 -0.21252795 -0.21643643 -0.39388806 0.21095175 -0.03784843 0.3933607 0.31676748 0.24069121 0.2222992 -0.41780573 0.1486064 -0.021569462 0.24711403 -0.2733078 -0.2650586 -0.14759526 0.47526008 -0.16431078 -0.018283488 -0.041032452 -0.06691183 -0.017869158 0.17059034 0.2690644
Count 0.08830362 -0.45730263 0.53736466 0.1807674 0.008821231 -0.14422935 -0.23375158 -0.26945764 -0.1575313 0.33788934 -0.2919313 -0.35863146 0.0011791999 -0.21302061 -0.048527505 -0.19817801 -0.12585801 0.22718744 -0.28034708 -0.011297182 0.37811568 -0.29264763 -0.46849206 -0.131047 0.2557941 -0.2630096 0.26595908 0.12427781 0.504969 -0.020553155 0.0125234155 -0.20438811 -0.05107082 -0.0047770613 -0.15955172 -0.11129362 0.5328134 -0.087949306 0.152759 -0.012840142 -0.17513299 -0.052517455 -0.04161536 0.3804923 0.1887878 0.69219846 -0.17736638 0.040974557 -0.32675004 -0.20763153 0.013483486 0.3356492 -0.1791145 -0.30355406 0.078400105 0.08165852 -0.03236372 -0.17360237 -0.49974868 0.1106381 -0.12480187 0.3108562 0.16818641 0.33747327
Perpetue 0.2410632 -0.13114055 0.6377181 -0.19248171 -0.3340657 -0.2531082 -0.39121684 -0.060565438 -0.4937003 -0.26790398 0.053644367 -0.50145596 -0.3392099 0.066183776 -0.19647092 -0.1741548 -0.30974573 0.13850898 -0.2007656 0.23430099 0.30590028 -0.10452679 -0.30027804 -0.17820895 -0.29317617 0.077540986 -0.19708312 0.124102205 0.037723742 0.20102824 -0.07541708 0.08342709 0.5279189 0.053097043 0.23245479 -0.070617266 0.2788387 -0.10574176 -0.2506428 -0.15573289 -0.24680965 -0.3264022 -0.25279608 0.3630426 0.33519268 0.055233248 -0.20661142 -0.073371194 0.19481188 -0.32577112 0.33873793 0.2245294 0.08101439 -0.2161803 -0.12987788 -0.14090772 0.1657301 -0.14544596 0.102028 -0.27444485 0.07260719 0.14656697 -0.24775219 -0.1526698
Gribier 0.022666803 0.016616013 0.6048245 0.12601115 -0.3301215 0.42135954 -0.39707342 -0.151043 -0.03040463 -0.41258174 0.03159776 -0.12115354 -0.26025543 0.08219629 -0.21719818 0.057198856 0.09214071 0.31042022 0.09121177 -0.06441722 0.39723554 -0.13399483 -0.40367153 -0.015082941 0.1774636 -0.22804613 0.29658225 0.42943227 -0.26082015 0.24068172 -0.1746031 -0.26405618 -0.008741391 0.13179842 -0.06148259 0.019302353 0.10264537 0.03483225 -0.105156526 -0.28827268 -0.35298842 -0.29376408 0.27896184 -0.06197618 -0.057748448 0.41173995 0.20341581 0.11633707 -0.4793359 0.021512713 0.48254055 0.0050583365 0.26023287 -0.51135695 -0.30831024 -0.02758423 0.04388577 -0.19944392 -0.085876234 0.41580075 0.17441392 0.40293598 -0.098136626 0.18517072
MotherPlutarch -0.031240657 -0.19838767 0.14316903 -0.35555762 -0.25680393 -0.60160035 0.05518533 0.4087474 -0.28140995 -0.008182896 0.14705871 0.034779232 -0.46531215 -0.359194 0.49513182 -0.01004192 0.092921436 0.48873657 0.12454281 0.028662188 0.2806523 0.01264607 0.017195646 -0.35951918 0.14678027 -0.71653795 -0.011212961 0.10456674 -0.16578129 0.18542928 -0.17447892 0.09331327 0.2411425 -0.5567953 0.062020954 0.17313705 0.23326838 -0.19693671 -0.29150516 0.2890024 0.08594305 -0.280579 0.049785532 0.10904602 0.13921773 -0.0006324308 0.091120355 0.23297825 -0.123653896 -0.21378142 -0.16777213 -0.06593834 -0.1742146 0.0012991496 -0.42779726 0.2683745 0.09308245 -0.33102852 -0.6747952 0.16203973 -0.11057141 -0.09334384 -0.015646692 0.38811672
MmePontmercy 0.2767281 -0.3966873 0.053262953 -0.041402407 -0.44298998 -0.14781632 -0.06988188 -0.096891075 0.13799822 -0.098436 0.2429057 0.32866806 -0.07449353 -0.114067994 -0.07987709 0.18262146 0.11257677 0.45628694 -0.16397573 0.64077175 0.31205648 -0.07963132 -0.6594525 -0.46767476 -0.056327756 -0.42300913 -0.038770456 0.09587895 -0.20219733 0.13748884 0.14600466 0.0039111543 -0.061472163 0.32300368 0.41329232 0.31870642 0.5235562 0.0032246192 0.018058762 0.28731614 0.2555974 -0.20573822 -0.39539126 -0.09226062 0.09229455 0.3029677 -0.21695241 0.15886779 -0.09289395 -0.23730028 0.250581 -0.038463634 0.1452538 -0.575524 -0.27391753 0.016287787 0.59365165 -0.21593003 -0.020405985 0.10898914 -0.22278193 -0.086863846 0.06683032 0.02685463
Woman1 -0.07002373 -0.0835032 0.3259152 -0.010463021 -0.25554943 -0.19805531 -0.10105694 -0.06501931 -0.14462368 -0.15939721 -0.1378044 -0.20276509 0.043495625 -0.2377526 -0.02330002 -0.020780072 0.020796752 0.261509 0.03192186 0.122519724 0.29994422 -0.20283833 -0.26325724 -0.16789263 0.18921141 -0.26807278 0.009823598 0.12398919 -0.057458654 0.18459786 -0.16072118 -0.1642309 -0.023872914 -0.05257339 0.15084806 0.003602992 0.20166484 -0.09209843 -0.021142863 -0.22028303 -0.2608367 -0.030798355 -0.0029603 0.22256604 0.16171387 0.19530766 -0.023967884 0.045227077 -0.010096512 -0.11786829 0.13357985 0.064723775 0.070123844 -0.28646758 -0.10672521 -0.15639403 0.058662407 -0.08207476 -0.17973399 0.16137464 -0.0012910747 0.20110944 -0.11188687 0.09120665
Marguerite 0.07057675 -0.21168675 0.71472514 0.0024260017 -0.13393927 -0.0678814 -0.16813517 -0.13110958 -0.46370375 -0.23790777 -0.08172036 -0.21186285 -0.34155694 -0.11245972 -0.1853716 -0.08395194 -0.08219789 0.281273 -0.25095832 0.19182046 0.23007962 -0.108568534 -0.078020886 -0.30295154 0.07161211 -0.12870806 -0.15082236 0.32028434 0.04182702 0.09193178 -0.053332977 -0.05824847 0.11617179 0.1458093 0.051596712 0.044133082 0.30127963 0.03960923 -0.1603117 -0.23475686 -0.00049954606 -0.14227855 -0.1286983 0.2767553 0.050602026 0.0016303645 -0.048815645 -0.078796566 0.17136137 -0.10154217 0.20681931 0.037175845 -0.03376139 -0.21248008 -0.38067675 -0.064949095 -0.04226302 -0.14664336 -0.065398894 -0.15227067 0.11163403 0.2107927 -0.07238493 0.022161875
Magnon 0.02669641 -0.16638897 0.2878383 0.040704906 -0.30535552 0.07550066 -0.059016407 -0.03423006 -0.22669491 -0.07431183 -0.16611081 -0.00452263 0.044246342 -0.20425059 0.11719555 0.15663218 0.28127444 0.3379227 -0.11802917 0.11612749 0.44241628 -0.21210296 -0.15988299 -0.36740002 0.09206693 -0.5019784 -0.012431104 0.17037709 -0.11607279 0.22000927 -0.12244913 -0.056091968 0.011545277 -0.10454517 0.4266716 0.09950934 0.21351676 -0.23117004 0.10272018 0.05000905 -0.16319054 0.10007961 -0.19478315 -0.004071743 -0.050501514 -0.06666843 0.02149154 -0.21164891 0.08996289 0.031104278 -0.23882638 0.28341115 -0.033489287 -0.3484055 -0.4682362 -0.25536603 0.23998189 -0.043976407 0.028343465 0.16375247 -0.18191351 0.29320443 0.22491935 0.005365998
Napoleon 0.119305305 -0.53488106 0.62056535 0.21056584 0.0021113164 -0.12285028 -0.35495704 -0.20448363 -0.14710835 0.35504633 -0.34985214 -0.38660508 -0.004435831 -0.295062 -0.046774272 -0.22999911 -0.15500113 0.27911925 -0.28277853 -0.019682791 0.40374064 -0.34412345 -0.47742593 -0.06066574 0.22424376 -0.29821813 0.23684585 0.086304106 0.40352172 -0.038151752 0.04285771 -0.11755198 -0.0933665 0.033853892 -0.21971177 -0.16002613 0.48809633 -0.08054188 0.13796844 0.1558952 -0.17293888 -0.07173521 -0.030566566 0.27986008 0.1240077 0.71247804 -0.16405953 0.0052132374 -0.24429688 -0.17023487 0.03438743 0.31766167 -0.12723966 -0.27550825 0.09783143 0.14117096 -0.014256859 -0.20141646 -0.5610743 0.03137859 -0.1416075 0.24020165 0.23454276 0.4191846
BaronessT -0.044653755 -0.24590725 0.17278251 -0.025194777 -0.25498897 0.036863394 0.029498866 0.123099834 -0.07286819 -0.065124966 -0.071775824 -0.04002553 0.23762456 -0.27586856 0.023234509 -0.06762773 0.10159652 0.41381493 -0.21608457 0.32335892 0.47430947 -0.10033803 -0.14331098 -0.27151823 0.01834676 -0.3371187 -0.15294366 0.049085874 -0.030696107 0.061543085 -0.029817255 0.068457946 0.07415614 -0.019740628 0.50342566 0.07844249 0.17058843 -0.30416828 0.25598672 0.066120155 -0.18863563 -0.11322552 -0.09373801 -0.18800412 -0.023579538 0.078852855 0.031447083 -0.15107675 0.12708613 -0.0701903 -0.103272334 0.1494032 0.1861314 -0.3853561 -0.61639744 -0.22106288 0.12901558 -0.23857613 -0.14212555 0.0053670416 -0.04511191 0.051472966 0.3117097 0.18957245
CountessDeLo 0.0910711 -0.4895915 0.60339725 0.14256716 -0.050985917 -0.10009445 -0.24588645 -0.23302199 -0.11062336 0.35941193 -0.2971234 -0.2464114 0.006475946 -0.25838387 -0.06323544 -0.17401974 -0.14184488 0.1986892 -0.16816342 -0.0036067867 0.33038238 -0.2976503 -0.4294474 -0.07670261 0.22643717 -0.228045 0.2758454 0.09726672 0.43939954 -0.08300175 0.08359901 -0.23179275 -0.113243274 0.044490945 -0.17721532 -0.059269078 0.46773142 -0.11547082 0.23120522 0.020907454 -0.19604091 -0.03944869 -0.049177602 0.28063515 0.21982352 0.7592723 -0.14943328 0.06993822 -0.329767 -0.19469355 -0.03654086 0.36192134 -0.11455917 -0.316428 0.01377836 0.028212655 -0.0046710297 -0.21436737 -0.5871438 0.07208652 -0.14928067 0.18982954 0.16355844 0.30242753
Champtercier 0.108795166 -0.48844305 0.57308036 0.1475589 -0.008079432 -0.13611163 -0.21477336 -0.2668251 -0.16710815 0.33047885 -0.42178893 -0.34454414 0.025550347 -0.2334256 0.03323261 -0.2122278 -0.1280386 0.19723514 -0.18666108 -0.006466318 0.4047471 -0.34709996 -0.44721586 -0.11630115 0.26501969 -0.25059032 0.20771745 0.073614605 0.42124647 -0.010456157 0.030024033 -0.18285319 -0.101946205 -0.021004649 -0.14248097 -0.1393936 0.48408607 -0.06901435 0.1808242 0.0195005 -0.17280485 -0.037087493 -0.08616555 0.34486634 0.14496198 0.65353 -0.1255784 -0.011646344 -0.21967171 -0.18538365 -0.035908125 0.35934207 -0.150063 -0.30190122 0.040930726 0.07965799 -0.014121151 -0.17842448 -0.49020833 0.037380394 -0.11819418 0.2523498 0.20679978 0.33628768
OldMan 0.116289735 -0.5336231 0.58552104 0.14326042 -0.015070126 -0.19754107 -0.27515748 -0.20297612 -0.12254925 0.33802858 -0.38648197 -0.3875509 0.04810207 -0.25413227 -0.014448349 -0.2336796 -0.14557503 0.20018426 -0.17442049 -0.05297182 0.38332704 -0.32087725 -0.5273934 -0.062401604 0.21655837 -0.21908453 0.21660514 0.018201632 0.45274788 -0.08590074 0.02441827 -0.08868622 -0.07675328 -0.10058817 -0.17646007 -0.21808594 0.45280114 -0.15538597 0.23945068 0.09067307 -0.1948997 -0.02836133 -0.09335969 0.31390923 0.21163315 0.7248557 -0.17120354 0.0027452223 -0.19549075 -0.17099729 0.011813223 0.3834547 -0.13729848 -0.2701967 0.040018156 0.06564229 -0.01638164 -0.2223582 -0.59980434 0.029158115 -0.12877505 0.23986386 0.19313034 0.3261842
Geborand 0.11993715 -0.42564777 0.55780476 0.18541968 0.02249472 -0.15892847 -0.22399679 -0.22376744 -0.16208445 0.39548418 -0.3879877 -0.42276403 0.022415277 -0.28121895 0.013993648 -0.22817145 -0.085663356 0.18938382 -0.20536375 0.023323081 0.34437072 -0.32451537 -0.41238645 -0.096046954 0.23983188 -0.33706027 0.21631289 0.0527186 0.4194113 0.019533226 0.052255757 -0.22670844 -0.11781763 -0.035555944 -0.15678298 -0.14691554 0.40339968 -0.041668378 0.13750172 0.027038796 -0.2256527 0.0014902746 -0.038141467 0.3192373 0.15801574 0.64155537 -0.120921396 0.034605805 -0.2055818 -0.2032831 0.008271948 0.27036715 -0.13464117 -0.2325417 0.11385565 0.08243411 -0.07325137 -0.1484421 -0.53749776 0.11395929 -0.20570485 0.25160614 0.11029219 0.34958476
Cravatte 0.07054837 -0.4740535 0.64894766 0.28125018 0.057879746 -0.19062851 -0.23968776 -0.22704217 -0.2194203 0.37410808 -0.3874665 -0.34527078 -0.023402374 -0.32693502 -0.0363081 -0.19166742 -0.14972755 0.24364875 -0.1896741 -0.012427256 0.3417987 -0.31699026 -0.41765523 -0.06503244 0.23104398 -0.2741892 0.19878472 0.105536856 0.51742303 -0.08516276 0.085278116 -0.1761658 -0.13359942 0.0013300966 -0.17943811 -0.13016808 0.43709514 -0.08240878 0.1993061 0.0033295993 -0.22869861 0.027082026 -0.055786587 0.3398591 0.24181816 0.70719266 -0.17066313 0.033790387 -0.23456672 -0.16837269 0.014451927 0.31081444 -0.16601762 -0.19886127 0.033470374 0.024596155 -0.015021 -0.17837094 -0.48843843 0.022333302 -0.11120124 0.23720257 0.07651007 0.27452266
Jondrette 0.24445604 -0.48839635 0.31676403 -0.63782454 -0.047470115 -0.17452016 0.4615293 0.15777875 -0.20195526 0.15536173 0.10578567 -0.07697063 -0.36888778 0.22161233 0.36362824 -0.43426657 0.44178206 0.23955436 0.59588826 0.42715728 0.52965724 0.4533079 0.23087053 -0.13552053 0.0894332 -0.20403334 0.24021618 0.07509223 0.27755213 0.21658087 -0.29219905 -0.5335895 0.3812464 0.19058663 0.39740974 0.09243029 -0.14620818 0.21957488 0.4219425 -0.5893596 -0.37224585 -0.5980696 -0.11110139 0.0830169 0.1603324 0.08752869 0.19378333 0.12906942 -0.6104982 -0.6076786 -0.27859533 0.10593987 0.2475589 -0.15292537 -0.43645573 -0.15743805 -0.16537866 -0.32467255 -0.1817531 -0.059843637 0.08275405 -0.15205842 0.3693958 0.03792545
MlleVaubois 0.17142731 -0.3868316 0.03667699 -0.15756696 -0.34411648 -0.020192236 -0.0034318378 -0.025487162 0.15107217 -0.16133074 -0.08231424 0.14640537 0.22767799 -0.42145714 0.013180688 0.055090126 0.29131833 0.66519886 -0.3038105 0.32123554 0.6585496 -0.12361961 -0.37275612 -0.2422938 -0.045174886 -0.39435825 -0.11645268 0.03838887 -0.08133805 0.24376921 -0.11882402 0.12082842 0.024685316 0.27504024 0.42855468 0.047118817 0.38510537 -0.3623621 0.2486652 0.15072529 0.0011330843 -0.061154988 -0.12054704 -0.09747595 -0.033985294 0.08973885 -0.072829425 -0.1710789 0.053588465 -0.07116374 -0.014974737 0.007929293 0.070227556 -0.46235114 -0.49529958 -0.02335212 0.1590388 -0.040192153 0.16068956 0.066102676 -0.16271648 0.17700711 0.44104552 0.20345497
Boulatruelle 0.011008735 -0.12297911 0.2923659 0.08429088 -0.2469178 -0.08398112 -0.03770238 0.057419445 -0.2369154 0.13245319 -0.123118624 -0.012142304 -0.0842095 -0.119322084 0.059763264 0.05193085 0.09344809 0.24025507 0.12462586 0.110359535 0.23042674 -0.18044768 -0.18186799 -0.52102387 0.06688808 -0.5067515 -0.065033674 0.14742367 0.0246558 0.42451844 0.039020568 -0.15005025 0.0019306566 0.08585904 0.18739663 0.095323585 0.015399742 -0.008052485 -0.010451667 -0.1186796 -0.33513588 0.04336963 -0.31159788 0.2315244 0.2264806 0.22486313 0.124572165 0.09942461 -0.015635636 -0.31840965 -0.08342183 0.13417551 0.09735081 -0.2688877 -0.11368866 -0.20935751 0.32770002 -0.06277948 -0.09357919 0.16821331 -0.10904638 0.0055130073 -0.1930244 -0.103695735
Gervais 0.09614962 -0.08725287 0.28542465 0.05949783 -0.19113882 0.065610275 -0.07680025 -0.00908095 -0.048842255 -0.11319402 -0.02709392 -0.17397778 0.18816333 -0.105309896 -0.079470165 -0.08700476 0.02774737 0.24392942 -0.13870557 0.1724755 0.38140026 -0.26743245 -0.32548025 -0.06303523 0.15343308 -0.23275143 0.045550592 0.12187876 0.03998167 0.083461516 -0.035006564 -0.08410785 0.06363724 -0.07891973 0.26615545 -0.0003141114 0.18534377 -0.018766489 0.07119799 -0.18339188 -0.24720484 -0.2537497 0.025735393 0.08842314 0.045409057 0.29766795 -0.023907185 -0.027315037 -0.13616104 -0.08069272 0.2376344 0.09766832 0.14239083 -0.37745172 -0.3328432 -0.117775165 0.060663555 -0.24367847 -0.16318896 0.1036978 -0.041822106 0.2536582 0.08602357 0.18969034
Scaufflaire 0.14007181 -0.13862373 0.3455962 0.0732415 -0.18403104 -0.054171827 -0.16313952 -0.0710188 -0.08458162 -0.036694042 -0.08904377 -0.1963841 0.0136098275 -0.1462254 -0.11144568 0.006227175 0.116990246 0.2705807 -0.05422027 0.14863339 0.3165917 -0.25680155 -0.28338155 -0.04767743 0.19318749 -0.2882899 0.047106974 0.061661877 0.0065845056 0.10771357 -0.0880037 -0.046985142 0.11082393 -0.06233821 0.1378019 0.044084314 0.18214056 0.029259762 0.017944666 -0.08505825 -0.26593444 -0.19221003 -0.08964678 0.111535855 0.08196683 0.30830905 -0.04259783 0.06485942 -0.07051492 -0.074482374 0.2528223 0.047577407 0.13733838 -0.23276788 -0.20981355 -0.14577161 0.12828605 -0.21288064 -0.15224323 0.058677945 -0.07447864 0.21289308 -0.0137270475 0.117098294
MmeDeR 0.03503414 -0.222225 0.38064978 0.08948447 -0.17828338 -0.05596347 -0.1705677 -0.101776 -0.07044822 -0.10723784 -0.09279653 -0.21337286 -0.038167235 -0.1098729 -0.09708783 -0.10878763 0.0795268 0.24303588 -0.029569766 0.1156481 0.3378874 -0.13458829 -0.23740552 -0.0152164325 0.21782269 -0.14716804 0.092282295 0.10451838 0.024891393 0.10698307 -0.14557788 -0.18597277 0.058760315 -0.0392264 0.11683438 0.0044841147 0.19107626 -0.023324057 0.10278269 -0.1771289 -0.2788661 -0.17485456 0.01860368 0.10572014 0.11308222 0.3429413 -0.0035391971 0.07122718 -0.22528385 -0.10829427 0.1872223 0.062746756 0.08480286 -0.3153795 -0.16581775 -0.0695055 0.0041196407 -0.22147897 -0.24422832 0.10934202 -0.050146703 0.21494031 0.08819734 0.1519847
Isabeau 0.089974955 -0.15223539 0.3035426 0.16327009 -0.1738833 -0.078354605 -0.19143818 -0.0198295 -0.0730311 -0.10852796 -0.12501185 -0.19165225 0.0114084175 -0.13460384 -0.13661113 -0.04250185 0.039047413 0.2560645 -0.11708845 0.12150139 0.2954805 -0.23116936 -0.30361483 -0.1095634 0.14282477 -0.28016415 -0.008743025 0.1280586 -0.024627695 0.21057253 -0.10643822 -0.042630646 0.09007866 -0.12424479 0.18450835 0.021028876 0.18393452 -0.045008946 -0.009364825 -0.030455794 -0.21611202 -0.17884831 -0.043997966 0.1580544 0.11261006 0.2720863 0.01936904 0.045859955 -0.117417164 -0.08447526 0.24216168 0.06033868 0.07464816 -0.28719133 -0.17549479 -0.028520048 0.18509175 -0.17469841 -0.1521641 0.11507671 -0.095456354 0.26012692 0.026594216 0.11998087
Labarre 0.08349384 -0.14869386 0.37455434 0.08506533 -0.13336092 -0.09933902 -0.15143432 -0.09988149 -0.12156291 -0.11504768 -0.17625698 -0.16981144 -0.020758014 -0.1781836 -0.15691295 -0.012693732 0.060698766 0.25562286 -0.10925952 0.10106515 0.2479385 -0.23202609 -0.2114656 -0.05753737 0.14985043 -0.22165905 0.0088829445 0.14304914 -0.025937846 0.08530231 -0.106057435 -0.062119555 0.08308657 -0.05506271 0.16811454 0.048967972 0.2297216 -0.016764278 0.0063822954 -0.17928523 -0.24881609 -0.15443811 -0.055384852 0.18461043 0.09302668 0.22133476 -0.02960886 0.026779259 -0.06148108 -0.054170534 0.18295269 0.03202829 0.09577665 -0.2917978 -0.26094258 -0.16216499 0.0674465 -0.16343428 -0.19012336 0.045538794 -0.042340297 0.24916847 -0.039484043 0.0881028
